170 64
63 0.7966575 -0.4410798 -0.4556585 0.09935306 -1.0004013 1.3124871 3.5400112 -0.2685286 -1.5062541 0.2854532 0.41671592 -1.7489645 -0.80479544 0.36537293 0.92039376 2.4287012 -1.0326712 0.90599835 -0.07342649 -0.76482284 -2.6483383 1.675469 1.0361476 -1.8137563 0.529213 0.6151882 -0.17670113 -1.203523 0.3465927 -1.1303068 -1.5658588 2.678804 -0.9522474 0.83322376 0.80909586 0.6314084 2.4557314 2.229354 1.2173347 -1.9806523 -1.2759134 0.5170058 1.1083375 -0.9421584 0.14721219 0.17403224 0.40576184 -1.0534323 -0.54161596 -0.6677851 2.6150584 -0.15532106 -0.38910353 -1.3082323 1.3626716 0.93774277 2.1510417 1.3514571 -0.9573121 0.02392222 1.718592 2.3162708 -0.010151396 -1.5450172
142 0.30054927 0.24010311 -0.5260428 1.6095291 -0.22861786 1.8976821 0.2714078 0.2968811 -0.40101004 0.50743765 -3.1158948 -1.9206243 -1.3659956 0.06485999 0.8759872 -0.62338483 0.16489604 -0.40745816 1.9463722 -1.713801 -1.4520898 0.28512126 1.6974692 -0.2727722 1.1582502 -0.22818522 2.3728113 -1.6173947 -0.17804399 0.28062338 -0.6141964 -0.07353276 -0.4593307 0.33019868 -0.41213644 0.41877472 2.2289927 0.18135762 -0.40929753 -1.3106699 -0.89512086 0.53118724 -0.3085385 -0.91984695 0.16588654 2.461118 1.2615862 -2.515566 0.98377204 -1.4804217 1.8385129 0.7900939 -2.2693732 0.113417104 0.8916055 -0.66934997 0.3816304 -0.83524376 -0.19796118 -0.72807896 0.8321951 1.514904 -0.15623516 1.0502665
131 1.4422843 -0.6300676 0.88353336 2.515073 0.54905635 -0.014703735 0.45815894 -0.06762285 -2.7668087 -1.1782696 -0.5750048 0.24448283 1.212622 0.9226538 -0.17088172 -0.24760827 0.40795657 -0.42728683 0.16139445 -0.5578481 -0.33594444 0.73441696 0.0346671 -1.4044201 2.584894 -0.59061944 -1.3659943 -0.03100314 -0.067014635 -2.0589752 -1.2242215 -0.5998631 0.9110993 0.9939751 -1.0468457 -0.4705987 1.5534767 -0.54691434 -0.5714283 -0.54101056 0.792287 0.45663387 0.19472612 -0.94317347 -0.2955071 2.973589 1.7066568 -2.137 -1.1874096 -1.2100704 0.44478598 -0.2867272 0.3269029 0.50612825 -0.58825535 0.9739381 -2.0138931 -1.4090703 -1.6944691 0.8680741 0.2758856 0.84542364 -1.19572 -1.5637869
136 -0.027474597 0.9025605 -0.9522729 0.57398635 -0.37331766 0.89460456 2.4650748 -0.769635 -1.4983279 0.38868314 -0.1981792 0.3350615 0.3548737 2.2807343 -0.28774545 -0.5796301 -0.29049823 2.1958752 0.36095613 -1.5707998 -1.450462 -0.9241297 1.4593282 0.9387233 1.3499411 -1.1143116 0.006182933 -0.07347533 1.3425902 0.6703148 -1.4765524 1.6655279 2.325335 1.3482887 -1.5925044 -0.16122334 0.4915613 0.893342 0.07672143 -2.7308662 1.3304237 -1.327741 -1.1180143 0.34040266 0.8160649 2.3926003 0.3623965 -1.6132474 -0.6611097 -1.3493303 2.8649416 0.3611841 2.2920473 0.78630704 -0.64089876 2.2255602 -1.353365 -0.5999142 -0.27514416 0.48987427 0.81821686 1.6057531 -0.09405218 -2.0088542
10 0.026363514 0.7403962 -0.5456184 0.52934104 -0.69558936 0.326297 1.8320602 1.2462378 -2.0534544 -0.016620822 -0.39082476 -0.11379942 -1.4242355 -0.67412883 1.4514744 1.9808816 1.1568058 0.60526884 1.6448044 -3.7368746 0.8831912 1.1216594 -0.75331765 -0.11207604 0.9293171 0.37204146 -0.94721556 0.07042324 -1.006628 -0.21340854 -1.3952241 1.1784561 1.5060993 -2.087959 0.06687188 0.34760034 1.0492697 1.4535946 -0.9608533 -1.1585416 0.32445344 0.42893192 -3.574853 -0.076465525 -0.3955847 1.1676352 -0.22738922 -1.466042 -0.02487092 0.052153263 4.23497 1.5559114 0.096139185 -1.8969164 -0.27198192 -0.340038 1.3978378 0.328213 -0.5811802 -1.1826894 -2.6952443 2.0093982 -2.4695535 -0.7148718
166 -1.1579509 1.6933233 -0.2954449 1.3567461 -1.0179174 1.4894457 1.0447459 -1.1948247 -1.9471948 0.191149 -1.0041171 -0.01739186 1.1355461 1.0648258 -0.1279732 1.5738555 1.5045809 0.3449542 -0.012720582 -0.86972606 0.33475804 -1.1657457 0.9287764 -2.424665 2.0992508 -0.32828882 1.9606102 -1.31013 1.6259028 0.3938351 -1.2749522 1.9623809 1.6359553 0.285835 -2.5248408 -0.475399 1.6463987 0.8411648 -2.574808 -0.34498885 0.8690653 -0.58526134 0.029592171 -0.8143986 -0.171127 0.7698951 1.194613 -0.22830242 0.50882095 -0.80762506 2.5470374 -0.22055429 0.675515 -1.2044499 0.97023976 0.29280412 0.6189975 0.41601047 -1.0960562 1.3045869 0.042683605 0.97356427 -1.4931169 -2.9054482
0 0.59959954 -0.3155124 0.14416794 0.28129375 0.10169682 1.488827 2.6068225 0.7424569 -0.47091314 0.052244954 0.28474924 0.4477819 1.6444321 -0.29667354 0.3244223 0.6717456 1.7199816 0.8020775 0.6846449 -0.65821266 0.12923598 -0.34068778 1.8097512 -0.79996985 0.78458154 -1.9337091 1.0382069 -1.056991 -1.044645 1.4151367 -0.44385153 1.3573922 0.5606411 0.71396285 -1.1295433 -1.51137 2.3638568 0.5561471 -0.6945958 0.2527039 0.79477555 1.7120692 -1.5000218 -1.1570036 0.84669405 2.0791352 0.17952639 -0.5177062 -1.0281672 -0.879972 3.4600391 -0.14605403 -0.021891337 -1.1247245 -0.47058302 1.3930789 -0.81776226 0.57771564 -0.65652895 0.55667055 -1.6043221 -0.32423648 -2.4146907 -0.60737944
98 0.0021202196 -0.046680212 -0.1666105 0.47916222 0.31967217 0.32898617 -0.08093771 0.08666686 -0.04476431 0.121544614 -0.6144083 -0.34311622 -0.16134436 -0.053904388 0.14234877 -0.26353663 -0.09712893 -0.07317175 0.67507017 -0.19906707 -0.3452898 -0.027124884 0.10774084 -0.18725 0.96816826 -0.2596529 0.5692648 -0.5552933 -0.24369602 -0.06839152 -0.43825215 0.16680819 -0.116498716 0.22306025 0.27595964 0.28983954 0.28372055 -0.19046693 -0.13759318 -0.5836327 -0.008896515 -0.0458615 -0.27635163 -0.26780948 -0.3920455 0.61821365 0.24395488 -0.7207818 -0.082271494 -0.44081527 0.3213131 0.38783953 -0.5326364 0.21643247 0.30130613 0.17060564 0.32451802 -0.21190232 0.2845817 0.10666587 0.32642534 0.5403961 0.101657495 0.030589832
144 -0.14719702 0.048494767 -0.47552323 0.5940163 0.5781187 0.3553344 0.099485055 0.18462975 -0.1481485 0.3704084 -0.6960048 -0.5013495 -0.042976517 -0.107834995 0.3197079 -0.23726965 -0.09476226 -0.300465 0.6877835 0.004915013 -0.23485088 0.05647901 -0.07686718 -0.031509504 0.81741744 -0.19565944 0.3672519 -0.45921746 -0.38048485 -0.06447068 -0.4566156 0.23446472 -0.079733506 0.2118449 0.25727627 0.13460825 0.14214292 0.0024302131 0.029153535 -0.37711558 0.15915124 0.0040102066 -0.2571859 -0.40202516 -0.36900795 0.6833255 0.2838923 -0.758774 -0.02979426 -0.41430417 0.23660521 0.5050396 -0.52291197 0.19234794 0.14128818 0.022541655 0.3243791 -0.15180495 0.22968735 -0.027712505 0.47376904 0.6882635 -0.030711561 -0.042194653
40 0.19873844 0.09337205 0.32794258 0.5548773 0.44908562 0.13728248 0.079082794 -0.05498319 -0.27040094 -0.03568784 -0.07273077 0.022385921 0.4707032 0.07856883 -0.19546716 0.23642872 0.5881015 -0.4459045 0.031103354 -0.035034753 -0.13842002 0.28219002 -0.19319376 -0.12472752 0.4528441 0.5736992 0.14978185 0.49331215 -0.047147416 -0.39552963 -0.22101974 0.11872554 0.04823771 0.69152266 0.27249187 0.031303164 0.016183311 -0.31350073 -0.26056892 -0.3763874 -0.30653942 0.03201059 -0.5255486 0.1635079 -0.36244532 1.0532421 -0.010774767 -0.9034107 -0.39396784 -0.16725516 0.510009 0.08151995 0.23373537 0.20854661 -0.088754 0.58128345 -0.18233004 0.25437516 0.23128425 0.36257404 0.088872395 -0.42487845 -0.8074564 -0.7895891
141 0.092658974 0.27962217 -0.114430256 0.3662348 -0.026202682 0.70574397 0.02025434 0.33045626 -0.1814145 0.09332852 -0.94135207 -0.5634722 -0.2236809 -0.101848274 0.58139515 0.0013343913 0.055137187 -0.030012885 0.5307632 -0.61097354 -0.4170251 0.00032588598 0.5736407 -0.15306933 0.37394875 -0.5638188 0.6311264 -0.3409002 -0.26418748 0.32696477 -0.34446532 -0.10923277 -0.06718169 0.02868423 -0.024845982 0.16620274 0.48285916 0.0036284598 0.25236556 -0.6981839 -0.232815 0.018126473 -0.3116228 -0.39179742 0.017798658 0.40328082 0.3481474 -0.3943781 0.17585322 -0.29739672 0.30836976 0.25103953 -0.20003143 -0.2163693 0.17029484 -0.23190935 0.028735492 -0.17524752 0.29946005 -0.11789008 0.2623803 0.7812032 0.100068666 0.12766448
122 0.035460457 0.25904328 -0.09394915 0.6712052 -0.0796078 0.6495392 -0.032809895 0.34114623 -0.10609246 0.068086684 -0.8582722 -0.5932646 -0.2299296 -0.14660476 0.44473675 -0.07392125 -0.06852304 -0.047658764 0.57055503 -0.51077425 -0.40751818 0.070947655 0.4108892 -0.31674334 0.50593024 -0.4347664 0.5106762 -0.25807145 -0.32110536 0.29008907 -0.44508308 -0.12105563 -0.22858024 0.0114684375 -0.03325098 0.2624849 0.3594596 -0.06757443 0.14239623 -0.58642083 0.061204072 0.13880233 -0.19641383 -0.29775658 -0.023661204 0.38834783 0.34185418 -0.4060307 0.29523182 -0.3371982 0.3551551 0.37422004 -0.29186228 -0.04534156 0.11070021 -0.10435979 0.08951847 -0.14733034 0.3211325 -0.18522835 0.31473443 0.7401662 0.16140503 -0.021442961
120 0.022209896 -0.006501744 -0.1729858 0.47467497 0.13615194 0.6884378 -0.0728694 0.29157355 -0.122329965 0.13759647 -0.986077 -0.53564024 -0.15526387 -0.041718274 0.41322014 -0.11097498 0.071786165 -0.030559478 0.60966843 -0.39475822 -0.4867458 0.019494705 0.2210501 -0.25406978 0.5543212 -0.32040724 0.35223094 -0.42808527 -0.16913582 0.13581184 -0.30808645 -0.09719662 -0.1835831 0.046674464 0.12181803 0.33224836 0.32532316 -0.08133943 0.12659355 -0.4453586 0.0436433 0.119478345 -0.29064777 -0.3368467 -0.020202722 0.5762878 0.34885567 -0.4032176 0.24712227 -0.44173503 0.3369169 0.25365606 -0.40412128 -0.015902808 0.16728278 -0.02343291 0.07071452 -0.1316166 0.27779928 0.10167227 0.2069138 0.7288565 0.19999735 -0.024218053
119 0.018211447 0.07608233 -0.12105295 0.573567 0.2079633 0.5293342 -0.18353853 0.09853839 -0.19190085 0.13927558 -0.80675226 -0.4774423 -0.31246156 -0.030502804 0.26515877 -0.07814365 -0.0069916025 -0.041371796 0.64372987 -0.29538274 -0.36685058 0.0891582 0.16379349 -0.19502547 0.6624192 -0.3656365 0.5586608 -0.35619757 -0.2916591 0.18699564 -0.32855228 0.018848801 -0.15800886 0.31713662 0.06522541 0.22856893 0.3409041 -0.05594033 0.1096021 -0.5540542 0.07518119 0.08628385 -0.1810309 -0.34805012 -0.2284482 0.65755135 0.28225285 -0.47910136 0.052272137 -0.41510814 0.266365 0.3349305 -0.47499663 0.24684456 0.2762999 0.0746227 0.2583156 -0.098885745 0.14630026 -0.027757958 0.14431089 0.5529349 0.19285326 -0.010760087
106 0.025310136 -0.24592404 0.15526275 0.42338178 0.095532626 -0.5503242 -0.15042114 0.16976729 -0.7074813 -0.2650564 -0.21387632 0.17372237 0.30479214 0.6131976 -0.06615972 -0.27419236 -0.09597588 -0.097960785 0.37007043 -0.22321784 -0.20326154 0.2961211 0.39053592 -0.41228262 0.8639549 -0.39276975 0.3171022 -0.17419735 0.09681574 -0.524074 0.078158654 0.25226957 0.48123062 0.06004922 -0.026800692 0.21466903 0.4025008 0.022529801 -0.29059106 -0.2527481 0.023182556 0.41274384 0.18885343 0.08509181 -0.07462202 0.8941832 0.4381724 -0.4198875 -0.1474437 -0.26330277 0.15742125 0.041613836 -0.111795284 0.1479198 0.31229353 0.3315786 -0.14854161 -0.29043493 -0.33576503 0.4681474 0.034906298 0.10785913 -0.24781182 -0.25227523
64 0.41982326 -0.23481351 -0.2481745 -0.12439438 0.0081928475 0.5108546 1.2502148 0.07981106 -0.48090264 -0.20002595 0.1899017 -0.6069458 -0.11636504 0.32858235 0.1370662 0.60740834 -0.26669186 0.23168272 -0.06063892 -0.24655314 -0.45450228 0.5778117 0.50016195 -0.53530574 0.021207117 0.365939 -0.2825432 -0.23663671 0.097689286 -0.26767132 -0.43435368 0.6188171 -0.13104275 -0.0036045453 0.30682647 -0.26164618 0.46043608 0.34983656 -0.0207401 -0.101370856 -0.21965343 0.10644591 0.4565357 -0.37023273 0.025014488 0.121277235 -0.0839627 -0.49644426 -0.23277673 -0.07761339 0.35209033 -0.05702442 0.11596622 -0.44670337 0.24903814 0.05129043 0.6262379 0.20180579 -0.41481996 -0.06335321 0.5239371 0.33940685 -0.035248466 -0.17983489
61 0.32516843 -0.3067382 -0.32672715 -0.09285054 -0.019954005 0.55039 1.0815535 0.06355913 -0.46768835 -0.24126309 0.16752489 -0.4969953 -0.18307965 0.19461149 0.3059805 0.5726121 -0.46012515 0.38097864 -0.16894294 -0.25876915 -0.44764754 0.7073675 0.4382756 -0.44061336 0.07601172 0.3471274 -0.18795028 -0.2833591 0.21015291 -0.31029004 -0.30873606 0.7221937 -0.091747776 0.066019945 0.19248423 -0.10296312 0.3312483 0.41479048 -0.04189708 -0.21624434 -0.17718452 0.28581822 0.43314302 -0.29452866 -0.033730295 0.30682966 -0.07964681 -0.33213896 -0.39954856 -0.16572647 0.32251498 0.072133645 0.059518162 -0.6895437 0.26994756 -0.007902653 0.5611276 0.22916824 -0.46132633 0.00039038586 0.46721134 0.15596047 -0.101239294 -0.1037547
162 0.25697276 0.25107384 0.055365607 0.5903882 0.5338232 -0.077265054 0.04091083 -0.17003448 -0.24705979 -0.34630936 -0.17408875 0.20392458 0.24737501 -0.04868394 -0.041520108 0.33817056 0.59220743 -0.4446945 -0.090672925 0.044302072 -0.21053202 0.20745926 -0.09728389 -0.12079872 0.27193734 0.43080732 0.30633914 0.31431356 -0.10271711 -0.30993262 -0.15121417 0.33043346 0.052114923 0.6826254 0.20019972 0.07184539 0.3712689 -0.47211656 -0.14496899 -0.6413185 -0.122542925 -0.16299804 -0.36924398 0.24994893 0.032254647 0.77071285 0.06653575 -0.8653227 -0.19323394 -0.28318548 0.053774882 0.20158538 -0.026776904 0.0028113953 -0.38965943 0.699829 -0.23158616 0.17343406 0.0798627 0.08746276 0.14968042 -0.39573625 -0.96474147 -0.860562
93 0.07267848 -0.12003623 0.25133055 0.40925217 0.2032831 -0.2878476 -0.20236236 0.01063124 -0.6675676 -0.3866047 -0.5056381 0.3268468 0.33798993 0.48754779 -0.18704793 -0.47735882 -0.13750416 0.047810093 0.41539326 -0.15912785 -0.46892032 0.34948766 0.5680754 -0.16575916 0.8102548 -0.553824 0.2723348 -0.28984368 0.02734658 -0.4159248 -0.14830528 0.3501284 0.15575114 -0.039694775 -0.037770893 0.15469746 0.44661376 0.028168458 -0.33278236 -0.23209167 -0.014624732 0.26716858 0.1581139 0.022061585 -0.23676392 0.85886854 0.3693649 -0.4286673 0.028758805 -0.28233021 -0.02058767 0.014216948 -0.081433974 0.13820505 0.10089625 0.21120253 0.05990331 -0.20246804 -0.09536176 0.30291352 -0.063954644 0.2208369 -0.45390216 -0.1836992
71 0.29969427 -0.44149163 -0.25074416 0.0012546809 -0.039794903 0.50725806 1.1471027 0.123999566 -0.48407313 -0.15806305 0.17717388 -0.4379654 -0.10090905 0.19008127 0.2674313 0.4758487 -0.28699222 0.35058975 -0.1270477 -0.26476386 -0.5638404 0.48704323 0.53686255 -0.35393932 0.16798581 0.48418444 -0.10451123 -0.28831157 0.32256097 -0.33134705 -0.16460474 0.79098976 -0.0007727028 0.043172438 0.27241772 -0.059544522 0.40866846 0.23789886 -0.13621081 -0.40955588 -0.3163238 0.2190949 0.36263275 -0.34196356 0.015610872 0.08563605 -0.15930845 -0.4362905 -0.49116743 -0.12720516 0.40372998 -0.072526716 0.05604843 -0.7390908 0.26432684 -0.20614421 0.5418438 0.30757636 -0.37266347 -0.07212564 0.47109815 0.098049745 0.03003607 -0.1560969
130 0.51319194 -0.3750237 0.060543716 0.7186378 -0.262446 -0.354626 0.044931088 0.53522056 -0.6594494 -0.6573264 -0.030738732 -0.15021718 0.4408554 0.582286 -0.060434945 -0.15067188 -0.49341634 0.3510397 0.31041196 -0.35608163 -0.050430797 0.019686759 0.13738747 -0.5054415 0.7698581 -0.45713174 0.2884721 -0.48800272 0.38617665 0.32279518 -0.059086896 -0.12324528 0.68430316 -0.25852787 -0.42293522 -0.26179123 0.6992016 0.00049028214 -0.009038549 -0.13022725 0.23193525 -0.40263554 -0.21542025 -0.0749685 0.024806093 0.7793126 0.37644884 -0.13101669 -0.56498104 0.027110253 0.14064515 0.18881398 -0.41655388 0.009713874 0.20775366 0.10452708 -0.21395813 -0.17279537 -0.39377347 0.67394614 0.57075065 0.3354858 -0.17668156 -0.5713654
151 -0.21575953 0.26684275 0.30176976 0.8211796 0.08998828 -0.051579922 0.0046163443 -0.14070699 -0.51401216 -0.2410423 -0.61157125 0.1916912 0.7911072 -0.17867878 0.24122274 0.18692058 0.044101313 -0.1996951 -0.12124891 -0.2515867 0.17816243 0.36156324 0.1819471 0.1330195 0.81125414 0.061277658 -0.33349806 0.1406954 0.00022934734 -0.48997033 -0.41668344 0.60286134 0.13276325 0.515909 0.2564843 -0.24871977 -0.2776072 -0.3134471 -0.289689 -0.6859807 -0.040076457 -0.055636782 -0.18359916 -0.22915855 0.058246367 0.3498359 0.095508635 -0.6660649 -0.30874047 -0.3424885 -0.0036300889 -0.3982225 -0.062851906 0.13892502 -0.20474957 0.4673298 -0.27183315 -0.26349017 0.020317683 0.18579815 -0.13573973 -0.19391903 -0.01801677 -0.5362599
95 -0.18693402 -0.57205164 0.120263085 -0.07521337 -0.33059135 -0.34095424 -0.23711471 0.34460804 -0.7274539 -0.041645385 -0.69176006 -0.07589112 0.004197117 0.48943576 -0.29735032 -0.79474956 -0.4751032 -0.0031168612 1.1075423 -0.39291096 -1.0954676 0.16238137 0.9382607 -0.50129884 0.6030623 -0.98263043 0.77513766 -0.1613893 -0.3288985 -0.050138723 -0.25797376 0.4218718 0.23735031 -0.11622146 -0.0191465 0.50526166 0.8576488 0.27533916 -0.42986107 -0.5008842 -0.23261608 0.22200114 -0.3145294 0.061920874 0.054832093 0.66609496 0.4992961 -0.4594148 -0.2883628 -0.33683553 0.19687141 -0.34544167 -0.20115519 0.39893755 0.015320403 -0.19573614 0.41704467 -0.42748767 0.1539442 -0.040660705 -0.073201865 0.32503998 -0.60090894 -0.21311942
34 0.288474 0.3242539 -1.0665534 0.22587813 -0.085968114 0.33434817 0.29022366 0.03688769 -0.5935208 0.1650548 0.049766447 -0.28637785 -0.92781085 -0.5086079 -0.46377826 0.044884566 0.34568352 0.63538146 0.33268633 -0.75330704 -0.12163167 0.68176687 0.027509917 -0.96651137 0.5538275 -0.25051397 0.15074933 0.01860224 0.0028163316 -0.23289251 0.27699083 -0.032011632 0.5529407 -0.9336094 0.22406094 0.07987107 -0.27444625 0.50412405 -0.111138284 -0.41388556 -0.44632617 0.17560442 -0.8487057 -0.36193496 -0.09388734 0.30005231 -0.10707911 -0.3477077 -0.48175654 -0.009932772 0.90734845 0.39147413 0.10752628 -0.004806779 -0.7349437 0.039287813 -0.17043336 0.8350417 -0.5173702 -0.17215951 -0.86890805 -0.25192326 0.15376028 -0.6056322
37 0.6006314 -0.42139333 0.11257551 0.7138751 -0.06293382 -0.3181891 0.16556887 0.55860686 -0.71583813 -0.6869346 0.10723667 -0.008202509 0.51792973 0.54925174 -0.012141513 -0.17750348 -0.42247364 0.12909485 0.25301284 -0.16521707 -0.018043455 -0.032361228 0.06159095 -0.3557233 1.0050446 -0.060474914 0.33994517 -0.640977 0.3568626 0.24565698 0.037629627 0.088933595 0.69839907 -0.19357935 -0.6659398 -0.21648641 0.30466932 0.039621532 0.030610088 -0.11944087 0.28343087 -0.38733846 -0.10547917 -0.11081385 0.04552553 0.8182225 0.38674012 -0.1872101 -0.7316134 -0.2538294 0.031169273 0.16719887 -0.33974442 0.07662926 0.15864444 0.2680846 -0.063266106 -0.13982269 -0.41541663 0.54583406 0.22116445 0.20779449 -0.37897477 -0.5889996
108 -0.09416886 -0.08161431 -0.19750834 0.32829005 0.21086702 -0.039256446 0.16614231 -0.3338091 -0.6268484 0.08505742 -0.29547507 0.38572952 0.6509014 0.42659518 -0.3263902 0.18746379 0.0069217617 -0.17528951 0.2042858 0.10490599 -0.6465026 0.3593663 0.2207613 -0.15636256 0.5886591 -0.005900756 0.33958462 0.38309032 -0.35284153 -0.51797336 -0.32361287 0.07990924 -0.03249565 0.27709925 -0.17600432 -0.5786253 -0.4540639 0.08283928 -0.29543653 -0.62768304 -0.3733937 0.075994134 -0.033777107 -0.29225954 -0.2607482 0.80797344 0.009209552 -0.9294495 0.5671903 0.2805962 0.12663229 -0.15068474 0.31848148 0.25416157 -0.59832036 0.6479986 -0.37697998 -0.51505685 -0.15995722 0.29483065 0.22479354 -0.091941155 -0.8764978 -0.78325623
155 0.31067285 0.30386204 -0.9480756 0.4130951 -0.0642446 0.40491003 0.26167387 0.3830674 -0.5580667 0.045100946 -0.02477672 -0.15289909 -0.9323876 -0.3284542 0.03930492 0.28123882 0.41727903 0.4857031 0.20121741 -0.6034783 -0.1042991 0.5640516 0.13368046 -1.0027506 0.43913683 -0.47758284 0.074770205 0.09801473 -0.10659722 -0.2131332 0.29165888 0.15171693 0.7429971 -0.77349937 0.21353965 0.25875455 -0.23803215 0.29989508 -0.25372505 -0.24889451 -0.46685013 0.004381675 -0.8800994 -0.045762144 0.07664358 0.3895997 -0.03447781 -0.19797334 -0.58850235 0.19781788 1.305823 -0.0028273026 0.08141689 0.14310639 -0.63472164 -0.048903998 0.01750922 0.4951521 -0.21041627 -0.57318926 -0.5938715 -0.34023452 0.03623986 -0.5457357
128 0.056195773 0.41667545 -0.22478755 0.15518107 -0.033328947 0.19612472 0.14218862 0.19559376 -0.814936 -0.04531663 0.19262667 -0.52415234 -0.68321073 -0.803613 -0.24877296 -0.1958678 0.40201175 0.34153572 0.3803591 -1.1964543 0.06611875 0.2720872 0.054463334 -0.30498108 0.2915273 0.17818013 -0.26748106 0.3342261 -0.30437148 -0.42888573 0.06536199 0.37142813 0.42671204 -0.7436592 -0.15649799 -0.28979978 -0.317565 0.37390202 0.06387466 -0.35134372 0.12621698 0.06773389 -0.50585365 -0.42393768 -0.091691636 0.522708 -0.33037597 -0.25152016 -0.24646764 0.22531256 0.9734585 0.2760971 0.10905696 -0.26323402 0.30127206 0.30789852 0.14378098 0.37822998 0.0113292225 0.112185605 -0.815629 0.22160299 -0.2792569 -0.31159386
79 -0.18477485 -0.61624897 0.11492713 0.15652162 -0.09767381 -0.38946733 -0.07195884 0.0026233962 -0.6642955 -0.36013776 -0.69011176 0.3476122 0.2380369 0.4673627 -0.22364987 -0.70916903 -0.31533828 -0.041763403 1.183031 -0.4842296 -0.86484087 0.21429309 1.0546918 -0.11209147 0.73917127 -0.82671887 0.7260338 -0.27059832 0.053686917 0.06759647 -0.30515093 0.4766418 0.112644956 0.042663768 -0.15230976 0.36667618 0.6947507 0.17906111 -0.37007657 -0.61845666 -0.3597057 0.11816833 -0.022748128 0.043651726 -0.18916637 0.5471149 0.46528703 -0.42926046 -0.22806069 -0.33036906 0.15964796 -0.11909567 -0.46890438 0.24396604 0.12749588 -0.04026821 0.19290654 -0.34113503 0.11043992 0.04290068 0.017827408 0.17068389 -0.4523352 -0.20073806
53 0.40198642 -0.06786118 0.07740931 -0.17833634 -0.33071694 -0.11759463 1.1861433 -0.23987769 -0.8679822 0.28088817 -0.055658467 -0.34010732 -0.13637346 -0.6040246 0.18857019 0.62993157 -0.3467566 0.44168085 0.22025968 -0.4533139 -0.47346526 0.37512955 0.14636621 -0.75894123 -0.14210932 0.2474909 0.14233524 -0.10179824 0.57322377 -0.3650127 -0.64830524 0.56370926 -0.13871117 -0.03537765 -0.10319659 0.20475736 0.34446666 0.5911831 0.25598434 0.03283319 -0.47287402 -0.19279344 0.1585046 -0.38653603 0.21803942 0.46606344 0.026415989 -0.4580164 0.046472102 -0.24986121 0.4566311 0.19200715 -0.26797405 -0.23109029 0.3125501 0.45158005 0.42755723 0.22078949 -0.1579663 -0.1875855 0.5295622 -0.23804243 -0.15035672 -0.014714948
80 -0.14175425 -0.5649904 0.17426573 0.50612086 0.0061547104 -0.51774454 -0.078602254 -0.37003973 -0.6208186 -0.2561805 -0.51256806 0.49538824 0.41279468 0.16217491 -0.36327878 -0.6356719 -0.32637328 0.0068593766 0.897593 -0.5486248 -0.8481553 0.016411105 1.0087104 0.15750438 1.0004458 -0.63267744 0.8510269 -0.3783558 0.14683822 0.075418055 -0.30382568 0.40593377 0.23435219 0.047272243 -0.07920267 0.25737527 0.5790992 -0.038032982 -0.17400974 -0.7312272 -0.3189953 0.16239084 0.08507532 0.23393737 -0.094960205 0.7201521 0.5766517 -0.36523497 -0.23675351 -0.34375823 0.10851624 -0.32533324 -0.45447516 0.10140998 0.19275858 -0.05077066 0.2253323 -0.49086103 0.06573781 0.11418345 -0.0044282945 0.22542962 -0.6044852 -0.20323735
5 0.15320785 0.55844605 0.046276275 0.22366007 0.7810916 0.08804164 0.19270863 -0.29092926 -0.6852273 -0.3150401 0.61218804 -0.320455 -0.24972844 0.00026185214 0.4614735 -0.21022078 0.5377406 0.10207523 -0.05437659 -0.9258738 -0.013362061 -0.4259003 0.08280798 -0.0855617 0.047335222 0.10214779 -0.2732007 -0.664436 -0.46196362 0.4459327 -0.11395482 0.99566317 -0.0874065 -0.80265135 -0.47625792 -0.6705713 0.123915836 0.52276075 -0.628146 -0.7818966 0.31233993 0.1750767 -0.56470644 0.117385775 0.0015276343 -0.031040506 -0.34810933 -0.5761344 0.2690673 -0.3647943 0.9955034 -0.5974671 0.03341602 0.38656586 0.21908128 0.4880348 -0.17942597 0.109363995 -0.6823772 0.060505062 -0.55207974 0.06089229 -0.5833891 0.6006959
22 0.099834785 0.1304651 -0.14734216 -0.003786395 0.30087438 0.5766552 0.07398571 -0.33746147 -0.18788686 0.04913615 0.35339242 0.43749142 0.40480828 -0.08659663 0.1926383 -0.006083757 0.5808372 0.11760589 -0.020309713 -0.4530257 0.41300198 -0.29256678 -0.22239211 -0.1250888 0.44654673 -0.031966895 -0.48277754 -0.25251347 -0.056101914 -0.15733024 0.043228183 0.81097335 0.042221647 0.087983675 -0.37747785 -0.020600665 0.32084244 -0.13865922 -0.49028304 -0.41506064 -0.081008345 0.17482309 -0.33439007 0.00018623266 0.21299085 0.082686156 -0.047259077 -0.47808582 -0.053740665 -0.18746921 0.97190607 -0.037035953 -0.10137297 -0.08304058 0.14183903 0.88710576 -0.54409957 0.26583135 -0.4362189 0.04101158 -0.30724847 -0.28677285 -0.28283376 0.16707212
134 0.13236943 0.61624044 -0.41899654 -0.121288575 -0.10497507 0.796463 0.9242022 0.060694758 -0.42964587 -0.31984076 0.19001447 -0.13045315 -0.04583964 0.3211018 -0.18323812 -0.08330541 0.3294695 0.38951406 0.042431824 -0.44956523 -0.39052236 -0.38992566 0.44469792 -0.069590785 0.22919679 -0.25412506 -0.30799317 0.3862531 0.24823971 -0.48266315 -0.39719573 0.41300753 0.19907911 0.57184845 -0.57506377 0.1600249 -0.09617012 0.46539727 0.56861573 -1.0728861 0.02169369 -0.6450765 -0.35567787 0.39753854 0.3564807 0.28701773 0.08214317 -0.3016998 -0.040816434 -0.4441384 0.6802289 -0.29334563 0.56436026 0.19060546 0.16253504 0.83285904 -0.37731573 0.091190755 0.1415447 0.0893248 0.2770225 0.4163096 0.1965969 -0.82535017
55 0.33644482 -0.23557118 0.16897991 -0.12290664 -0.3779575 -0.06577244 0.9378017 -0.27438146 -0.89123684 0.16411532 -0.033646926 -0.15710108 -0.061014768 -0.7040277 0.3141214 0.6528433 -0.37740847 0.4223839 0.3597764 -0.39163592 -0.41288477 0.00557783 0.24939299 -0.61074096 -0.23467678 0.274205 0.27651727 -0.25609416 0.42836392 -0.4045857 -0.7273852 0.58595693 0.096803 -0.07101005 0.10271057 0.15244707 0.53830194 1.0374672 0.036870595 -0.12898187 -0.7317282 -0.11879502 -0.046878763 -0.12770832 0.16479848 0.54981726 -0.027079584 -0.3450952 0.022549454 -0.056591548 0.6443732 0.41469476 -0.23106393 -0.006990531 0.4094661 0.5262628 0.62339664 0.07596629 -0.15010042 -0.15781617 0.63701606 -0.3740476 -0.2538595 -0.051853508
18 -0.076308526 0.2707501 0.17214444 0.08345204 0.6442236 0.42626125 -0.1124287 -0.5524199 -0.075328775 -0.09770603 0.30205533 0.11528661 -0.03368762 -0.38241866 0.11840158 -0.051567167 0.5733002 0.010699898 -0.104372315 -0.9165993 0.3392007 -0.35002005 0.20650302 -0.095212 0.114470795 -0.014180517 -0.19525275 -0.63005674 -0.35155752 0.35813376 -0.49286193 1.0989175 -0.00080904824 -0.56504333 -0.11024322 -0.26237273 0.22403014 0.03705929 -0.3762547 -0.66769356 0.052526534 0.33848375 -0.5520644 0.44422334 0.20550044 0.35503924 0.16741313 -0.5090244 -0.0921839 0.13615389 0.9228507 -0.60795254 0.13318607 0.23041673 0.055887192 0.40006799 -0.43250206 0.15444256 -0.7509205 -0.1712483 -0.48132923 0.17284857 -0.30221695 0.04613671
160 0.37485635 0.33993414 -0.8842849 0.52090025 0.036101155 0.31384358 0.24321279 0.3740335 -0.38795558 0.15285623 0.07126945 -0.49675706 -0.8916262 -0.20346811 0.56895536 0.54046637 0.22213179 0.16031757 0.3963729 -0.27597043 -0.119789384 0.58015305 0.12886524 -0.9583028 0.1896956 -0.6395506 -0.07690111 -0.047999866 0.029732604 -0.09007762 0.19297479 0.10840331 0.7597213 -0.5947505 0.1156502 0.2994447 0.063855 0.03793815 -0.51110005 -0.24354242 -0.35797644 -0.16451791 -0.84242874 0.0978034 0.33419123 0.5413887 -0.12007104 -0.04564412 -0.5483527 0.673242 1.6563258 -0.24913347 0.29200637 0.23247522 -0.6343697 -0.16194025 -0.11149883 0.2712274 -0.12375838 -0.6631191 -0.60202485 -0.14323084 -0.35566974 -0.28596267
66 0.48217207 -0.17283785 0.26102933 -0.413349 -0.26184475 -0.25133428 0.75983167 -0.13633527 -0.98977625 0.34304985 -0.12370017 -0.33810404 -0.21444446 -0.6351604 0.34554774 0.69095844 -0.27040163 0.24405508 0.6428589 -0.49336374 -0.43809956 -0.06310878 0.30604982 -0.32461056 -0.017440569 0.2233858 0.15403678 -0.15957354 0.011851424 -0.24819715 -0.7353361 0.54126954 0.22405373 -0.053371113 0.1010171 0.36626628 0.7029744 0.94193953 -0.07399514 -0.21534885 -0.60519356 -0.23410144 -0.1692488 -0.1965773 0.31770962 0.5210594 -0.18790114 -0.05583423 -0.047636837 -0.017299645 0.9084325 0.48104283 -0.26952806 -0.11810549 0.14987934 0.7075275 0.9518616 0.0720721 -0.41209692 -0.15494144 0.7802206 -0.5956871 -0.33263478 -0.08343705
132 0.33984992 0.49901003 -0.33480632 -0.24689698 -0.064573005 0.676445 0.86008245 -0.23501118 -0.44269165 -0.2165521 0.17715362 -0.20215194 0.022030689 0.34049892 -0.112128876 0.03314366 0.15699421 0.44961226 0.019531066 -0.42059225 -0.1525138 -0.36181247 0.15729228 -0.29015636 0.17531227 -0.2048199 -0.2972389 0.4099735 0.11689511 -0.42367992 -0.3645924 0.45697552 0.15628842 0.5030937 -0.532829 0.021807345 -0.130236 0.38889363 0.4057979 -0.95036626 0.18390489 -0.51479065 -0.24430737 0.36745968 0.4247203 0.40466905 -0.059654813 -0.39760435 -0.47958025 -0.508966 0.6596856 -0.3240832 0.6479192 0.15809225 0.03913778 0.63934755 -0.74217916 -0.035505515 -0.035074994 -0.0342368 0.3501151 0.33108133 0.24626128 -0.82145566
109 0.055153914 0.23946436 -0.021501563 0.010282536 0.49759558 0.45822218 0.36322358 -0.29421523 0.08533531 -0.26023513 0.00083390827 0.3211642 -0.14263546 -0.17720143 0.039152905 -0.0393736 0.5198851 -0.5435209 0.06086386 -0.526736 0.5792752 -0.06671245 -0.21210387 0.12895133 0.22965784 -0.18068764 -0.09009027 -0.27054128 -0.17576087 0.22287576 -0.24312328 0.93450165 0.4906164 -0.3332528 -0.2867095 -0.51027364 0.09535194 0.084282584 -0.37983724 -0.46805385 -0.038776502 0.3585887 -0.559798 0.078535266 0.36143383 0.28988034 0.20669675 -0.40884703 -0.016852278 0.081858955 1.2813824 -0.11425642 0.41604772 0.22560509 0.3663023 0.3248374 -0.7891921 0.2638135 -0.89863294 -0.6745758 -0.40118733 0.1653456 -0.3490842 -0.1587361
158 0.22608557 0.28044775 0.32625958 0.44673818 0.32433823 0.038393345 0.09587132 -0.32428148 -0.6812264 0.27091542 -0.48673332 -0.44995788 1.0718062 -0.03205499 -0.045788728 0.24702117 -0.19948496 -0.13586947 -0.02327885 0.06774519 0.1432414 0.5061652 0.47701156 -0.04521286 0.7443809 0.07184634 -0.8631085 -0.5371979 -0.018214013 0.14839002 -0.29636797 0.33651215 0.049209703 0.771237 -0.26234093 -0.0719641 0.27881655 -0.6603764 -0.8871344 -0.954005 0.034839507 0.31989643 -0.32109764 -0.5357337 0.46414346 -0.013807545 -0.49594516 -0.289566 -0.44530085 -0.5012827 0.15539886 -0.12750883 0.17420974 0.53658426 0.40952885 0.47519016 -0.47579807 -0.3117875 0.06398187 -0.37786543 -0.491334 -0.076094575 -0.061111826 -0.7565358
7 -0.07067373 0.4147915 0.037576254 0.38472146 0.5186273 -0.0032908372 -0.055667393 -0.46250883 0.075087294 0.04439421 -0.7932845 -0.41506973 0.42846343 0.29716477 0.46863198 0.08867078 0.6178903 -0.19334558 0.51482415 0.06366958 -0.07515407 -0.097391844 0.024318444 -0.32620192 0.17679115 0.22122747 -0.00034770818 0.07212338 -0.23863544 -0.42872143 -0.62479246 -0.29870814 -0.28361884 0.31221557 0.052274514 -0.36496183 0.040926762 0.2898834 0.04499886 -0.46967146 -0.099293284 -0.20379594 -0.39750502 -0.16587733 -0.17810589 0.6413311 0.50061274 -0.9857123 -0.58791894 -0.15008093 0.4641008 0.5554473 0.24291359 0.044690356 -0.061594207 0.13359782 -0.5232748 0.035841506 0.56802535 0.1247209 0.09264843 -0.3600826 -0.43232998 -0.23744442
67 0.4850066 -0.58019495 0.48105663 -0.44329354 -0.45348784 -0.27526703 0.65855753 -0.00814472 -0.87199414 0.573719 -0.132765 -0.28179106 -0.051084116 -0.9181651 0.37159038 0.62812537 -0.027989844 0.16121206 0.76468724 -0.5321722 -0.2192374 0.105787024 0.3262659 -0.23850778 0.24189426 0.14881909 -0.33334616 -0.41622138 -0.0987894 -0.099804714 -0.7910581 0.475367 0.14952245 -0.01092401 0.27109754 0.4113736 0.8012789 0.7762524 -0.35020494 -0.24704386 -0.6970654 -0.160076 -0.45831877 -0.14235343 0.19521251 0.77507836 -0.37668347 0.004908795 -0.10974505 0.049130507 1.0683141 0.3889098 -0.04029258 -0.24696863 0.36875412 0.5961984 0.96954674 0.2522604 -0.42182526 -0.23669524 0.6623244 -0.45380792 -0.29732955 -0.088416345
150 0.5526577 0.12808527 0.279193 -0.1400033 -0.33269405 -0.17779282 1.4221495 -0.3609798 -0.74592865 0.63697124 -0.34481585 -0.45758072 -0.17997761 -0.6505155 0.21859185 0.9102172 -0.3142773 0.38018864 0.14823212 -0.38732082 -0.5276555 0.42499742 -0.21524318 -0.88894576 -0.1775539 -0.118310764 -0.09643086 -0.22418502 0.7505944 -0.5817731 -0.7572702 0.50195205 -0.23137583 -0.13398713 -0.23624773 0.16748479 0.5338751 0.68547934 0.36447585 0.20313388 -0.46654865 -0.38427272 0.08063572 -0.2533866 0.19783916 0.51965636 -0.2208957 -0.47272682 0.25676492 -0.58748484 -0.04943822 0.29126364 -0.3684142 -0.08942943 0.25003228 0.5410802 0.11770109 0.38279268 -0.24476603 -0.12990542 0.48702884 0.11436554 -0.18326862 -0.039249726
36 0.27013373 0.45937508 0.2634936 0.45442906 0.027726645 -0.11495186 -0.025406295 -0.26213443 -0.62652546 0.14626819 -0.43879032 -0.38734618 0.91722155 0.057971317 -0.011231603 0.43984282 0.0028943773 -0.23462225 -0.109358825 0.03952496 0.010332284 0.1793077 0.46203074 0.027323913 0.90547276 0.14829794 -0.90578485 -0.6738602 0.17393093 0.11826924 -0.27709314 0.3470572 -0.080484934 0.6325513 -0.29716733 -0.21104407 0.21135822 -0.27840877 -0.8054207 -0.5851488 0.08536234 0.7782213 -0.5185813 -0.50638294 0.5545761 0.19380523 -0.69019103 -0.21097468 -0.7034217 -0.5167775 0.3435846 -0.13171822 0.121633366 0.6172115 0.038579952 0.67124355 -0.5868157 -0.27969342 0.028797906 -0.26037338 -0.69614905 0.13764475 -0.11360817 -0.58221734
169 -0.028702414 0.40871927 0.10093435 0.4219802 0.2443452 0.062924355 -0.047466334 -0.17623812 0.17361735 -0.5023762 -0.50014824 0.0336889 0.060767412 0.04528823 0.0029242209 0.0044161174 -0.0025982975 -0.29562145 -0.13555582 -0.082332455 0.07565964 -0.0210712 0.14307289 -0.064210564 1.0873336 0.49239305 -0.38880354 0.44984043 -0.74208635 -0.3823957 -0.68988544 -0.3340761 -0.23906595 0.19273292 0.24758933 -0.26122487 0.1113672 0.044794835 -0.14633726 -0.5201764 -0.23965245 0.004789962 -0.54168767 -0.13993986 0.1374363 0.57711035 0.5756852 -0.7561388 -0.6378082 0.16248623 0.72586966 0.31237772 0.14380278 0.021474715 -0.18289116 0.2876013 -0.07015297 0.51278454 0.15474716 0.37534064 0.059805356 -0.63071674 -0.47626474 -0.44605237
45 0.013750609 0.395524 0.18509017 0.49299803 -0.062485673 0.3053382 -0.10653484 -0.41642016 -1.3219938 -0.18329844 -0.6564042 0.5130466 -0.06651161 0.68046254 -0.1665288 0.1363268 -0.19620085 0.20272289 0.49600857 0.51488847 0.0074042073 0.5931682 0.44185433 -0.007604164 0.6779082 0.044580787 -0.28588852 0.09669725 -0.16941999 -0.23058091 -0.548979 0.102868594 0.12244317 0.12649983 0.6838948 -0.17246656 0.32756642 0.034626536 -0.5544372 0.5481566 0.26981905 0.49762067 -0.012998413 -0.531323 -0.41514933 0.6215363 0.24222001 -0.71689343 0.25227195 -1.083782 -0.069624886 -0.93920106 0.31533438 -0.051857777 -0.66033494 0.08310665 -0.57990295 0.3370128 0.780259 0.10940626 -0.006012704 0.6822331 -0.65179104 0.305898
13 -0.012113852 0.39993298 0.2528721 0.49560675 0.31367943 0.109739 0.32336086 -0.21158098 -0.20535192 -0.70791817 -0.38468215 -0.26147196 0.52387214 0.07106917 0.0091308635 0.04436135 0.13544966 -0.49258074 0.30345112 -0.06410378 0.29289794 0.14573255 -0.60768265 -0.43895948 -0.024255982 0.04412528 -0.119165264 0.22176005 -0.38950673 -0.48082033 -0.24223754 0.29586193 -0.060137622 0.4886544 0.018919405 -0.16688767 0.15227307 -0.047560804 -0.19819854 -0.90322256 -0.05833724 0.1299212 -0.4812956 0.15025318 0.20358308 0.98750126 0.26853094 -0.63471645 -0.48551604 -0.114575595 0.3464623 0.29466486 0.06250858 -0.3002435 -0.27448124 -0.18121925 -0.35119691 0.1427345 0.3407881 0.05400769 0.10181475 -0.33001602 -0.23098747 -0.2213637
92 0.33555147 -0.07965654 -0.007957764 0.90006065 -0.16723119 -0.02385989 0.1396275 0.24441937 -0.46866882 0.3237585 0.060787406 0.20255512 0.46100944 0.30635113 -0.03980859 -0.041673936 0.2984111 0.15195045 -0.17615218 -0.30038974 -0.036062546 0.12304114 -0.0033250714 0.3405942 0.2520699 -0.15386334 -0.18540753 -0.41740903 0.38195625 -0.29251775 -0.35335654 0.35157388 0.627833 0.45584568 -0.56637645 -0.122357726 0.13604517 0.13126223 -0.26306337 -0.6382161 0.16369918 -0.36753258 -0.13828489 -0.2994407 -0.07889881 0.4534767 0.5201471 -0.21535449 -0.73025954 -0.27764195 0.281975 0.07020728 -0.17847605 0.41938668 -0.44236073 0.29591143 -0.23205824 -0.36380497 -0.3267791 0.52391 0.3388137 -0.44069967 -0.18461895 -0.65196925
24 -0.5276773 0.6348297 -0.08774583 0.5502882 0.06838732 1.3798252 0.75057447 -0.14051114 -0.4361274 0.17665307 -0.30126038 -0.036060482 0.21754244 0.2293026 0.19230855 0.6932436 0.43363658 -0.21989352 -0.12415701 -0.658647 0.03553737 -0.60669994 0.25873438 -0.49444142 0.32533258 -0.117558785 0.17375746 -0.081439495 0.6187145 -0.052009754 -0.41591555 0.333722 0.30004475 0.42994973 -0.8272359 -0.27092424 0.17705202 0.4282228 -0.5312286 -0.15479262 -0.25309986 -0.12486956 -0.05401964 -0.4099633 0.07514263 -0.13144432 0.12142681 0.06120838 0.3330017 0.059692092 0.45092842 -0.092310615 0.34431353 -0.4182746 0.04550035 0.035527233 0.38697812 0.2874384 -0.3041682 0.42054492 0.15915686 0.27293158 -0.40796444 -1.1244247
146 -0.07762894 -0.16038685 0.15953326 0.3560479 -0.3356994 -0.1859782 0.32577088 0.006003301 -0.5336 0.05628134 0.1314798 0.30252978 0.12534197 0.8590994 -0.12650153 -0.22369105 0.23430987 -0.093883626 0.08687128 -0.12702003 -0.60379183 0.41752252 0.13926281 0.094601184 0.46913666 0.4441607 -0.23617868 0.03780885 0.5616155 -0.3391648 -0.62098616 0.21469663 0.003432235 0.6392907 -0.12549552 -0.47941816 -0.004532851 -0.19911209 -0.23064454 -0.50401586 0.1465712 -0.4381479 -0.38664168 -0.22201514 -0.5831506 1.4156144 0.6401218 -0.23385943 -0.41926035 0.47632834 0.13932845 -0.19733506 -0.106376864 0.13740061 -0.032803047 1.2438726 -0.3908643 -0.115779825 -0.46120143 -0.1436578 0.104273014 -0.021236634 -0.1600898 -0.60645336
58 0.46729684 -0.4302421 0.44354066 -0.46496272 -0.029469028 -0.30965018 0.5095922 0.13798755 -1.07073 0.42375594 -0.07876772 -0.13374525 0.06429041 -1.03586 0.14871174 0.822564 0.14413022 0.15505984 0.7489519 -0.582335 -0.2519728 0.1062216 0.34535643 -0.07613767 0.2269533 0.03664859 -0.4228138 -0.5986098 -0.12305142 0.08593057 -0.9291709 0.7071583 0.34586623 -0.21593383 0.4169618 0.33809903 0.8268965 0.49045295 -0.17627503 -0.123846926 -0.8529696 -0.12968166 -0.5626256 -0.11139635 0.19276287 0.7722298 -0.82696384 -0.23572098 0.06613321 0.045585543 1.0234936 0.31972972 0.17274676 -0.5910153 0.39255467 0.4593211 0.72519845 0.38384753 -0.728836 -0.29239222 0.57655054 -0.43464682 -0.5278389 -0.28190058
76 0.18319005 0.71511066 0.41861093 0.49654752 -0.23844641 -0.015519758 0.20089418 -0.06745836 -0.7613116 0.017556308 -0.31389853 -0.2897779 0.89367527 0.106231414 -0.20078716 0.2698085 -0.13771781 -0.20904629 -0.19862325 0.009222082 0.025130024 -0.119624965 0.4327059 -0.050056674 1.0836881 0.2611221 -1.072491 -0.62604856 0.36702782 -0.047778808 -0.27700356 0.14249203 0.09070322 0.22454406 -0.031525373 -0.21515189 0.29847062 -0.023950992 -0.67437583 -0.28523436 0.3904978 0.96936154 -0.6243191 -0.47439644 0.7013823 0.2008936 -0.66512257 -0.28846127 -0.53011173 -0.3859817 0.57788974 0.18557817 0.0805317 0.41957676 -0.26391488 0.5612686 -0.81553864 -0.12986228 0.3144948 -0.5149053 -0.70441073 -0.015876105 -0.2514628 -0.4541303
41 0.08352021 0.56204605 -0.12069044 0.5852771 0.18000896 0.24387185 -0.085775666 -0.624372 -0.15723334 -0.810852 -0.19026832 0.16643527 0.5000966 0.46355784 0.33945504 -0.07239704 0.15960044 -0.19017816 0.31769392 -0.27992606 -0.011525544 -0.27931252 0.20147578 0.028709602 0.6992644 0.52064997 -0.2910638 0.03956314 -0.7524257 -0.37707776 -0.3568576 -0.030123502 0.25718573 0.2734103 0.3724069 -0.30477712 0.20790933 0.09267503 -0.15636007 -0.69652504 -0.3706985 0.38028315 -0.34961346 -0.21663123 0.32359987 0.45962164 0.5131942 -0.6737265 -0.9145338 0.14527856 0.4140973 0.17098626 0.20562956 -0.011383187 -0.3826422 -0.35729527 -0.08516837 0.75787115 0.03491499 -0.2009957 0.095750555 -0.33242416 -0.076733775 -0.1314925
59 0.41988555 -0.63303316 0.5932189 -0.07906963 0.27997446 -0.33995473 0.47218424 0.06609603 -1.1367764 -0.07771651 0.11369366 -0.079285815 0.25102702 -1.0418962 0.001309434 1.0198221 0.31992757 0.046267163 0.8529487 -0.73580295 -0.14173023 0.099017814 0.37465107 -0.12723836 0.18717891 -0.043581467 -0.4652538 -0.57255644 0.09500995 0.60678905 -0.6380002 0.8173875 0.3132789 -0.29261482 0.33280948 0.23019652 0.69221485 0.6855146 -0.123719215 -0.042486697 -0.90552056 -0.16251676 -0.55815583 -0.19347268 0.20755689 0.7869251 -0.8882528 -0.34217125 -0.2004024 0.29974934 1.3440026 0.24515018 0.17899473 -0.4628196 0.16248424 0.28129148 0.46074554 0.22460362 -0.6427606 -0.48078558 0.37224033 -0.1515517 -0.5740431 -0.07597243
73 0.1666923 -0.044454824 0.013363745 0.3804666 -0.37697038 0.6618877 0.94471776 -0.41605756 -0.29589656 -0.026227904 0.73588187 -0.7229196 -0.6906534 0.87346333 0.663265 0.519671 -0.40921816 -0.22709379 -0.027024545 -0.37641376 -0.78568995 0.6876706 0.59309363 0.042919382 0.6280993 -0.06702821 -0.31979248 -0.49943045 -0.26643226 -0.68006766 0.17411064 0.49998906 -0.45748585 0.13793664 0.26433748 -0.5353381 0.7446282 -0.19086345 0.3160166 -0.57771313 -0.47255623 0.103925124 -0.052897945 0.41885516 -0.11682331 -0.4390623 0.25660428 0.39054823 -0.08218022 -0.32550684 1.2027526 0.11562184 -0.3121326 0.0036269824 0.37357867 -0.47123995 -0.07294867 0.50723976 0.15325473 0.6099137 0.008690287 0.5404256 -0.3100629 -0.7834878
85 0.40005645 -0.63498867 -0.35828826 0.9931453 0.06816548 -0.16022016 0.47366384 0.10979211 -0.55434334 0.11244985 0.19986437 0.15625507 0.05345556 0.58531326 -0.3034531 -0.33737844 0.1330823 0.36154085 0.26834223 0.1995466 -0.41430324 0.3413507 0.013138501 -0.12829868 -0.050705966 0.09046577 -0.30385393 -0.22419684 0.48841107 0.083256245 -0.61354154 0.0396406 0.37144887 0.106436305 -0.31109852 -0.4537865 0.22717692 -0.00061671244 -0.122171015 -0.82336307 0.35961708 -0.38523424 -0.36067185 -0.075875625 0.10290472 0.99492776 0.5092412 -0.124148086 -0.52005637 -0.08975378 0.11030313 -0.25471947 -0.046126906 0.46381667 -0.25843236 0.98800087 -0.23424982 -0.20516999 -0.4518946 0.4874893 0.07407432 0.14864159 -0.01962842 -0.58215094
116 -0.304142 0.3802945 -0.57516986 0.93619627 0.6352627 0.341894 0.4897217 -1.3129818 0.49470404 0.4882871 -0.8162917 -1.1593477 0.26302227 0.39729974 0.7869777 -0.38308012 0.32521832 0.015305591 0.7534567 -0.17899236 -0.89587754 -0.2223524 -0.052497678 0.06460927 0.18716961 0.17001396 0.5226083 -0.13489282 -0.6915296 -0.10986386 -0.50485706 0.15102817 -0.063333035 0.24824582 0.17208935 0.17815949 0.3778365 0.6144733 -0.28440315 0.36641416 0.3412469 -0.7251012 -0.048491932 -0.15052631 0.47806588 0.9100219 0.5784877 -1.208108 -0.44759342 0.30020395 0.55916137 0.3236061 -0.044342984 -0.5164758 0.64810705 0.16400416 0.14191855 0.28731483 0.087495334 -0.391971 -0.08918404 0.42240408 0.18953577 0.5071202
30 0.19418637 0.23617424 0.054640364 0.16425432 -0.051967364 0.07966745 0.027979411 -0.38769296 0.062591 0.4972 0.22092178 0.18394084 0.42574513 0.459857 -0.011653826 -0.0013795053 0.28224495 0.33726454 -0.23105739 -0.26176852 0.3300691 -0.14787063 0.0034887008 0.3185684 0.3873886 -0.34692174 -0.4440632 -0.60823244 0.33146256 -0.54252464 -0.7298556 0.5561573 0.27956328 -0.22268236 -0.6875037 0.077135876 0.46426955 -0.059810437 -0.71786875 -0.12252599 -0.014283363 0.37595427 -0.42299554 -0.21972789 0.21828386 -0.11018663 -0.55127126 -0.8136308 0.1691074 -0.35234913 0.9014648 -0.25323802 0.16639726 0.25296712 0.33206534 0.4952092 -0.3717377 -0.25828165 -0.2856331 -0.10065822 -0.1358738 -0.6242541 -0.42780447 -0.7954084
117 0.108592175 0.9513643 0.106404476 0.51597697 0.27359858 0.071480416 0.23336674 0.038082145 -0.62639064 -1.0638139 0.057566702 0.37043604 0.61980516 -0.08757548 -0.10287654 0.36583018 0.64797765 -0.2881303 0.5113301 0.029878002 0.31760666 0.4459126 -0.6626673 -0.15428895 0.016019002 -0.0011788418 0.17085022 0.017875189 0.10765331 -0.39975214 -0.6441679 -0.012673761 0.17015716 0.2090059 0.21507086 0.09946603 -0.17868243 -0.1900862 -0.048558384 -0.8874996 -0.2611103 0.41561517 0.05451405 -0.095923916 0.16824175 0.9472891 0.22942707 -0.6650861 -0.65381664 -0.07687846 0.59714484 0.19823492 0.18053919 0.58287936 -0.25824538 0.03816816 -0.52415574 0.4508489 -0.2648846 0.07060186 -0.3345863 -0.14206198 -0.75870806 -0.18432516
102 -0.4281639 0.6518265 -0.17511837 0.3453967 -0.031958774 1.2803103 0.60750157 -0.31760907 -0.54272234 0.041426443 -0.31123993 -0.13528122 0.16785806 0.13699554 0.18643834 0.5572819 0.42509782 -0.108731866 -0.17832682 -0.45651975 -0.03419754 -0.56018007 0.14031768 -0.73562366 0.20390786 -0.033740893 0.21295837 -0.16541542 0.36881062 -0.055117704 -0.4161782 0.3476342 0.17478569 0.33715636 -1.0480714 -0.3161222 0.14802198 0.26743045 -0.8433621 -0.015360012 -0.030942567 0.03784032 -0.1294379 -0.21866407 0.34258622 -0.017548228 -0.04519809 0.02156204 -0.20332843 0.05811325 0.42760184 -0.16042449 0.39706764 -0.39651072 -0.09531979 -0.007334922 0.22067446 0.29327124 -0.39896026 0.40847194 0.23845844 0.21811189 -0.4333214 -1.0908582
70 0.45892027 -0.4930328 0.29295948 0.18407291 0.55335844 -0.7708359 0.3440838 -0.01252877 -0.9401126 -0.19652641 0.21913657 0.14019637 0.09920518 -1.2362248 -0.018280776 1.2217126 0.29343674 0.20064726 0.69078535 -0.8469386 -0.24201727 -0.4031019 0.0735473 -0.14304374 0.2860554 0.11554047 -0.32026476 -0.6255672 0.2954758 0.7371 -0.5705195 0.80079865 0.4388197 -0.4086315 0.066240795 0.20470545 0.48085815 0.59997874 -0.14309852 0.045041174 -0.842405 -0.11474591 -0.46596557 -0.14704718 0.44451925 1.0492299 -0.72823066 -0.37175542 -0.29905888 0.16165617 1.4686427 0.16741933 0.19540358 -0.2607824 0.095711365 0.300166 0.4126959 -0.08353159 -0.5840422 -0.65465677 0.19440295 -0.045900807 -0.5317389 -0.09058568
153 0.22408412 0.27610213 -0.124379314 0.1485213 0.4309946 0.23256254 -0.18706743 -0.29359028 -0.52076024 0.18298584 -0.013034953 0.3293244 -0.4641015 -0.993326 0.13612708 -0.4938022 0.35079625 0.46753728 0.50561684 -1.3778602 -0.25657094 -0.078174785 0.05272262 -0.46030742 0.3659963 0.7149833 -0.24751312 -0.04584433 -0.23343606 0.26261887 -0.104520835 0.8934112 0.48276445 -0.93018097 -0.09734375 -0.13170744 -0.25407916 0.47465643 -0.0017373629 -0.47320935 0.06446475 -0.43193853 0.27627286 -0.47194198 -0.25122032 0.38940102 -0.76527125 -0.49816823 -0.53733283 0.027667763 1.0095663 -0.3100268 0.10505324 -0.61434317 0.14731723 0.4916094 0.046445698 -0.051795088 -0.5854753 0.24328166 -0.9014334 -0.03763512 -0.46325102 0.10486897
51 0.2509742 -0.025025258 -0.15326034 0.3852636 -0.14720842 0.5115675 0.8467701 -0.35382384 -0.39033645 0.20922346 0.4286107 -0.5236133 -0.61259055 0.6211198 0.6357651 0.61614156 -0.53165966 -0.15713577 0.057008702 -0.2985185 -0.7840012 0.42813015 0.6227361 0.26101294 0.45852277 0.3910185 -0.28363234 -0.48658308 -0.3789108 -0.57594305 0.05342114 0.7257719 -0.32937187 0.050127562 0.28573573 -0.33308476 0.8236949 -0.38770345 0.09108025 -0.71326506 -0.20955482 0.05848626 0.28616494 0.2511014 -0.15284848 -0.36967123 0.3211324 0.11415386 -0.24267237 -0.1094105 1.1593114 -0.05471716 -0.2933905 0.031268466 0.2880524 -0.5328399 -0.054669388 0.47055447 -0.18172868 0.45353934 -0.02354901 0.4906565 -0.07119785 -0.8066173
113 -0.14357556 0.39265794 -0.45048502 0.782637 0.60171944 0.4910135 0.40233806 -1.3139354 0.2920207 0.087918006 -0.677158 -0.766546 0.22961019 0.16142663 0.90389174 -0.36742753 0.19118747 0.07353204 0.90959096 -0.094342835 -0.79669523 -0.07959057 0.10812958 -0.0655583 0.3099494 0.10030097 0.3457475 -0.34219185 -0.5731834 0.13104194 -0.52533185 0.28471613 -0.052370906 0.31161422 0.01576218 0.060679525 -0.18629718 0.6244148 -0.1607697 0.26893157 0.11704213 -0.7416092 -0.21936944 -0.23228818 0.5181986 0.8943893 0.63864136 -1.5016909 -0.51205647 0.2776137 0.45243132 0.41770056 0.045264788 -0.59430766 0.50124544 -0.2563412 -0.060232524 0.09009201 0.028691934 -0.2745242 -0.059902232 0.08878531 0.01763862 0.54739255
148 0.2580812 0.00088851986 -0.47920683 0.2143515 -0.4411159 0.38317278 0.3732031 -0.40781307 -0.63726944 -0.4481044 0.42050192 0.36334836 0.45400167 0.25929257 0.21516438 0.3197422 0.100685045 -0.2743224 0.1120779 0.049143147 -0.47522533 -0.053915758 -0.062332116 -0.0880956 0.35544503 0.18312 0.17066917 -0.032187607 0.2662145 -0.20156497 -0.4374464 0.0903595 0.36202845 0.26879266 -0.086739786 -0.308445 -0.28225118 0.039450493 -0.6878741 -0.63307893 0.40402836 -0.4491023 0.13064438 -0.22401564 -0.5682858 1.3835962 0.35910258 -0.55490214 0.27416804 0.14541836 0.045928396 -0.11070828 0.41527998 0.26384306 0.0721806 0.64781666 -0.3262085 -0.1882173 -0.48884013 0.23931293 0.25350332 -0.25495866 -0.6115058 -0.92992896
137 -0.2966336 0.59909827 -0.19264825 0.24265859 0.005453751 1.0208741 0.6495636 -0.4712715 -0.5412576 -0.1463216 -0.38193902 -0.03476274 0.2595594 0.16735265 0.14074351 0.5540211 0.20195913 -0.12454038 -0.3155525 -0.512097 0.09199914 -0.6136004 0.055373374 -0.8659426 0.07005436 0.09347129 -0.038566656 -0.054600563 0.5076834 0.0028100559 -0.37123004 0.2987357 0.1664858 0.20855096 -0.8681747 -0.44943678 0.1351353 0.24887758 -0.99927026 0.31290063 0.025466153 0.13259515 -0.11905018 -0.027041811 0.31773564 0.0417469 0.04990705 -0.14992382 -0.42010608 -0.03823563 0.71896774 -0.15108442 0.31856072 -0.36810187 -0.088851295 0.041748554 0.012535021 0.2722 -0.46230817 0.4707727 0.22736014 -0.065393254 -0.44039315 -1.0441204
90 0.54050153 0.3603967 -0.23885006 -0.14403509 0.15660255 0.46210468 0.987364 -0.43778038 -0.32199824 -0.14378391 0.063230254 0.09910553 0.193971 0.39049977 -0.27910718 -0.13639657 -0.00733037 0.35190156 0.004795203 -0.50990784 -0.3000466 -0.4552377 0.35112658 -0.14629032 0.19978571 0.21911146 -0.001376857 0.44546446 0.093096554 -0.23886327 -0.5966313 0.45159277 0.11060791 0.2862241 -0.57537955 0.079386726 -0.10416669 0.44770542 0.31448883 -0.76596224 0.20872061 -0.5456581 -0.21364968 0.4144223 0.3516585 0.40454242 0.12918727 -0.43793 -0.7022059 -0.33404317 0.6736721 -0.469342 0.53002 0.34305295 0.12480148 0.6587591 -0.7445703 -0.11026223 0.0083920015 -0.24081208 0.21261536 0.32848424 0.10745137 -0.7857298
167 -0.23467459 -0.3335446 -0.1407161 0.2627725 0.37453243 -0.05158966 0.14434695 -0.025907375 -0.5653384 -0.07463915 0.011638993 0.07763422 -0.041041493 -1.1828195 0.23607875 0.43479955 0.35903144 0.20896038 0.85144556 -1.168811 0.4576157 -0.46937746 -0.09308308 0.39815736 0.23572859 0.643892 -0.1642104 0.12321445 0.03841929 0.077467196 -0.5345356 0.9915052 0.35745195 -0.04423207 0.14919862 -0.12582482 0.17586516 0.5867303 -0.32058436 0.17769171 -0.010749609 0.06918201 -0.450989 -0.48256278 0.4599423 0.6493297 -0.39800036 -0.13790447 -0.8355799 -0.08996845 0.75805163 0.35399687 0.031825237 -0.5573523 -0.30837637 0.11723309 -0.027178675 -0.18284073 -0.3031852 -0.22757906 -0.025580248 0.189594 -0.6183927 -0.08249215
75 0.28959984 -0.35047647 -0.05903382 0.68731165 -0.01891378 0.35130608 0.92479557 -0.57360524 -0.47460356 0.23887058 0.29173505 -0.37166157 -0.7265609 0.6275078 0.42012906 0.6947256 -0.36524215 -0.25832435 0.11230204 -0.384078 -0.7508685 0.14113857 0.40388182 0.30597636 0.41490027 0.50430655 -0.1731716 -0.84706104 -0.5926351 -0.46005943 0.08520062 0.8243955 -0.41981328 0.15548931 0.40135038 -0.2530061 0.73468375 -0.42216432 0.15271439 -0.62921053 -0.05373687 0.19541344 0.25953656 -0.034925543 -0.34363455 -0.21943451 0.24613884 -0.20073552 -0.3519168 0.10141649 1.0470475 -0.24019623 -0.384951 0.03822478 0.40286624 -0.5819085 -0.02671202 0.5749076 -0.2254412 0.3831856 -0.17140158 0.5465289 -0.12502404 -0.9203311
39 -0.15984024 -0.10991236 -0.3300549 0.34910792 0.08339221 0.23503494 0.32512164 -0.48608267 -0.31427595 -0.19175789 0.12265928 0.5729941 0.6353465 -0.84768397 -0.36449188 -0.11861268 0.44873217 0.27237445 0.65811044 -0.85285634 -0.011918291 -0.2878909 -0.2799573 0.1655429 0.14557499 0.15322872 0.3466803 -0.51456195 0.07449097 -0.39482963 -0.46786547 0.5841461 0.12182732 -0.30770448 -0.07352841 -0.009498939 -0.26750442 0.10086472 -0.3148397 0.001085741 -0.022643097 0.06850546 -0.46314642 -0.0700391 0.8741205 0.5502161 0.20003729 0.06517848 -0.38125739 0.06870621 1.4483548 0.2501098 0.44731233 -0.2566585 0.22124906 0.1964856 -0.31190994 0.33065498 -0.2341295 -0.7127775 -0.27222493 0.1902458 -0.73170376 -0.15481725
44 0.18391374 0.8201049 0.28704312 0.39452267 0.062028863 0.32062367 0.28670207 -0.6066332 -0.571446 -0.8140618 -0.5301725 0.0003250222 0.5054421 -0.28809157 0.36521623 -0.42408478 -0.7394008 -0.5231581 0.38481653 -0.5669053 -0.060336832 -0.16484495 -0.2194339 -0.023173455 0.3969221 0.016528992 -0.68254143 0.058290966 -0.41404846 -0.56953454 -0.5192269 0.47837514 0.5461823 0.5661806 0.24065481 -0.2618685 0.08021427 -0.3733199 -0.21164104 -0.3336825 0.39781436 0.3086857 -0.4416266 -0.33981848 0.49134338 0.3385386 0.19511479 -0.4408633 -1.0404886 -0.022360958 0.12952785 -0.2461497 -0.2020491 -0.6287733 0.09822945 0.08070123 -0.6111742 0.34004477 -0.19614993 0.09072657 0.37514716 -0.19266264 -0.22403085 -0.2610791
110 -0.09661579 -0.047438573 -0.077263124 0.13993084 0.25317514 0.56157213 0.4603151 0.57015914 -0.28284281 -0.3241342 -0.16925612 0.04905519 -0.811209 -0.0739068 0.27792618 0.2676672 -0.20494963 -0.07007663 0.68921036 -0.15960786 0.59635293 -0.058927674 -0.1770043 0.41144434 0.5492768 -0.26955003 0.09609211 -0.9317485 -0.42358616 -0.33689183 -0.34399256 0.4056625 0.044733882 0.14064077 -0.19478603 -0.42059007 0.63735193 -0.21745719 -0.39882606 -0.1838458 -0.38473028 -0.8645187 -0.45445064 0.109043166 0.36071295 0.7065028 -0.21655166 0.17437124 0.0077797896 0.11473475 1.9581062 -0.43506068 0.6683672 0.11738812 -0.29103765 -0.2547738 0.4007396 0.59187335 -0.4598892 -1.2112981 -0.89650553 0.09581043 -0.5409138 -0.2550173
114 -0.15140541 0.4994846 -0.21179032 0.82333684 0.54913044 0.39522234 0.5363939 -1.5049573 0.17205828 0.11422486 -0.8501324 -0.4239436 0.10786614 0.32297838 0.9349743 -0.29680875 0.13696718 -0.013012193 0.8353576 -0.10341253 -0.6260887 -0.19753933 0.18089174 -0.28960353 0.32654113 0.07371111 0.2474918 -0.30745175 -0.6765166 0.271681 -0.3612668 0.22814454 -0.17545035 0.07363263 -0.087405235 -0.09375028 -0.40875158 0.7482356 -0.1941659 0.22307016 -0.21835545 -0.7251568 -0.45424384 -0.39762467 0.26904044 0.8221271 0.6030148 -1.335827 -0.7708879 0.17677976 0.4321422 0.39375255 -0.15414913 -0.5294614 0.41991004 -0.14392918 -0.44300225 0.08606487 0.15489613 -0.39286324 -0.07554065 -0.049619872 -0.24060592 0.4922695
149 0.5153678 0.27331412 -0.5683121 0.36390167 0.32658312 0.34787515 0.044037536 0.040336374 -0.6798149 -0.11780162 -0.11268111 0.21739951 0.26156798 -0.6994225 -0.19691311 0.12235297 0.15952988 -0.65877336 0.90208405 -0.32361722 0.38789886 -0.8384354 -0.05330543 -0.40562075 0.6223224 0.67616665 -0.27317497 -0.553694 -0.73602057 -0.23257269 -0.6117382 0.9176355 0.23018418 0.1038282 -0.23996578 -0.050571416 -0.118010685 0.1689885 -0.04962587 -0.47654238 0.12704954 0.14202541 -0.2165064 0.36144763 0.5668019 0.32859498 -0.032431617 0.22982919 -0.6715085 -0.4036412 0.97089267 0.51030487 0.43851253 -0.5642537 0.031692255 0.23131333 -0.4545077 0.42450765 0.030386776 0.23215692 -0.3153324 -0.22485577 -0.35216984 0.28777337
152 0.6484768 0.5342847 -0.010247031 0.6225148 0.15813966 -0.20171179 0.43938988 -0.08914943 -0.35295203 -0.20622733 0.023569044 0.4264582 0.42617598 -0.28736675 0.37815896 -0.3115547 0.80832785 -0.33607107 -0.08858566 -0.22986493 0.25958803 -0.027952867 -0.13850616 0.25055817 0.5347297 0.21414284 0.03277004 -0.12766537 -0.2407515 -0.3845311 -0.041724015 0.58238363 0.014034647 0.68604714 0.32131267 -0.3450232 0.47165197 -0.24986032 0.012995302 -0.618946 -0.21485683 0.12507448 0.1101176 0.05073044 -0.24514088 0.8280837 0.47207877 -0.46226245 -0.18046492 0.084547155 0.020364963 -0.0673201 0.3182716 -0.17358558 -0.3197233 0.3750773 -0.38388613 0.13973065 0.4168915 0.28770825 0.4409621 -0.11691588 -0.5328818 -0.9783281
88 0.20891114 -0.69046307 0.0037379167 0.7511696 0.22043209 0.33672518 0.80352896 -0.5880519 -0.7564998 0.39807063 0.1344968 -0.10070216 -0.88744545 0.5635058 0.3486761 0.5970042 -0.08310663 -0.3090095 0.3313128 -0.10958534 -0.93854934 0.010925752 0.1774406 0.51155317 0.23208004 0.6472555 -0.065244906 -0.7574216 -0.5442443 -0.36662975 -0.04228131 1.1214151 -0.2660288 0.43838334 0.4724378 -0.13041733 0.846818 -0.3713188 0.033121943 -0.5229089 0.22746904 0.2944174 0.1965553 0.004866444 -0.29089788 -0.22912924 0.49203455 -0.47794273 -0.81611556 0.043248344 1.0896783 -0.22527023 -0.51749593 0.24176417 0.48465064 -0.6904672 0.14078258 0.814139 -0.3654823 0.32757187 -0.16814667 0.5619827 -0.38058847 -0.8017961
161 0.06557587 -0.13591863 0.06440044 0.1712756 0.2569621 0.27956885 0.65675896 0.26365724 -0.078128055 -0.46206814 -0.35805848 -0.007173577 -0.7617249 -0.07223884 0.3237058 0.65650266 0.0524152 -0.44769284 0.6079454 -0.27471748 0.41982177 -0.2563155 -0.056930143 0.37191802 0.37865096 -0.3672615 -0.15769216 -0.7996196 -0.3998925 -0.11513422 -0.1764125 0.67959213 0.2275889 -0.059580512 -0.3491118 -0.64735776 0.33075663 -0.1146412 -0.52944803 -0.26157337 -0.25784189 -0.6725922 -0.49955484 0.34281483 0.5157119 0.79553574 -0.10002978 0.0734563 -0.037141133 0.10516547 1.9305388 -0.34999418 0.27696392 0.36008257 -0.33592334 -0.43094772 -0.07870827 0.39585924 -0.22324942 -0.7661706 -0.9688467 0.2751845 -0.69684756 -0.27326933
52 0.12693515 -0.061230112 0.23757634 -0.034213632 0.23022191 0.7271332 0.48657832 -0.19046548 0.12821728 -0.0010588397 0.4146858 0.17916828 0.6085096 -0.19121337 0.18407571 -0.42111716 0.78740394 0.25618216 -0.40414262 -0.25512543 -0.13048767 0.069066264 0.12220722 -0.08382421 0.36189353 -0.6189148 -0.20765142 -0.14464712 -0.26948887 0.06131393 -0.59691507 0.5693994 0.13919134 0.22810769 -0.599633 0.022083268 0.49767363 0.43010008 -0.44238272 0.11784056 0.36249712 0.34345472 -0.4795457 -0.34392074 0.07241251 -0.026568567 -0.43221498 -0.36818445 0.23393655 -0.37927577 0.8057088 -0.15549062 -0.01955206 0.1030079 0.20897557 0.45266166 -0.86512977 0.16777599 -0.29689154 -0.049045946 -0.21758305 -0.18274873 -0.41547903 -0.8134851
29 0.22457123 0.23896964 -0.034791633 0.37225455 -0.37804875 0.15728545 0.26209554 0.1840205 -0.67831624 0.57349914 -0.015867082 0.12224356 0.5378396 0.20426072 -0.07489091 0.01557887 0.17469378 0.6473823 -0.77823836 0.04846726 0.57992697 -0.2947 0.0021914516 0.2793642 -0.06207703 -0.1907225 0.24503507 -0.05567723 -0.12063578 -0.37889615 -0.73016304 0.43283263 0.010475564 0.31853575 -1.1755191 -0.024709575 0.5888499 -0.07919102 -0.52543646 -0.13811833 0.33368996 -0.63452107 -0.27204302 -0.01202568 0.0689341 0.35337228 -0.29360187 -0.5290953 0.26763678 0.0150704775 1.0314865 -0.27462393 -0.024540607 0.2718232 -0.3509785 0.0005749885 -0.2671873 0.14049447 -0.87426376 0.18974681 0.21351002 -0.20746945 0.2920421 -0.9160526
62 -0.16610257 0.3576968 0.279475 0.061349493 0.5064805 -0.090062544 0.38838422 -0.09579788 -0.52989286 -0.20188579 -0.22140913 0.5625469 -0.45865554 -1.3476794 0.104290195 0.19893214 0.64781445 0.17437619 1.3813071 -0.7380742 -0.22584103 -0.20855609 0.13129348 -0.31666952 1.052531 1.251817 -0.106472366 0.11282999 -0.15148005 0.43930617 -0.59961456 0.9592437 0.72560257 -0.27612498 0.34412846 0.3829544 0.52560693 0.14526102 -0.056551803 -0.1855607 0.01151802 -0.36351073 0.01460312 -0.24415155 0.21893533 1.0067006 -1.1102405 0.036688063 -1.2412057 0.32458693 0.8795415 0.7518877 -0.00307081 -0.27231735 -0.25325605 0.19494388 0.24991709 -0.3372439 -0.7113014 -0.20968272 0.14614807 -0.51636934 -0.40484977 -0.097738124
154 -0.15233189 -0.05637294 0.51434815 0.4818386 0.54626316 0.04365957 0.5683363 0.15296912 -0.6419809 -0.13721092 0.25464702 0.15806437 -0.028996706 -0.20182462 0.7860656 -0.0129284365 0.15734705 0.22491474 0.06388408 -0.913992 0.30411136 -0.47609028 -0.07814747 0.40167344 -0.06533315 0.2616675 -0.19172417 -0.3810619 -0.22245418 0.09188252 -0.5290928 0.60013497 0.07716829 -0.6115467 -0.3191527 -0.036583982 0.11902135 0.3807863 -0.5199373 -0.22837415 -0.17074421 0.42599127 -1.0967116 -0.15483722 0.17475021 -0.33971247 0.4159746 -0.5360728 0.23946103 -0.4440727 0.9843916 0.20362398 0.17960615 -0.23031823 0.033912577 0.11580173 -0.045260314 0.077593096 -0.25763956 -0.10825097 -0.3861705 0.3502731 -0.8296002 0.29716313
87 0.1951341 -0.76960605 0.21914849 0.84979975 0.13019997 0.33917567 0.6700443 -0.72560525 -0.7453561 0.40302506 0.21961644 0.060530715 -0.9553632 0.53911936 0.009584105 0.5107151 -0.12714027 -0.11439392 0.6266698 -0.07196257 -1.1122006 0.11308272 -0.015462682 0.5256345 0.4047594 0.5766952 0.090231754 -0.6258006 -0.5451371 -0.3876483 -0.04829366 1.0463535 -0.46089345 0.51218516 0.747634 -0.05524383 0.74748045 -0.46634033 -0.24267289 -0.5236347 0.25177848 0.49104908 0.021444887 0.15765294 -0.022035342 0.05592114 0.5094452 -0.95431906 -1.3918161 0.2435377 1.17458 -0.33160123 -0.22903174 0.16714264 0.7486775 -0.7058524 0.29085904 0.70571584 -0.5223446 0.5064574 -0.12999311 0.37888712 -0.60344464 -0.6886684
60 -0.025515847 0.2557067 -0.19500141 -0.16814972 -0.53449976 0.25557485 0.2562962 -0.43967783 -0.57193094 0.30075413 0.19809522 0.23802452 0.01449679 0.1519122 0.95183253 -0.45124796 0.22817084 0.49207887 0.43884662 -0.35535553 0.53130877 -0.23077166 0.32296693 -0.7164934 0.14343096 0.77070796 -0.20605408 -0.4810956 -0.22988647 0.069998145 -0.53640264 0.4333823 -0.11592821 -0.4097569 -0.101292714 -0.5181271 -0.42357045 0.27556667 0.79821664 -0.6259741 -0.20391758 0.32935536 -0.37238735 -0.35448623 0.4197204 0.41545618 -0.33421892 -0.5822394 0.5398153 -0.820841 0.7903208 0.46401381 0.021090679 -0.801666 -0.5996592 -0.12098909 0.23732041 -0.24844669 -0.9371762 0.0723523 -1.1671585 0.5500558 -0.7138541 -0.19029838
125 -0.084115 0.8129296 -0.21320738 0.7516169 0.328499 0.4845491 0.73444015 -0.867174 -0.557174 -0.7158389 0.63170016 0.42544448 0.60872746 0.12927434 -0.16782592 0.5391407 0.27781084 0.11136737 1.0572217 -0.95316267 0.2730521 0.24300677 -0.6025573 0.33600214 -0.31287134 -0.4687644 0.020040609 -0.29052314 -0.43260142 0.3738716 -0.54431206 0.20419897 0.079470895 -0.64810634 0.17770961 0.9704592 -0.4652245 0.18477358 -0.37578845 -0.31190383 -0.43691498 0.20244236 0.25521544 -0.35632408 0.57577574 0.82652944 0.75121236 -0.8993176 -0.30626607 0.12655468 0.42725787 -0.390205 0.012587274 0.11281583 -0.22613133 -0.03341106 -0.39244255 0.86353076 -0.90460825 -0.252919 -0.62774837 0.22581892 -0.7667834 -0.117278546
38 0.52878916 0.019712558 0.007879803 0.7501312 0.24404465 -0.39456594 -0.085276954 0.26358375 -0.5405591 0.3997243 0.2297549 -0.4689602 0.5494818 0.15446666 -0.5011407 0.024448646 0.43281347 0.7018679 -0.2893322 -0.08205736 0.47014043 -0.24845044 0.022390854 0.6879922 0.42366934 -0.38308576 -0.00935697 -0.8993853 -0.12176325 -0.7807675 -0.12390927 0.20893666 0.4900975 0.70522225 -1.0097337 -0.20929322 0.6149207 -0.022415455 0.05267435 -0.8820033 0.15537567 -0.39198524 -0.74995047 -0.7297834 0.6126569 0.258989 0.19706802 0.08829916 -0.25623325 -0.016559679 1.0307635 -0.24412239 -0.047307357 0.20206238 -0.7529493 -0.048123382 -0.28976798 -0.052747082 -0.9387469 0.5627685 0.70590466 -0.038087215 -0.3264916 -0.6505058
127 0.20141841 0.25316408 -0.09400686 0.39672345 0.5100816 0.3400104 0.7046765 -0.6108281 -0.24960211 -0.21387404 0.11199832 0.4877309 0.60100216 -0.50265723 -0.08036815 0.25821307 0.2585709 -0.16609183 0.82130426 -0.65441674 0.09117674 -0.019607715 -0.32763046 0.5302763 0.124316715 -0.12772903 0.070616655 -0.2509777 0.17361704 -0.047512334 -0.6123608 0.7321985 0.54386115 -0.33097628 -0.27374518 0.13098916 -0.43382037 0.107951954 -0.085667424 0.002867656 -0.25360537 0.06876658 -0.1525678 0.05379313 0.80305195 0.6256331 0.54936576 -0.28988084 0.005325382 -0.041587424 0.8818429 -0.1423365 0.08031652 0.13908687 0.26755118 -0.00019259939 -0.38964808 0.78542286 -0.5061824 -0.46943232 -0.7095384 0.09416029 -0.7719645 -0.27440837
14 0.2320107 0.15350372 -0.21540537 0.11933966 -0.2526217 0.38002083 0.2027048 -0.07691689 -0.5395731 -0.19867632 0.25512406 0.52084345 0.24337985 -0.5134783 -0.15479513 0.20668608 0.3573945 -0.23096102 0.34200945 -0.35868108 -0.04252939 -0.6278274 -0.15574571 -0.23716429 0.77088416 0.19295621 0.0063226228 -0.3287442 0.23313752 -0.23267314 -0.39079997 0.23613492 0.53470314 0.36582386 0.100768074 -0.46954829 -0.14704409 -0.20400068 -0.38445735 -0.41097033 0.23862848 0.48726118 -0.5490289 -0.1341957 0.87454015 0.2174829 -0.21155386 -0.014648868 -0.31188196 -0.3974311 0.98065704 0.040146913 0.031531572 -0.26614085 0.41131392 0.6395351 -0.54714364 0.21160935 -0.18182985 0.3133795 -0.43516862 -0.53670204 -0.37571838 0.37006322
83 -0.13204321 -0.7298642 0.40986603 1.0280828 0.34255874 0.21067314 0.53493524 -0.8674445 -0.7808768 0.31255326 0.415961 0.34458175 -0.7262865 0.5143315 -0.0066147414 0.27421957 0.014464783 -0.19508998 0.64734507 0.08420345 -1.3267627 0.19130209 0.2621922 0.4271443 0.65060174 0.6329118 -0.07995649 -0.58811665 -0.6731239 -0.20373298 -0.1530644 1.1775591 -0.5296083 0.48802063 0.73395765 -0.05908315 0.5606291 -0.18233992 -0.4912579 -0.39944714 0.16264714 0.39075175 -0.057929214 -0.06736724 0.35487324 0.32050586 0.808734 -0.947241 -1.5097038 0.22829778 1.1125808 -0.13502446 -0.20042317 -0.2505824 0.5739512 -0.82480943 0.18244468 0.74609953 -0.8152696 0.33397543 -0.066229045 0.20939924 -0.7069259 -0.52923316
17 -0.2911939 0.1545237 0.64796364 0.19233625 -0.009354539 0.06314849 0.26123613 -0.28318056 -0.8885351 0.16862449 0.5205877 0.43125355 -0.42019197 -0.2772439 1.1381629 -0.03193172 0.32185036 0.22662385 0.38655615 -0.34485853 0.5671238 -0.43417075 -0.019624738 -0.00083512365 -0.3147851 0.72042286 0.021835357 -0.7123805 -0.6599513 0.07594625 -0.35748708 0.4432656 0.08670073 -0.10120504 -0.35129958 -0.20289132 -0.528589 0.43095955 0.14366026 -0.78858644 0.11284327 0.052179895 -0.1782173 -0.14434648 0.37021053 0.19529706 -0.28864592 -0.98701125 0.0073341606 -0.4721264 0.44747132 0.04202789 -0.045285657 -0.9678348 0.10908398 0.46494 0.1483202 -0.6152635 -0.39648068 -0.25818413 -0.85270715 0.9949359 -1.0921379 -0.12421899
4 -0.10918512 -0.009895004 -0.27913043 0.36186394 0.025519378 0.11024514 -0.08913046 -0.5431643 -0.4480946 -0.17536747 -0.055844586 0.4229226 0.22395188 -0.108521804 0.11893988 0.034364678 0.1405362 -0.026371202 -0.11261176 -0.32895088 0.35748446 -0.38188586 -0.09246729 -0.101264514 0.73366404 -0.30021846 -0.4883716 -0.57307106 0.21045391 -0.13629176 -0.57669127 0.4484467 0.44357702 0.26798776 -0.37650162 -0.28511593 -0.34299886 0.05017389 -0.20516498 -0.3543988 0.38722384 0.99549484 -0.4881576 -0.0027647086 0.39981332 0.30587792 -0.20825906 -0.07359794 0.22257288 -0.18251167 1.1059344 0.07182619 0.014332878 0.14109176 0.35515928 0.72392255 -0.19660439 0.005808767 -0.20055218 -0.28658792 -0.20619833 -0.5508232 -0.18474908 -0.4875288
28 -0.20027067 0.2536443 -0.111830555 0.18336537 0.14710419 -0.014563238 0.2226852 -0.44428718 0.05854012 -0.45083794 -1.0677776 -0.3556484 -0.26829547 -0.30963477 0.34338456 -0.19631332 0.39075464 -0.02437773 0.6329241 0.03717535 0.11239319 -0.0067789718 0.5058516 0.30421594 0.7416336 1.3930439 -0.5640674 0.3083672 -1.1350919 -0.38878417 -0.3155023 -0.20126092 0.546153 0.13734144 -0.039049264 0.90456545 1.0852401 -0.40105873 0.28478253 -0.50895095 -0.41933843 -0.57716405 -0.787362 0.017529372 -0.20069705 0.7621718 -0.3627147 0.08472766 -0.5669085 0.3348213 0.79949546 0.4095645 0.15142836 0.47930363 -0.11323779 0.21940148 -0.0055283797 0.5970293 -0.33344388 0.7416003 0.18503356 -0.53483105 -1.0042795 -1.0159523
124 0.7383322 0.33178923 -0.020626703 0.21434744 0.22507074 0.08731668 0.039442725 -0.11640295 -0.34189105 -0.56453264 -0.6691866 -0.2782361 0.27414182 0.39064988 -0.16946672 0.060886398 0.6120955 -0.3434609 0.5172928 -0.027578324 0.011284487 -0.47556183 0.5278564 -0.19732621 0.6095108 0.0428984 -0.80581963 -0.18442152 -1.1242602 -0.044866547 -0.96301824 0.920873 0.046658214 0.46965826 -0.05164947 -0.58695066 -0.5801964 -0.358875 -0.5574548 -0.37062332 0.18739061 0.1475335 -0.18286112 0.15525237 0.40467778 0.18562362 0.33724856 -0.64179057 -1.0314962 -0.09774322 0.7052304 0.2585036 -0.38909096 -0.40619695 -0.27166307 -0.055706255 -0.4895144 0.1746254 0.18001902 0.04124702 0.19313468 -0.3510345 0.104878575 -0.040822696
69 -0.27147484 0.29942086 0.097806826 0.22252014 -0.57274836 0.08797383 0.35168833 -0.30408478 -0.5393815 0.56162214 0.27662042 0.16432017 -0.03333433 0.2287028 0.90263957 -0.28314698 0.26862103 0.6817288 0.407788 -0.17104669 0.35328123 -0.05970326 0.42104718 -0.8830898 0.14431132 0.72362715 -0.12973838 -0.2260878 -0.0998707 0.24418694 -0.547668 0.38805115 -0.30391952 -0.5685236 -0.4066226 -0.3860171 -0.28008154 0.08038288 0.87478393 -0.59846115 -0.3551537 0.33318132 -0.5388348 -0.30462638 0.12999517 0.3739537 -0.1744396 -0.5793772 0.36312148 -0.9926914 1.0543839 0.3360816 0.0054899724 -0.80767584 -0.7310013 -0.071491756 0.28009483 -0.31888115 -0.69603205 -0.16355927 -1.0056335 0.515056 -0.9045532 0.07138621
165 0.5506466 0.32187316 -0.35171023 0.5362849 -0.0047611063 0.31406465 -0.43238354 -0.4364553 -0.71272624 0.16251071 0.92529815 0.22359163 0.49175182 0.52464795 0.10086141 0.03609625 0.31966984 0.18325393 -0.26002514 0.016274737 0.47594675 0.0036946663 0.083706185 -0.002568968 0.079902165 -0.51595634 0.17294708 -0.18104656 0.09885833 -0.71717787 -0.43682852 0.24967626 0.3077405 0.08437915 -0.6622441 0.00805059 0.8197822 -0.18989371 0.0627451 -0.17063597 0.22031358 -0.14227942 -0.77902 -0.5121746 0.31244114 -0.06490289 -0.09111372 -0.04662369 0.7205218 0.07296049 1.2659578 0.19243726 -0.06980323 -0.14472273 0.26936606 0.6368236 -0.5281051 -0.19995405 -0.61526376 -0.24227366 -0.024265392 -0.22960462 0.10635259 -0.6238488
164 0.037845153 -0.7445105 -0.36790782 0.675335 0.31696957 -0.06972961 0.50385916 -0.4503544 -0.47719416 0.24409394 -0.012063276 0.42835793 1.1106696 -0.8032401 0.09714311 0.6329952 -0.30803066 0.44472805 1.5613809 -1.1794579 0.9070937 -0.37450948 0.505487 0.48840076 -0.24340788 0.5567185 0.23251453 -0.13961217 0.14851587 -0.17981875 -0.8532416 0.20013928 -0.5625953 0.41753447 0.14249736 0.24957676 -0.058829363 0.5918692 -0.43478292 0.07136667 0.083128534 0.1277199 -0.41185686 -0.25031883 0.8251237 0.5794377 0.021724328 0.11046874 -0.53675336 -0.17041312 1.4532882 1.0794394 -0.11822272 -0.9957292 -0.95326626 -0.19040403 0.053648453 -0.17034405 -0.2569975 -0.03219409 -0.24238917 -0.05919162 -0.72555393 -0.6954288
97 -0.3290076 -0.17915505 -0.23530121 0.08815194 -0.5314014 0.32125655 0.9376835 -0.990573 -0.09596424 -0.11344972 0.17123982 0.53925824 0.45239806 -0.24143632 0.17379847 0.278655 0.06656302 -0.04015527 0.34043106 -0.2854308 -0.6739446 -0.8112933 0.049250454 -0.04687894 0.66469437 0.053048894 0.4110543 0.053261776 -0.43472302 0.09282065 -0.18401018 0.3024119 0.49790826 -0.2743843 0.023896394 -0.3417875 -0.29109526 0.20454167 -1.3239115 -1.105369 0.61627734 -0.48486432 0.4250626 0.002560797 -0.5137908 0.900911 0.62977 -0.25547335 0.13942133 -0.10833214 0.1646062 -0.4251281 0.25530025 0.060908377 0.05951666 0.7542427 -0.11161654 0.19101486 -0.7222534 -0.17112859 0.5045857 0.069351934 -1.0474758 -0.94869775
16 0.5491936 0.18806589 0.08638835 0.5925953 0.013684907 0.7875115 1.14133 0.048961405 0.52174455 -0.12017173 0.0012571643 -0.35882387 0.8008527 -0.15392 0.7490239 -0.07140335 0.54316646 0.6478606 0.01719778 -0.25421318 -0.11185395 -0.04066481 0.6331395 -0.015829168 0.103898704 -0.55137193 1.0237588 -0.35421506 -0.375475 0.44606778 -0.40020502 0.7431334 0.7213905 0.30747998 0.045695566 -0.33137894 0.8633515 0.47586957 -0.111903414 -0.053270366 0.1891731 0.3911667 -0.076419495 -0.4582816 0.03814101 0.61927515 -0.27495736 0.057063986 -0.23636018 -0.18912503 0.98365396 0.019050296 0.50388205 -0.7931438 -0.5525036 0.42994815 -0.45599234 0.6576996 0.12444004 0.049187258 -0.892067 0.01164287 -0.5636028 -0.14784251
11 -0.4430074 0.19804552 0.13728598 0.08115553 0.11085825 -0.15710056 0.35751173 -0.41904128 -0.11722355 -0.7853052 -1.1083078 -0.022762157 -0.6573358 -0.30344814 0.43170214 0.07398538 0.6284288 -0.029308837 0.7940706 -0.30295244 0.024949761 0.25154492 0.4780269 -0.04429248 0.9459328 1.4675169 -0.54324836 -0.1326956 -1.2156982 -0.3605234 -0.37257394 -0.042244107 0.22862422 0.06653903 0.06139712 0.65794474 0.9159103 -0.065137535 0.24738422 -0.2088707 -0.13805938 -0.58658266 -1.0113575 0.07308208 -0.04485983 0.82715124 -0.62075007 0.20371926 -0.5882144 0.22913392 0.74090344 0.51083547 0.15484439 0.36789784 -0.05030186 0.21173775 -0.36041537 0.46956128 -0.3768469 0.60282755 0.37597722 -0.760982 -0.8573349 -0.9929061
100 -0.15777564 -0.40848023 0.32246342 0.9246183 0.37975478 0.064480975 0.47834012 -0.83137137 -0.44650775 -0.12381476 0.516217 0.27190453 -0.38963315 0.36610872 0.31143808 0.2116369 -0.082545646 -0.014786096 0.6340815 0.19226179 -1.2623292 0.003392823 0.60170686 0.57583433 0.99902004 0.51848984 -0.34107435 -0.28720677 -0.72089225 -0.17017867 -0.15188715 0.93581593 -0.38752502 0.37232697 0.47860324 -0.13994215 0.18054675 0.24327974 -0.18505533 -0.5623526 0.09255595 0.31329194 -0.021070872 -0.15451956 0.13500938 0.44724986 0.8117297 -1.408419 -1.3079581 0.15729475 1.1073227 -0.13587926 0.14755656 -0.425583 0.4962079 -0.82782936 -0.16972573 0.92952 -0.8090154 0.23803242 -0.09084903 -0.17799349 -0.75330377 -0.5380586
101 -0.012777381 0.013708381 -0.39689112 -0.10984583 -0.46625027 0.23017296 0.62329316 -0.8559436 -0.3528062 -0.36642393 0.12581094 0.16837421 0.7362962 -0.25738037 0.23978885 0.19473137 0.31055972 0.009507913 1.1037456 -0.062439278 -0.68528414 -0.24677345 -0.39310557 -0.27219418 0.5605534 0.0061441385 0.51365066 0.015035998 0.25989833 -0.0091636665 -0.14715931 0.12892573 0.29961997 0.058051247 -0.23955972 -0.723055 -0.08520836 -0.052409455 -0.69227463 -0.5180596 0.92433673 -0.27383167 -0.031156005 -0.013466628 -0.9014892 0.2731654 0.55675143 -0.3404047 0.5252978 -0.5033292 0.5909073 -0.4273724 0.57869256 0.32659325 -0.2162652 0.9254195 0.12007647 0.40330565 -1.1462566 -0.11730461 0.48673272 -0.25974178 -0.15712988 -0.7268947
84 -0.25223336 0.55927366 0.8314629 0.25518087 0.8094625 0.2193654 0.78600043 -0.18951538 -0.03522793 -0.89047074 -0.48497716 -1.0579144 0.64205176 -0.37181774 -0.2081889 0.16014498 -0.051792778 -0.18641585 0.6051924 0.47139257 -0.3011208 0.65131253 -0.7973033 0.3109733 0.16494733 0.48730806 -0.15809245 -0.18332963 -0.3676268 0.008164444 -0.0055953604 0.29638535 0.2626849 -0.28312773 -1.0563087 0.45084897 0.7252302 -0.5013395 -0.009518987 -1.194001 -0.42558935 0.18722291 -0.25715426 0.29186645 0.37809253 1.1142234 0.46096227 -0.10101202 -0.50026536 -0.34776157 1.0581338 0.028586965 0.2087837 -0.41198936 -0.5787994 0.020617714 -0.18762302 -0.16662765 0.6934455 -0.059353497 0.4021794 -0.46019506 -0.031720452 -0.6065033
68 -0.4954566 0.35680926 0.08559399 0.2956715 -0.40903854 0.2504032 0.3664709 -0.054189622 -0.64771104 0.397012 0.3898025 -0.10461058 -0.10911709 0.18415357 1.1139947 -0.2073648 0.10778343 0.85465485 0.15112239 0.09007827 0.42538485 -0.034756124 0.5423601 -0.79578567 0.10406847 0.8749302 -0.32806757 -0.21520019 0.06325733 0.4358149 -0.637422 0.6994391 -0.32205683 -0.5544595 -0.35945168 -0.23017639 -0.14506064 -0.0717819 0.98591673 -0.4094975 -0.3280987 0.09902683 -0.6517471 -0.3633352 -0.018269643 0.69508636 0.25123176 -0.6441731 0.3832937 -1.0878837 1.0602499 0.3956759 -0.05050335 -0.6527506 -0.65105635 -0.17258522 0.30651337 -0.25166875 -0.6423117 -0.4082532 -0.96299577 0.63676494 -1.0396892 0.01789874
3 0.6801951 0.24721016 0.17922994 0.48692217 0.092477195 0.54555154 1.2972512 0.046486303 0.6715219 -0.116887495 0.029267594 -0.536563 0.6851671 -0.12657817 0.37812477 -0.034985952 0.3720259 0.6503449 0.04653446 -0.32621977 0.13407055 -0.2245871 0.48405975 -0.08773726 0.29490173 -0.14250353 0.68243754 -0.3067554 -0.5381959 0.26202503 -0.4540703 0.6532008 0.73821276 0.28005013 -0.017579624 -0.20680617 0.8453691 0.5958362 -0.122447245 0.11858134 0.43911496 0.2905462 -0.22926737 -0.2858241 0.10299092 0.5894353 -0.022809817 0.20074692 -0.10839714 -0.037541624 0.82233965 -0.058214303 0.45757645 -0.7632906 -0.5359907 0.4327263 -0.71366006 0.7363295 0.38597572 0.07128186 -0.83098525 0.119540736 -0.688938 -0.21900742
42 0.055885684 0.8360172 0.7519368 0.38478556 0.28247198 0.19390057 0.08823701 0.002385794 -0.27093974 -0.8865001 -0.055857435 0.042033676 0.4306671 -0.36938754 0.013510569 -0.09712437 -0.28863573 -0.17972183 0.29646495 0.03489138 -0.004872973 -0.10421272 -0.37135273 0.0032161623 -0.08719394 0.065254524 -0.5858968 -0.05165641 -0.11699335 -0.6430096 -0.3533951 0.38836846 0.10640938 0.5179161 0.621446 -0.21940057 -0.15543383 -0.013735065 -0.4844661 -0.73697394 -0.34515676 0.5235053 -0.6083412 0.19940175 0.008960282 0.7384615 0.5096058 -0.36386248 -0.78687745 -0.03919565 0.67142016 -0.012503814 -0.36888817 -0.49409547 -0.1628342 0.15526854 -0.46651977 -0.18243878 -0.013703083 0.19974765 0.033060934 0.04399564 -0.46129838 -0.7670371
126 0.81328624 0.2594325 -0.24479902 0.7445139 0.7208657 0.20143184 -0.034496944 -0.13260102 -0.508266 0.21079186 -0.82852215 -1.1527013 0.340047 0.4096992 -0.7981418 0.39775124 0.40181848 -0.47094256 0.9677603 0.26815754 0.36343285 -1.0386747 0.4764722 -0.16557415 0.39241302 0.30915108 -0.9998474 -0.6265059 -1.1969764 0.14561886 -0.77464014 1.0704812 0.05934547 0.85688823 -0.39670047 -0.015293524 0.3467149 -0.23178302 -0.15460996 -0.8122289 0.083006084 -0.11499462 -0.13433565 1.0028092 -0.30816555 0.40239072 -0.1520296 0.26287198 -0.5802486 -0.11499327 0.993508 0.6281455 0.04289957 -0.67696625 -0.47565672 -0.104629025 -0.5554454 0.5351238 0.10436335 0.17655055 -0.35363135 -0.47702813 -0.44844493 0.20520765
147 0.7005552 0.15166856 0.290667 0.7640338 0.02514865 -0.13796023 0.3502333 -0.14018996 -0.5408589 -0.021730669 -0.0117553575 0.56595534 0.28381124 -0.26315564 0.2890886 0.110435165 0.13234055 -0.51953286 -0.51736283 -0.41328853 -0.09994805 -0.22227654 0.19427763 -0.12714475 0.25839794 -0.13462459 -0.10566716 -0.7169361 -0.08459954 -0.22917335 -0.25151327 0.2985802 0.9859008 0.8926156 -0.47462457 0.05881891 0.04965043 -0.57096744 -0.2196347 -0.65052027 0.31681365 -0.2552837 -0.22121409 -0.68577194 -0.077066585 0.5661107 0.3177196 -0.31615844 -0.23710594 0.042851496 0.3039899 -0.24600908 -0.21762723 0.27195552 -0.25043842 0.3360593 -0.11026463 -0.011989047 -0.335545 0.79459536 0.4583011 -0.25760236 0.17176247 -0.85886717
77 0.031223351 0.32814285 -0.8777853 -0.029129714 -0.094956405 0.11809266 0.65937215 -0.8699837 -0.56144136 -0.3663684 0.43838763 0.8212728 0.5989052 -0.7540902 -0.0026170716 -0.86886364 0.82381856 -0.69260305 0.5287919 -0.12913446 -0.66171414 -0.27754945 0.120472126 0.5570868 0.50315225 -0.16748635 0.30779314 -0.3125446 0.69898677 0.2911957 -0.1423594 0.34483033 0.043683577 0.2741948 -0.077337936 -0.42623731 0.25732478 0.066770576 -0.52211934 -0.4468549 0.13294084 0.2464547 -0.19930619 -0.07162216 0.41040552 0.62755895 0.33294672 -0.042822 -0.31783274 -0.61212116 1.1356912 -0.085516706 0.21256691 -0.742505 0.103213914 0.29298556 -0.2922221 0.3802141 -0.48769152 0.39607814 -0.15812607 -0.21421258 -0.35086203 -0.32251033
6 0.25842962 0.054829657 0.27564406 -0.08873392 0.5859496 0.22705661 -0.30921513 -0.2511941 -0.081587985 0.40424213 0.50648385 0.08362644 0.13915488 0.23701401 0.40959576 0.24756089 0.780822 -0.0117684025 0.5288761 -1.2944597 0.42469925 -0.13238472 0.08476751 -0.32085976 0.59608144 0.38378176 -0.034726642 -0.17332269 -0.4933248 0.27463466 -0.31306976 0.86314666 -0.19365169 -0.05999589 -0.20956828 0.2128085 -0.32375273 0.39862806 -0.42251632 -0.842858 0.16929688 0.4674147 -0.1948431 0.20801988 0.5434588 0.30106026 -0.000960977 -0.13039117 -0.2470248 -0.42774644 0.9312171 -0.49512923 -0.013568178 -0.11584309 0.41590932 0.41701058 -0.6313074 0.28404176 -0.71163493 -0.18844576 -0.32985982 -0.5607376 -0.2891245 0.0036127584
111 -0.44676247 0.40060824 0.27261242 0.13048753 0.33382127 -0.33924112 0.6513202 -0.4179866 -0.045737755 -0.7681023 -0.8083813 0.41977316 -1.0047613 -0.3022903 0.39825335 0.34603745 0.76916575 -0.11877373 0.95148176 -0.62180626 -0.046554204 0.13245541 0.8634853 -0.16845083 0.7030289 1.5986246 -0.37771478 -0.25648937 -0.95155656 -0.12303901 -0.30484715 0.28230187 0.23495501 -0.17384715 0.38344502 0.42007452 0.92519516 -0.02109789 -0.01812432 -0.24630752 -0.04457695 -0.6019952 -1.0528315 -0.017269753 -0.023882974 1.0734727 -0.582673 0.19524233 -0.74070764 0.1696401 0.85241944 0.3952901 0.36899504 0.23518915 0.13797575 0.25677806 -0.33453932 0.24682732 -0.2678908 0.7519856 0.061268132 -0.80928856 -0.67343235 -0.5689869
35 0.6892784 0.4830491 -0.5230819 0.33889693 -0.16326128 0.10170592 1.1886606 -1.2468576 -0.5063253 -0.030872094 0.44296092 1.2142919 0.18375844 -0.51736206 0.47117227 -1.0216932 1.0726842 -0.5428966 0.9102848 -0.35117963 -0.3851006 0.20489421 0.016469656 0.6065945 0.7568088 -0.45711848 0.6151463 -0.2485198 0.30041537 0.6097796 -0.25353664 0.5376582 -0.5551908 0.050251093 -0.58211327 0.23453173 0.36459187 0.30871308 -0.5317154 -0.45278716 -0.12990862 0.23583734 -0.17290284 0.46841612 -0.030039044 0.16347517 0.10254246 -0.6987555 -0.78697944 0.13621627 0.86714333 -0.8077201 0.047143612 -0.69640476 0.10079361 0.42280963 -0.515092 0.2323657 -0.021138784 0.45139644 0.06159566 0.0313317 -0.808138 -0.07599321
43 -0.18885747 -0.35223544 0.38950118 0.8018288 0.3484362 0.091507025 0.3704188 -0.8319903 -0.3860785 -0.36065555 0.45741293 0.35885897 -0.13262968 0.2061544 0.48474342 0.24154 -0.10690472 -0.07722307 0.4652007 0.14846972 -1.0190376 -0.25487483 0.54669964 0.4006831 1.2319704 0.6023325 -0.3873529 -0.20831223 -0.8870238 -0.18100479 -0.01650759 0.8529938 -0.30708027 0.40688875 0.40145054 0.017383123 -0.024938427 0.57081795 -0.34659046 -0.49755275 -0.05814445 0.34379622 -0.24469683 -0.2901942 0.20532164 0.5167626 0.8942631 -1.3131511 -1.3230007 0.32872015 1.1229414 0.03960862 -0.047426395 -0.5461048 0.31525943 -0.6723222 -0.66870147 0.91657794 -0.68687254 0.42839792 -0.3649413 0.017437316 -0.5990013 -0.5175365
57 -0.7953745 0.3203242 0.08162052 0.3495378 -0.34197488 0.2768654 0.17082897 -0.1061877 -0.7058083 0.21331425 0.2642774 -0.25272065 -0.06345861 0.14916353 1.170052 0.011341431 -0.2167529 1.1479793 0.02555808 0.047519524 0.12912443 0.05197877 0.53314316 -0.8306118 0.13100919 0.8926546 -0.07725509 -0.18883339 -0.064228326 0.41246882 -0.65426016 0.9581045 -0.23385839 -0.6818118 -0.4234594 -0.25090504 0.068515785 -0.30315635 0.99530554 -0.45187688 -0.50038546 0.10716976 -0.55071163 -0.39437982 -0.3613733 0.7052541 -0.024330655 -0.84167016 0.40754092 -1.0262791 1.3231928 0.26869 -0.14966713 -0.4916839 -0.5785355 -0.29059294 0.005490578 -0.16009055 -0.5045978 -0.5824127 -0.78443533 0.6004855 -1.0444807 0.096664205
19 -0.14572491 0.28223994 -0.07861119 0.44581553 -0.7371397 0.35974917 0.49031198 -0.8138148 -0.64377695 -0.40013722 -0.03560673 0.13061209 0.29024765 -0.3572744 0.12875414 0.041521218 0.7166877 -0.110490896 0.38489008 -0.18634668 -0.09237837 -0.9105298 -0.14470896 -0.47773573 0.40658385 -0.055731095 -0.059740145 0.050170913 0.41242173 -0.11428549 0.17297274 0.26270434 0.009409958 0.082446836 0.027724069 -0.40944865 0.0050405078 0.28632435 -0.86549675 -0.66585696 0.41387886 0.5148855 -0.06264808 -0.27702555 0.524112 0.3738279 0.40700245 0.42944804 0.43079656 -0.1751684 0.982085 0.031236537 0.2965212 -0.10255266 0.27211156 0.6037242 -0.32577235 0.3293426 -0.32593867 0.20689031 -0.33515453 -0.36859635 0.14300835 -0.3458352
99 -0.24796219 0.44078228 0.95238245 0.13558467 0.41389835 0.27603674 1.0332129 -0.22457787 0.04055962 -1.0183016 -0.24978606 -0.77193123 0.37205917 -0.19745292 -0.14096089 0.4870505 -0.050513424 -0.2742148 0.53884715 0.15265574 -0.33795467 0.81345576 -0.8503762 0.08852214 0.2302662 0.6880373 0.08453901 -0.19722925 -0.61199504 0.18354675 -0.1630542 0.3593061 0.26517305 -0.046727255 -1.180871 0.4878378 0.5480369 -0.5224618 -0.107721105 -0.9857309 -0.49021173 0.18901424 -0.021095501 0.35156173 0.248573 1.2238803 0.30903247 -0.29744896 -0.8717715 -0.63421196 1.1687247 0.07010015 0.19052641 -0.1522687 -0.4232208 0.23892045 -0.27567557 -0.22147015 0.8291917 -0.19253096 0.20249173 -0.3483692 0.19779998 -0.4719618
86 0.7946321 0.35545662 -0.28193226 0.31055522 0.13868032 -0.7894029 1.2798525 0.53275716 -0.2876322 -0.39311492 -0.73162174 -0.28292692 0.17659032 0.13047428 0.23795575 -0.13052861 0.248439 0.07278429 -0.1794451 -0.5902022 -0.8863766 -0.38965914 -0.35283813 -0.41306835 0.5429279 0.319238 0.38745674 -0.17789009 -0.37983772 0.2536444 -0.4428783 0.49271062 -0.1533872 1.5001789 -0.11426699 0.32930452 0.60086966 -0.41043976 -0.40026066 -0.028472383 -0.6408086 0.36155894 -0.1411207 -0.5309482 -0.34506902 0.731869 0.1997665 -0.49664828 -0.114181034 -0.081409074 0.35268664 -0.5384444 0.4211874 -0.07817612 -0.3144235 0.28154874 -0.99672157 0.06839606 -0.07062355 0.44693798 0.120806575 -0.43175095 -0.63026386 -0.81298566
78 0.46900004 0.72180694 -0.5350108 0.3280142 0.42141026 -0.639409 1.1659354 0.7534406 -0.5314656 -0.5193817 -0.41476443 -0.5740075 0.19185793 0.08715415 0.4304973 -0.13021128 0.33947295 -0.22212456 -0.33861277 -0.44521403 -0.73563325 -0.33474123 -0.2498985 -0.072854094 0.6660861 0.13407706 0.040314812 -0.23085144 -0.29472914 0.09972401 -0.85227585 0.24186644 -0.27945733 1.177624 -0.16425675 0.20303506 0.5814094 -0.5747251 -0.34207618 -0.13483028 -0.35665816 0.53264076 -0.26940894 -0.54205304 -0.27311438 0.800326 0.083883576 -0.23756377 -0.017937899 0.14554489 -0.015537162 -0.658557 0.53850824 -0.02963583 -0.43689927 0.4228651 -0.7855199 0.25654522 -0.24137513 0.7074684 0.46278203 -0.4566849 -0.7299423 -0.60087836
157 0.8365982 0.6026298 -0.4868873 0.48523495 -0.25637436 -0.027908932 1.3095582 -1.1754578 -0.42910016 -0.030462202 0.3505884 1.4101275 0.20827469 -0.5207012 0.6130369 -0.7812987 0.9279658 -0.6754138 0.7426188 -0.23599353 -0.28890026 0.20115472 -0.084087886 0.6235167 0.9141715 -0.25911057 0.55536395 -0.09678463 -0.06808994 0.62345374 -0.34578153 0.46971762 -0.21799864 0.10274839 -0.70291287 0.28345832 0.5400642 0.51285905 -0.4109301 -0.20466915 -0.3208342 0.028143244 -0.01821535 0.2568035 0.24792379 0.54483473 0.33306772 -0.9076721 -0.6096042 0.22023043 0.61491525 -0.62190884 0.25365964 -0.8596028 0.34152636 0.20260565 -0.6735244 0.30588168 0.028952422 0.4282958 -0.053522177 0.120005675 -0.9416324 -0.013236903
56 -0.87919873 0.2910159 -0.030042192 0.3937449 -0.5610879 0.045276172 0.257885 0.035580818 -0.46148783 -0.04133028 0.037551895 -0.49429756 -0.2405015 0.26415563 1.2849504 0.23798896 -0.4241774 1.051838 -0.26972547 -0.15699153 0.12011936 -0.28885922 0.5432674 -0.9365984 0.16716415 1.0333701 -0.2469575 -0.1420027 -0.28075418 0.28706467 -0.4623758 1.0014994 -0.23208714 -0.638622 -0.41626734 -0.3023412 0.076686 -0.30937865 0.86778337 -0.32721213 -0.6048343 0.21595754 -0.38847354 -0.64748126 -0.2920472 1.0116713 -0.046365824 -0.6626063 0.3138033 -1.3976339 1.3133696 0.10565721 -0.089899674 -0.4412858 -0.4788493 -0.10020957 0.040419858 -0.24892372 -0.4930217 -0.6258981 -0.5948774 0.6053323 -0.81262517 0.049873956
46 0.40297306 0.7758099 -0.4933109 0.37531152 0.7307962 -0.14423779 1.1598057 0.7205102 -0.8668161 -0.3157284 -0.75086075 -0.22612406 0.77046305 0.21915443 0.07018371 -0.29918894 0.78005 -0.09772441 -0.13938001 -0.010266157 -0.7396245 -0.25700337 -0.48465475 -0.10240339 0.47265488 -0.028840972 -0.46210352 -0.49137822 -0.4573496 0.07759246 -0.36696032 0.14254984 -0.184185 0.57557726 0.3405965 0.29536775 0.7931502 -0.82843995 -0.13112046 -0.52975583 -0.39092085 0.06907833 -0.14115267 -0.11450066 -0.109450735 0.39997447 -0.30237284 -0.41451654 0.42313045 -0.24377877 -0.36271247 -0.34890318 0.07251371 -0.4578837 -0.29356 0.46089134 -0.9294429 0.38656577 -0.19959421 0.13718866 0.3399555 -0.6537519 -0.71428037 -1.2277325
81 -0.41023532 0.47142497 0.8981276 0.18333526 0.3681753 0.15856706 1.1783017 -0.2563939 -0.036306538 -0.561731 -0.3234093 -0.5449014 0.17984563 -0.115770794 0.16106382 0.63827574 0.016500037 -0.34692794 0.35676074 -0.054898906 -0.49857318 0.93018764 -0.8829088 0.15946166 0.37597936 0.6627308 0.048378043 -0.015903402 -0.5595178 0.39588085 -0.20675723 0.4550291 0.36235133 -0.024888298 -1.131078 0.6592842 0.6698547 -0.44593683 -0.21562192 -0.92424446 -0.6588877 0.25299215 0.19057849 0.5798261 0.092592984 1.4698905 0.23930904 -0.29290456 -1.1897647 -0.7426049 1.1090556 0.361586 -0.005757905 -0.27911514 -0.648584 0.4430835 -0.3353079 -0.20564619 0.66345394 -0.36233327 0.26621413 -0.3401533 0.07867274 -0.39768666
94 0.8192753 0.42378598 -0.44422823 0.11973724 0.08598875 -0.99570006 1.3544022 0.14398065 -0.20944428 -0.19048226 -0.9649518 0.014284341 0.012631817 0.27558705 0.17683592 -0.16379172 0.08674214 -0.0020439408 0.046917304 -0.5812909 -1.3313653 -0.59914654 -0.4685369 -0.5511248 0.7397571 0.349265 0.36227635 -0.42986003 -0.24515608 0.30420578 -0.37561277 0.6134179 -0.031666376 1.4077727 -0.06894899 0.19356397 0.41841277 -0.47496656 -0.18425241 0.28657883 -1.064585 0.18159269 0.14953136 -0.48848975 -0.33652937 0.653496 0.27031204 -0.6991837 -0.45381114 -0.51653093 0.72771794 -0.50771326 0.468874 -0.08529219 -0.14381604 0.11784399 -0.56682855 -0.17662604 0.016481685 0.27562848 -0.053412046 -0.2708183 -0.96099305 -0.953976
143 -0.7096028 -0.15781306 0.91268134 0.592992 0.06377926 -0.23713975 0.74600774 0.3486261 -0.805533 0.39853892 -0.032360226 0.17621554 -0.061745986 -0.4012178 0.9940439 0.37189996 -0.19210885 0.008901052 0.8092221 -0.9703465 0.5827323 -0.36072305 -0.40386426 0.52050334 0.24039017 0.41699487 -0.11130188 -0.3852008 -0.38124797 -0.06544909 -0.64381266 0.53442854 0.0121698575 -0.24391611 -0.04538636 0.29480943 0.7824012 0.22007313 -0.4290545 0.6989729 -0.103577785 0.280134 -1.234958 -0.024281794 0.226442 -0.04020763 0.039148655 -0.571433 -0.058214776 -0.689235 0.6722246 0.71185386 -0.29557768 -0.69268155 -0.15284295 0.384418 0.35676423 0.12908804 -0.8499754 -0.1953389 -0.43956605 0.4444459 -1.0325427 -0.13789724
54 -0.71647847 0.4708052 -0.019955404 0.3437429 -0.59016347 -0.03452121 0.31147766 -0.14311795 -0.45564026 -0.02089671 -0.070940375 -0.3515238 -0.3086484 0.35236472 1.2072538 0.46173534 -0.21317059 0.9535517 -0.58895874 -0.16986245 -0.1215076 -0.24695492 0.6713363 -1.1096305 0.22275196 1.0807897 -0.31387463 -0.22994605 -0.43944922 0.16733137 -0.4130966 0.96620685 -0.009034507 -0.5246809 -0.10938324 -0.46583712 0.08636612 -0.39400214 0.45054215 -0.5339996 -0.6125203 0.16265893 -0.1559428 -0.69032687 -0.3311775 1.2004292 -0.42979592 -0.5013993 0.3156993 -1.571739 1.1689538 0.39343452 -0.39768192 -0.59919745 -0.47443593 -0.017572159 0.015526628 -0.5693405 -0.6961338 -0.7410249 -0.56898594 0.77664346 -0.30378786 0.057966318
8 0.33444694 0.9160957 -0.14677103 0.40455127 0.58132124 -0.103091516 0.01845153 -0.23595203 -0.34544268 -1.145897 -0.66190803 0.6498783 0.67665744 -0.29020634 0.2021086 -0.0015093554 -0.09304503 0.3197975 0.4679493 -0.17306711 -0.23810442 -0.1005067 0.027778234 0.07426781 -0.06900428 0.14836915 -0.09574051 -0.22146429 -0.7545506 -0.56675225 -0.6157165 0.4110739 0.6356243 0.69336426 -0.026139095 -0.54859805 0.104293436 -0.1486696 -0.48209548 -0.5882744 -0.44854355 0.46605214 -0.6183681 0.09065528 0.32363394 0.5055238 0.13862821 -0.52364504 -1.1900036 -0.069411695 0.30829474 -0.2925901 -0.24592867 0.04602496 0.49671593 -0.33278322 -0.2515924 -0.010157823 -0.50130826 -0.19326483 0.12166203 0.0060256664 -0.09773018 -0.52250975
82 -0.36860967 0.35600874 0.5557409 0.2484221 0.51052463 0.13897583 1.0440924 -0.23755802 -0.09294377 -0.28898278 -0.16359264 -0.46859705 0.16731742 -0.24074417 -0.008425428 0.72875017 -0.14306197 -0.252522 0.11699761 -0.333703 -0.84641045 0.9472256 -0.8730013 0.03078427 0.27538115 0.7259527 -0.05088215 0.08987805 -0.47572437 0.6943117 -0.37386438 0.27570972 0.4899627 -0.03178121 -0.93763983 0.62575215 1.0154128 -0.56600034 -0.31241605 -0.8331981 -0.86517316 0.10998582 0.32566094 0.8233265 0.22900395 1.5714073 0.46690378 -0.7517102 -1.0994099 -0.9810682 1.196907 0.48088536 -0.047489475 -0.43841368 -0.7854908 0.21728744 -0.18855055 0.0046751746 0.6775055 -0.2667138 0.1303947 -0.24878055 0.08093313 -0.38894993
139 0.22940856 0.15561028 1.4600054 0.2890032 0.36285844 -0.2710881 0.48376867 -0.32421726 -1.1775879 0.1944889 0.06286991 0.37934458 -0.2678868 -0.47357208 0.3410939 -0.2841654 -0.57662463 0.37466186 1.0874355 -0.693128 -0.22989011 0.0122122895 -0.99794316 -0.004189606 -0.6956258 0.25627863 0.5099592 -0.46919605 -0.52808726 0.103300974 0.009621644 0.8124254 0.14059547 1.0571501 -0.09054126 0.031067114 -0.44923007 1.0250286 -0.83041364 0.074155174 -0.0964487 0.06869466 -1.0954673 0.2216657 0.4239694 0.13841628 0.9133055 -1.1042581 -0.6719368 -0.3819302 0.66952425 0.06872153 -0.19244331 -0.7496251 0.13055557 0.36321393 0.54702336 -0.7852088 -0.20018896 -0.10077766 -0.9289061 0.37927967 -1.321418 -0.36875
21 0.050796814 0.61864424 -0.37181473 0.38018495 -0.15693928 0.08972334 1.027672 -0.32778624 -0.40465105 0.8603805 0.41953713 0.17426406 0.008298582 -0.20041038 0.16148853 0.08091247 0.39670396 1.3968056 -0.46868917 -0.256638 -0.004154415 -0.33094275 0.24854316 -0.23277289 0.14986825 -0.6046053 -0.63509834 0.7257071 0.05511202 0.25380024 -1.1913007 0.30650842 0.73460215 1.0426874 -0.44386837 -0.7008199 -0.15667325 -0.5577999 -0.4431771 -0.6436638 -0.3093842 0.020704243 -0.29199445 0.24523655 0.78988636 0.17641912 -0.19246721 -0.12998104 -0.20398077 -1.27137 1.067122 -0.1657107 0.42302313 0.15771 -0.7726233 0.18733518 0.2865823 0.09757354 -0.13256362 -0.090862855 0.5447198 0.65377074 -0.4187234 -0.2063702
96 0.8119294 0.55967486 -0.6438633 0.16784665 -0.049534462 -1.0587158 1.6925617 0.024672924 -0.13620394 -0.43990502 -1.073723 0.40260524 -0.11566052 0.35078433 0.09587468 -0.31661057 0.1864676 0.032357633 0.2863138 -0.28874883 -1.7410336 -0.16991003 -0.58798176 -0.6591399 0.6483922 0.5129298 0.6038848 -0.36773813 0.11060773 0.48180467 -0.11653414 0.5198321 -0.35520786 1.395224 0.0048223543 0.26059642 0.5069553 -0.32127738 -0.24582593 0.34853375 -1.204521 0.42590427 -0.20290941 -0.44158605 -0.19679117 0.7314769 0.3289163 -0.5339675 -0.4745729 -0.5728077 0.87370926 -0.53220195 0.61694956 -0.084967636 -0.2967881 0.061252195 -0.16077736 -0.29373583 -0.32188085 0.350064 -0.029124642 0.03317187 -1.1962777 -0.8189775
168 0.22407208 -0.15909131 1.3302565 0.06325858 0.5945059 -0.20607617 0.39537385 -0.5654799 -1.2729658 0.22376476 -0.111868635 0.5835504 -0.3311068 -0.49977678 0.4367161 -0.3102597 -0.17857605 0.6481368 1.1191666 -0.8056399 0.09909141 0.25863 -1.2097197 0.08380745 -0.8786378 0.5043506 0.70714927 -0.7113259 -0.57654405 0.010795193 -0.0026771505 0.6302873 0.030972686 1.0647519 -0.14561678 -0.049048375 -0.18715507 0.9310401 -0.62542295 -0.061393697 0.19965895 0.23923194 -0.93296707 0.15598013 0.47395483 -0.057904452 0.789245 -0.9653087 -0.343306 -0.59154683 0.6031089 0.020662246 0.17244683 -0.66985404 0.15130338 0.47383252 0.901673 -0.71226996 -0.37713113 -0.06752549 -1.0877706 0.33182526 -0.91089886 -0.6313551
49 -0.5378192 0.7262754 -0.06164618 0.09366473 -0.51482093 -0.12667353 0.2299941 -0.30433643 -0.37145737 -0.01489109 -0.13042535 -0.41763103 -0.18842933 0.4955477 1.0688909 0.806405 -0.09648586 0.6652179 -0.8944854 -0.40149134 -0.2907074 -0.09661726 0.7158905 -1.2380223 0.4688025 0.9441174 -0.34119466 -0.43139017 -0.6550569 0.20031509 -0.50119245 0.9800377 0.14426748 -0.37395465 -0.25460556 -0.450665 0.100533634 -0.60993546 0.4783495 -0.43280646 -0.6968886 0.13834752 0.091617 -0.67746747 -0.4916094 1.3560759 -0.47370362 -0.46078625 0.06707513 -1.9025704 1.0948367 0.5496997 -0.13790452 -0.57879853 -0.63719714 0.116498 0.31656194 -0.5443345 -0.8411794 -0.8399546 -0.459127 0.9360784 -0.12373441 0.36639947
32 -1.2465304 0.018289575 -0.563184 -0.2794589 -0.25345686 0.35058558 0.6097081 1.7679148 -1.7509141 0.5795043 0.02384759 -1.2964993 -0.5674619 -0.14734927 0.4803231 0.62292135 -0.01718736 0.772183 -0.047063883 -1.3854365 -0.36049256 -0.12474924 0.007187105 -0.22544736 0.6236854 -0.107724175 -0.36954084 -0.47779304 0.3883572 0.39479008 0.20216438 -0.8167878 0.09508338 -0.04342119 0.6870451 0.45653144 0.8128873 1.3489788 0.32632774 0.4614034 0.36605063 -0.41542855 -0.40121537 0.18461244 -1.0095758 -0.16843133 0.76806337 -1.5790337 -0.52610606 0.095284514 0.8993239 0.7341302 -0.5661136 -0.40385875 0.47456807 0.3761246 -1.2156334 0.58613634 -0.049198177 -0.25450975 -1.2963111 -0.71065074 -0.32299918 -0.6857841
107 0.55180323 0.58587724 -0.66775626 0.2821705 0.24746867 -0.5515234 1.2422636 0.8460643 -0.38569576 -0.3928084 -0.3390396 -0.3780351 0.36039042 0.11187814 0.21087563 -0.107834265 0.4788212 0.1048851 -0.26666594 -0.28211448 -0.6152646 0.0079059405 -0.04087727 -0.014097171 0.7634833 -0.01809659 0.09848004 -0.121156715 -0.23503365 -0.22167143 -0.92947704 0.36530617 -0.19270717 1.0762057 -0.43002415 0.23903789 0.12019672 -0.58595717 -0.45619252 -0.41017663 -0.32079256 0.46368393 -0.09856716 -0.483937 -0.49514213 0.635362 0.39694777 -0.42558607 0.17537382 0.3455066 0.023789633 -0.51935244 0.2699538 -0.0033209207 -0.4053697 0.07117051 -0.8515491 0.2613763 -0.23311304 0.68536985 0.569505 -0.55067265 -0.65719867 -0.85313356
12 0.053700782 0.28726825 1.5522845 0.21452574 0.16049333 -0.24157058 0.42380306 -0.37366027 -1.1687157 0.056653168 0.2620122 0.17077059 -0.093042 -0.3829583 0.34773093 -0.48079655 -0.6931458 0.23909953 1.0318369 -0.5045406 -0.48353007 -0.05766773 -0.8154727 0.034515485 -0.59075695 0.33845237 -0.005589696 -0.3187944 -0.4026377 0.009098422 -0.20220262 0.73799026 -0.020505052 1.2602253 -0.049112167 0.12695406 -0.4849282 1.0395516 -0.85472345 0.085297816 -0.16224392 -0.026253864 -1.3144525 0.31399143 0.030277835 0.4438708 1.072566 -1.1052005 -0.6551155 -0.18703751 0.6790221 0.09132467 -0.66484565 -0.93792486 0.24195783 0.47712234 0.1278713 -0.6008394 -0.028032992 -0.08584183 -1.0570319 0.4560707 -1.1624143 -0.5040811
74 -0.41516662 0.048402898 0.20230374 0.48930398 0.60727143 -0.005323679 1.0271945 -0.29438642 -0.071122535 -0.31072235 -0.22769883 -0.79231536 0.06319877 -0.09274743 0.016260313 0.6826074 -0.46335915 -0.39582077 -0.10292267 -0.2323954 -0.7610851 1.2656835 -0.90389466 -0.12782195 0.33085632 0.76645267 -0.12607957 0.2604757 -0.48423633 0.97861195 -0.5764138 0.27644384 0.33057564 -0.012145674 -1.2496991 0.6252896 0.97645074 -0.18441568 -0.33571526 -0.8543992 -0.9029645 0.27032205 0.55793905 0.9005671 0.038536932 1.6404527 0.42182887 -0.8495009 -0.6868343 -0.89188224 1.1778944 0.6690161 -0.057335533 -0.47802648 -0.82796144 0.082693346 -0.12570429 0.3490194 0.37757006 -0.3328436 -0.09112237 0.11476739 0.06809959 -0.35467592
163 0.55166596 0.49739683 -0.7771192 0.7388987 -0.7681595 0.8184119 -0.03690612 -0.36202598 -0.8031239 0.15326129 0.52324003 0.5143154 0.5766301 -0.48487997 -0.27804974 0.3695207 0.6446676 -0.043572694 0.66473854 0.16396868 -0.12520684 -0.82586265 1.1366495 -0.014950997 0.08039097 -0.7764508 -0.52677804 -0.23185898 0.48702434 -0.32042846 0.49059057 0.7435923 0.41354707 -0.107867464 -0.16831605 -0.27382648 0.80946547 -0.46527883 -0.02349461 -1.0173956 1.3054099 0.14848022 -0.7914771 -0.48693967 -0.743176 0.12673272 0.43730092 -0.36132023 0.39443305 -0.49819997 1.2629669 -0.6440986 0.67608726 -0.03705013 1.3731154 0.7922508 0.4456517 0.1585848 -1.6810224 -0.55835354 0.5463926 -0.7628677 0.09285869 -0.3249325
112 0.32658887 1.0055875 -0.29882163 1.1761844 1.0985323 -0.58791286 -0.113168135 -0.013679891 0.19961664 -0.38314077 -0.92851526 0.079649374 0.65523046 -0.21068263 -0.23731269 0.3576081 0.043667227 0.69323164 1.1962175 0.1413118 -0.43345368 0.09670267 -0.15264127 -0.081981145 -0.6165413 0.43050647 -0.33002692 -0.6200913 -0.72907776 -0.41957656 -0.4003203 0.15540485 0.7302826 0.7641844 -0.67941767 -0.08937262 0.9772688 -0.09582501 -0.5225975 -1.7695119 -1.1259278 0.42918056 -0.6421853 0.68528986 0.0572999 0.67701554 -0.25912622 -0.15155654 -0.72877127 -0.2205431 0.49220112 -0.4919662 0.55817217 -0.10406705 0.45671722 -0.87077194 -0.27772403 0.436377 -0.58207464 -0.08587435 0.12846944 0.09509267 -0.69328904 -0.37363216
105 1.0990965 0.671655 -1.2059131 -0.5535207 0.54157686 -0.9106839 0.7016313 0.03228878 -0.45324057 -0.18922944 -0.5349498 0.18122822 0.018469831 0.06146289 0.80150336 0.23736458 0.026772007 0.0016010462 -1.061941 -0.10595536 -0.8304271 -0.59987766 0.6937167 -0.70309836 0.9036843 0.25814113 0.16154335 -0.50494003 0.14063512 -0.45313987 -0.5834023 0.012180151 0.52535987 0.86274374 -0.4103318 0.31393752 -0.0012144615 -0.86202496 -0.37040108 -1.1127115 0.2837934 0.039664917 -0.11132338 -1.4532288 -0.88953114 0.45159864 0.2594068 -0.59082 0.6436388 0.70302427 0.51561946 -0.6266573 -0.16172157 -0.15937662 -0.975996 0.26828474 -0.6116586 -0.45752183 -0.33396548 0.03216558 0.806731 -0.19528662 -1.0132787 -0.8453651
