170 64
162 0.25505525 0.2543251 0.011766416 0.32300738 0.008901044 0.09154038 0.1560923 0.15467162 -0.24862406 0.033249103 0.057647604 0.23809722 0.09409386 -0.19523302 -0.15343049 0.29807562 -0.19780244 0.2588554 -0.41390347 -0.006668119 0.41477406 -0.27880257 -0.2887723 -0.0072683217 -0.25363505 0.119121775 0.38352686 -0.0066607613 -0.05311584 -0.23306109 -0.13886105 -0.07910452 -0.12244265 0.0921762 0.030203165 0.060681652 -0.25403214 -0.15630673 -0.20564896 0.32300985 0.035419945 0.33264533 -0.009617354 -0.007105192 -0.0028461942 0.287563 -0.1307275 0.34636885 0.18587217 -0.064110346 0.034726 -0.13336062 -0.4724208 -0.17229792 0.1830972 0.023744388 0.12811045 -0.33925655 0.20327389 0.30913767 0.21571136 -0.59947306 0.5431936 -0.11204078
40 0.22778077 0.29500213 0.17244378 0.20704195 0.048822198 0.17504399 -0.019109668 0.10923333 -0.1831593 -0.08305319 0.024792736 0.29699594 0.09993728 -0.19006585 -0.16563818 0.30612442 -0.18985014 0.11115326 -0.3430664 0.078123055 0.24218051 -0.19063161 -0.30475223 -0.00014243164 -0.23499702 0.12698235 0.4195165 -0.24519679 -0.064929664 -0.23926426 -0.20308228 -0.19661625 -0.115110435 0.048275765 0.09130446 0.12150781 -0.23206976 -0.07435521 -0.18571821 0.24364822 0.035476282 0.33570758 -0.21477413 0.11817448 -0.04846542 0.49913472 -0.17853203 0.21050377 0.33782214 -0.06746181 0.020464242 -0.16981499 -0.4568138 -0.26538253 0.21689127 -0.06392404 0.13725714 -0.35834578 0.22212511 0.2168169 0.11665627 -0.4634231 0.24732073 -0.088235
63 -0.3198142 -0.55249834 0.026116498 -1.4407878 -0.5812887 -0.51028323 -0.03062856 -0.44392788 -1.1714078 0.41597375 0.1163835 0.78417367 0.74638116 -0.41668326 -0.25191092 0.36068684 -0.8094001 -0.8542358 0.3788247 0.60113937 1.1464095 -0.53562385 0.6883294 0.5011524 -0.12260332 1.2489878 -0.2844854 -0.43762138 0.23040122 0.19356094 -0.57260305 0.101645075 -0.21308288 0.18157719 0.15682822 0.28001434 -0.9368162 -0.24001914 0.698125 0.7912135 0.0077082827 -0.12130146 0.27515322 0.2807903 0.52603143 0.27609506 -0.9665293 0.15023921 -0.08473825 -1.0452424 -1.332871 -1.3114996 -1.1784576 -0.88353074 -0.26188678 0.009538805 0.5537712 -0.83141065 -0.33867887 1.6934246 0.016568737 -0.90021855 -0.17520525 -0.07884084
64 -0.16877636 -0.7010653 -0.33119923 -0.5049405 -0.33757207 -0.38202333 -0.27209988 0.03350081 -1.1241753 0.1060065 -0.8065287 0.8948846 0.95710003 0.3831267 -0.94847333 0.26536113 -0.21488203 -0.30908623 0.86887443 0.78754306 1.3070484 -0.53731585 -0.0014713146 0.38577402 -0.38645786 0.80507416 0.2436334 -0.2908127 -0.03172989 0.50373006 -0.40309745 -0.7452684 0.3712607 0.33736765 0.6579364 0.35301915 -0.88451266 -0.35611027 0.24952185 0.13729925 -0.079512276 -0.3242406 0.5545113 -0.09676428 0.56404436 0.28808975 -0.9372764 -0.50320095 -0.3036102 -0.41453314 -0.30681 -0.9867266 -1.3711599 -1.1147213 -0.69465464 -0.10781971 0.3848465 -0.6621019 -0.74604076 1.1399398 0.27200484 -0.66373646 -0.5232709 -0.020610914
61 -0.8822685 0.12722975 -0.27882004 -1.2797275 -0.30884668 -0.43374074 0.04005513 -0.040709943 -0.6257389 0.44004124 -0.740909 0.7372631 0.38804492 -0.02718506 -0.54081273 0.7275144 -0.2595452 -0.90271586 -0.36217707 0.32066718 0.75465035 -0.53088766 -0.28882703 0.32429007 0.069848076 0.32716146 -0.5275939 -0.50485355 0.14460383 0.57475543 -0.21909526 -0.489856 -0.12492767 -0.30544966 0.48514017 0.5559104 -1.2629323 -0.19760177 0.21437705 0.24773979 -0.16329795 -0.82273453 0.4010373 -0.0017462897 0.05595407 0.08176386 -0.13955694 0.18761875 0.2662838 -0.53331345 -0.4686493 -0.9937378 -0.6983565 -1.0331693 -0.3901057 -0.04735938 -0.28890038 -1.006165 0.56154794 0.8818879 0.2009547 -1.143748 -0.22931385 -0.33645543
142 1.0692488 -0.9339241 -0.755361 0.5918512 0.48014238 -0.29763436 0.22836006 -0.5099895 -0.099965334 0.44292572 0.39803898 0.12971573 0.40656653 0.22069934 0.16632262 0.10535631 -0.9146288 0.31134602 0.0055256663 -0.6382067 0.17913167 0.054657098 -0.42154965 -0.7146247 -0.37421656 0.37516284 1.1019245 -0.52109456 -0.7698439 -0.70259416 -0.026577575 -1.004728 0.06747038 -0.7966555 0.33598495 0.22366373 -0.5627397 -0.13089733 -0.36980608 -0.3265425 0.4993147 0.9296735 -0.44982603 0.7394491 0.40821347 0.45471382 0.29837883 -0.6019002 0.3852607 0.8423227 -0.026473915 -0.4010145 -0.44641814 -1.1065319 -0.35258597 -0.08128421 0.733816 -0.96025527 0.49456733 1.7463838 0.5644752 -0.2579812 0.7147324 -0.92087704
98 0.49551237 -0.002081668 -0.36511183 0.40185046 0.6024162 0.07622775 -0.023416067 0.15122007 -0.63159466 0.2128129 0.3164974 0.18621923 -0.05061559 0.25096568 0.24996245 -0.01737879 -0.39296317 0.30054373 -0.33227006 -0.41019318 0.26669326 -0.21774122 -0.27238032 -0.5699548 -0.3700855 0.25434688 0.2691445 -0.28413668 -0.4484877 -0.3210101 -0.49219438 -0.78294337 -0.0962048 -0.3918111 0.3887531 0.02722657 -0.48260814 -0.11920774 -0.79771435 -0.42882785 0.073180884 0.48108253 -0.39955384 1.0701116 0.5382836 0.44172 0.03938928 -0.01594912 0.2580848 0.16807492 0.020721281 0.039785016 -0.073424555 -0.6058412 -0.5401813 0.09932779 0.3347215 -0.6421856 0.34661564 1.3001117 0.34432858 -0.23000896 0.36758906 -0.03594873
141 1.0856467 -0.5358072 -0.028572632 0.41624272 0.79582155 0.04172303 -0.2577521 -0.2280615 0.016053274 0.28088683 0.6300735 0.30772364 -0.29639992 0.70088935 0.8482287 -0.38231158 -0.028921649 0.6578925 -0.36577153 -0.56838423 0.037696585 0.1961146 -0.15172216 -0.7806717 -0.4654543 -0.20273992 0.30702883 -0.06096137 -0.65741706 -0.39475182 -0.21177968 -0.34977353 0.09927088 -0.458872 0.40751067 0.46597078 -1.2332898 -0.13404338 -0.4855493 -0.11241706 0.23740849 0.73935914 -0.5332605 1.119705 0.29391205 0.9343421 0.24823424 -0.2724045 0.5190195 0.1301325 0.33245903 -0.1340168 -0.05870023 -0.9385357 -0.3359445 -0.05823549 0.6007344 -0.37956208 1.0180666 1.9611044 -0.06756114 -1.0371318 0.5329441 -0.77866966
122 0.29528466 -0.14694922 -0.40311104 0.43375447 0.40032607 -0.0045894026 0.12815379 -0.12775561 -0.648106 0.8803083 0.6853091 0.04948157 0.32288706 0.22386591 0.8109662 -0.36738446 -0.3997106 0.07977166 -0.3710172 -0.7024983 0.030143129 -0.043229435 -0.51216525 -0.34119007 -0.5607499 0.081183776 0.50818294 -0.3379041 -0.79390264 -0.6885378 -0.07994294 -0.7593875 0.04013908 -0.3338091 0.22889252 0.4100268 -0.40040776 -0.24929364 -0.92889094 0.24890205 -0.32671764 0.3736017 -0.8896537 0.80594057 0.17569892 0.71453196 0.3487568 -0.4168706 0.683161 0.52186686 -0.6402025 0.08700233 -0.08486171 -1.0026855 0.014964283 -0.17245573 0.2205299 -0.43501717 0.68080217 1.7356067 0.5454174 -0.6778154 0.40645623 0.006384948
120 0.6701014 -0.36557955 -0.7787344 0.68669385 0.14564626 -0.025486901 -0.138524 -0.24760832 -0.5498041 0.3311541 0.37429997 0.2017817 0.18818545 0.5553409 0.070670836 0.29832754 0.3545004 0.12408909 -0.253978 -0.54437625 -0.19709069 0.17581326 -0.15599371 -0.474485 -0.9591054 0.11153992 0.6773312 0.45942083 -0.7132779 -0.7166139 -0.25978705 -1.1802982 -0.4265685 -0.2668476 0.88490516 -0.08257251 -0.6808791 -0.24499784 -0.15080546 -0.32246807 0.07620394 0.23948404 -0.5310036 0.44709662 0.12975477 0.5668913 -0.63642764 -0.20798384 0.46862137 0.039059937 0.0588395 -0.042569187 -0.27587515 -0.8300615 -0.78316814 -0.44385907 0.5315385 -0.42484263 0.17427342 0.87678355 0.39808053 -0.2832238 0.7536675 -0.29787317
119 0.47657272 -0.22832061 -0.07767077 0.84207493 0.66456425 -0.46841198 -0.27346298 -0.066323854 -0.5162035 -0.3119903 0.4227137 0.34274554 0.004632859 -0.065924816 0.5234037 0.10677627 -0.0016323653 0.04017939 -0.23189469 -1.0750312 0.24864584 0.036633525 -0.15700968 0.31814614 -0.2702884 0.9207312 0.46397507 -0.30857277 -0.49317923 -1.0925058 -0.5975241 -0.60839474 0.11442659 -0.6338642 -0.1305075 0.27082998 -0.6236325 0.012285096 -0.39926592 -0.22269912 -0.25816244 0.2613004 -0.5966601 0.6358014 0.00408688 0.12524727 0.23822688 -0.27557024 0.6361162 0.2721007 0.5333182 -0.09486337 -0.053100094 -0.4673828 -0.6055907 -0.45288384 0.41691455 -0.3568954 0.70010215 1.5417678 0.6461304 -0.57420045 0.5737662 -0.5150277
128 -0.04115224 -0.18144083 -0.39897427 0.23013146 0.036853287 0.28751296 -0.16936754 0.110431895 -0.028719796 -0.2605423 0.2836149 0.20844723 -0.13274914 0.11218612 -0.16329482 0.28912964 0.10072104 -0.3591825 0.1136083 0.020475091 1.0850205 -0.058839086 0.19630982 -0.1768144 -0.15543513 0.1446201 0.38262784 -0.0050403797 0.025062708 -0.026310405 -0.34420222 -0.06688384 -0.20623693 -0.23652762 0.0057086227 0.32946664 -0.2477103 0.41708016 0.22892198 0.24646577 0.0314781 -0.18788694 0.23935619 0.043821163 -0.22510426 0.6088027 0.08096823 -0.25934866 0.17679314 0.12529112 -0.21926631 0.15469064 -0.21260494 -0.3609565 0.011596865 0.08071836 -0.34356448 -0.4385495 0.1575567 0.6463576 -0.098451056 -0.78682566 0.10406659 0.20140438
7 0.15644567 0.115165964 -0.0005791856 0.25587296 0.14392093 0.04593706 0.16322975 0.17554285 -0.10641865 0.13086608 -0.0791395 0.4579619 0.028717257 -0.27815622 -0.16632837 0.3231649 -0.17996849 -0.17983395 -0.08544835 0.2154313 -0.012214629 0.025549334 -0.5380706 -0.103150345 -0.46649987 0.31810093 0.3283372 -0.08687395 -0.2849225 -0.10982184 -0.15286356 -0.11215981 -0.20598063 -0.18744875 0.14698142 0.35841513 -0.51122105 -0.14828698 -0.2401799 0.124909796 0.17860518 0.19846478 -0.29159242 0.36353394 0.04827783 0.477422 -0.09377139 0.03464871 0.18822785 0.014357173 0.20730057 -0.0084982505 -0.24817146 0.065780394 0.14888251 -0.0175183 0.2709873 -0.60469276 0.22489206 0.27464044 0.25741872 -0.6764285 0.35692176 -0.112137355
13 -0.04880463 0.3603236 -0.036058445 0.30096728 0.1268102 0.0882922 0.13934422 0.12625787 -0.1309824 0.08296856 -0.101899125 0.4108642 -0.13438258 -0.17085016 -0.06864923 0.2727671 -0.24031322 -0.0032318656 -0.14963984 0.20022361 0.14479445 0.17425703 -0.082930215 -0.09742365 -0.029362723 0.14837316 0.365743 -0.16148564 -0.06587816 -0.26553366 -0.1920803 -0.32453263 -0.114041954 0.1693867 0.05356893 0.03198175 -0.27093852 -0.11735891 -0.027492844 0.2324064 -0.27019766 0.5972551 -0.015027469 -0.036366355 -0.18059872 0.234211 -0.24960029 0.0739931 0.11213753 -0.2739114 0.11392623 -0.08210056 -0.39043805 -0.18751392 0.009979455 0.14858234 0.06410985 -0.45467657 0.02073819 0.4985836 0.16386351 -0.6947726 0.26572847 0.010705091
153 0.3065452 0.36370867 -0.2701565 0.021568958 -0.3530459 0.30042306 0.09894406 0.19603382 -0.33183593 -0.15033086 0.032931495 0.032545436 0.014519087 0.15466172 -0.47504148 0.067125745 -0.09279365 -0.34703144 0.25492874 0.005414915 0.39098877 0.061807133 0.20595163 -0.19950245 0.10675416 0.048998643 0.13369754 -0.138837 -0.5194392 -0.18577075 -0.380358 -0.56705046 -0.3492658 0.023252347 -0.10828548 0.32565796 -0.28401068 0.4804495 0.31284192 0.2970032 0.18834299 -0.38316962 0.23336414 0.213072 -0.12643789 0.33065423 0.24672003 -0.26556644 -0.053839866 -0.06586326 -0.17414355 -0.14717947 -0.19422868 -0.036470395 -0.09487503 0.26791817 -0.16401589 -0.29117483 0.11523815 0.70274407 0.19794634 -0.6205831 0.38625106 -0.11890418
150 0.47810918 -0.26770902 0.42584547 -0.79827374 -0.10088682 0.24170934 -0.64203495 -0.4174966 -0.31471798 -0.36525422 -0.051134918 0.7355282 0.011683839 0.45928067 -0.47849068 0.88672304 0.3063572 -0.3310807 0.07290984 -0.34213594 0.5545874 0.2417714 0.8306416 0.36284998 -0.5937193 0.05197362 -0.53712094 0.24588288 -0.065239176 0.09536731 0.4613359 -0.5188503 -0.4086668 -0.4304841 0.009194809 0.09898438 -0.15186255 0.37804776 0.5926676 0.1724842 0.5756574 0.19694299 0.98829955 0.14157113 0.39320362 0.9103681 -0.11636514 0.26763293 0.47093436 -0.28807822 0.083184116 -0.7266921 -0.66454875 -1.3024276 -0.7373306 0.12653872 0.30307427 -0.6033573 0.009278417 1.4300504 0.4389404 -1.4177028 -0.15569417 -0.7757002
106 0.48930454 0.33827946 -0.04195412 0.29121724 0.92434806 -0.10768879 0.22006539 0.19020504 -0.4944272 0.07560865 0.49171087 -0.16863103 0.8807262 0.42453435 0.41188398 0.3661036 -0.41472983 0.27909982 -0.8022345 -0.47522315 0.62382716 0.28325185 -0.12593897 -0.47888938 -0.4249893 0.029442502 0.19595732 -0.38634652 -0.46133545 -0.13586952 0.030982487 -0.7817965 -0.10671041 -0.05406594 0.24267536 0.0262725 -0.32322288 -0.17126462 0.10374334 -0.14808926 0.030341579 -0.11222026 0.112996854 -0.022342827 -0.05859892 0.009211498 -0.48018306 -0.55554044 0.79149675 0.5601666 -0.030570395 -0.7043061 -0.5239611 0.11981541 0.09972976 0.11885027 0.40599886 -0.53644335 0.90580195 0.8188221 0.10400786 -0.009186651 -0.012260602 0.24887685
53 0.22646305 -0.0732107 0.32641205 -0.29316476 0.2707838 0.017222432 0.17007929 -0.036197435 -0.67525935 -0.07469592 0.030986372 0.08125273 0.512542 0.38194442 0.14701617 1.0182571 -0.12026091 -0.6626225 -0.1562164 -0.32176152 0.9428124 0.2318183 0.45518222 0.20208773 -0.46642137 -0.058777425 -0.8246966 -0.003405642 0.06657908 0.28258702 0.3121534 -0.6830045 -0.11283999 0.11224038 0.24484321 0.0935402 -0.21806991 0.34880686 0.86362845 -0.06362764 0.46339735 -0.5200283 0.08095987 -0.74946576 0.5739476 0.79570687 -0.21435557 -0.29854813 0.68508744 0.2496521 -0.16831304 -1.1716735 -0.61779773 -0.2673265 0.019796021 0.4796556 0.43670392 -0.76296157 -0.16798173 1.6380278 0.538108 -1.3098719 -0.35074386 0.31401357
18 0.042941425 0.15938787 -0.3260721 -0.35654643 -0.28409305 -0.12164181 -0.32691363 0.37694177 -0.094543345 -0.04516498 0.007624377 0.23501053 0.4262416 0.17810158 0.0019018517 0.37815472 -0.16393627 0.05652242 0.4280412 -0.12666829 0.58529073 -0.08996986 -0.3288633 0.09928707 -0.011363339 -0.14365417 0.17946877 -0.12774076 -0.11559624 -0.56713974 -0.17594762 -0.28853375 -0.16490498 -0.17132878 0.33197337 -0.14319773 -0.19022445 0.04097199 0.2498036 0.35211715 -0.328203 0.07215327 0.12870646 -0.16138718 -0.24866387 0.561721 0.22171625 -0.056420024 -0.07442423 0.0166557 0.11613638 0.33996272 -0.038515028 0.03019668 0.03495059 0.38120034 0.1724815 -0.27858114 0.5137377 0.9871332 -0.057376914 -0.31026092 0.09986648 -0.14997588
55 -0.20649828 0.022552336 0.0018819859 -0.33426878 -0.11694573 0.22278076 -0.20087184 0.24086142 0.4602862 -0.6859293 -0.04886152 0.24087489 0.047190882 0.4012053 -0.5308977 1.1341091 0.09751188 -0.49785393 -0.010624083 -0.23572128 0.80509675 -0.13632667 0.8311984 -0.17177613 -0.49710658 0.24469057 -0.53464246 0.3203414 -0.09079673 -0.16274983 -0.3255764 -0.47458616 -0.04149527 0.36415213 0.52996093 -0.47470757 -0.942074 -0.018969523 0.57002395 0.024203919 0.4435494 -0.10485446 -0.24261273 0.058485117 0.21111526 0.5856487 -0.4841804 0.057732727 0.074818626 -0.051898643 -0.6507518 -0.90390503 -0.74148315 -0.6603288 -0.7475553 -0.018247606 0.35248208 -0.17565098 0.18350811 1.290814 0.696877 -0.9795852 -0.26166868 -0.7028263
66 -0.5804086 -0.27173907 0.79111934 -0.43323088 -0.61460793 -0.00436247 -0.4175117 -0.68871343 -0.7316175 -0.78009146 -0.25449997 0.51215154 -0.17870562 0.6477844 -0.082499176 0.7794001 -0.23475172 -0.39493987 0.15626748 -0.02488778 0.92914695 -0.097936146 0.26387012 0.13918902 -0.6580276 0.11751206 -0.5696322 0.25384283 -0.3913201 -0.057918653 0.4134388 -0.40113017 -0.26676238 0.19254856 -0.09727074 0.015199442 -0.5667705 0.6461982 -0.108165205 -0.044165123 -0.15697603 -0.14584924 0.33049083 -0.09785678 -0.007423601 0.49339935 -0.29548076 -0.1872018 0.18052346 0.017702952 -0.81402856 -0.7861064 -0.14723462 -0.7534745 -0.27587718 0.50449336 0.29016414 -0.66913784 -0.07887473 1.1548492 1.1808606 -0.96170676 -0.10420124 -0.06397468
67 0.10149088 -0.118150495 0.0054365173 -0.6849947 -0.24986762 0.068251714 -0.07242556 -0.09325561 -0.49783123 -0.1711035 0.037107855 0.15042512 0.508015 0.12501355 -0.3956242 1.031461 -0.11435507 -0.9252878 0.02511629 -0.5549113 0.8016053 0.28101042 0.43442512 -0.1489767 -0.25260758 0.39045808 -0.2852236 -0.37737274 0.2631835 -0.4642041 0.49979436 -0.5276416 0.30365667 0.09457451 -0.14176917 -0.5282622 -0.45718443 -0.3158505 0.20738009 0.36309415 0.13977952 -0.012216737 0.62257177 0.36858675 0.45140216 0.69346166 -0.032339204 -0.50358003 0.50700647 0.2223075 -0.33858126 -0.4620517 -0.504561 -1.1094656 -0.48655683 0.63150734 -0.027662551 -0.6269357 -0.4764917 0.6049857 0.9384571 -1.0652088 -0.09194187 -0.20090772
58 -0.35279077 0.28756493 0.40892953 -0.43108436 0.11636356 -0.15473415 -0.587301 -0.09128147 -0.5554249 0.10259387 -0.33103076 0.07112461 0.16185026 0.18660262 0.09497448 0.47864914 0.4510162 -0.6702233 0.5148149 0.15895075 0.9881948 -0.12323247 0.5124698 -0.08131522 -0.5706338 0.09799143 -0.63614446 -0.2730962 -0.081555344 0.28866407 0.39261737 -0.34764874 0.42651257 -0.051855206 0.05406526 0.19468108 -0.80221677 0.062797785 0.13053343 0.53613985 0.08999992 -0.13177195 0.36958942 0.33946148 0.67274016 0.6317816 0.18376032 -0.04410943 0.7852215 -0.16776548 -0.3748798 -0.3307352 -0.80363876 -0.38332966 -0.16985683 -0.13579881 0.25626814 0.44622707 -0.097379945 1.4644852 0.9430953 -1.3474382 -0.04619508 -0.1389718
34 -0.019626176 0.027830528 -0.5728224 0.26303822 -0.045338154 -0.11573444 0.037601933 0.24373367 -0.4241163 -0.34487045 0.26065418 -0.21139044 -0.17162941 0.3367991 -0.39883947 0.26617697 -0.3175207 -0.08912462 0.02118695 -0.10913743 0.23699203 0.22569588 0.06549581 0.20718567 -0.20549369 0.099343896 0.06405358 -0.29906246 0.19786689 -0.123283595 -0.26345763 -0.070762664 -0.2591823 -0.09164278 0.04498838 0.57222176 -0.6158944 0.2918434 -0.030075105 0.24199416 0.16897185 -0.21277276 0.38263485 0.04971171 -0.23835552 0.83787256 0.08671954 0.029449115 0.3114115 0.008387233 -0.466326 0.26278234 -0.3676746 -0.008353575 -0.10944595 0.3209647 0.01868708 -0.41139922 -0.099067345 0.7190609 0.23010889 -0.5921462 -0.33017874 -0.33803546
71 -0.49852997 -0.20729549 -0.21488184 -0.9581765 0.20521218 -0.007210357 0.2566766 0.24162896 -0.77530664 0.45429292 0.15652268 0.49490854 0.5642985 0.025281196 -0.067374475 0.30790114 -0.60951865 -0.1441564 0.38600373 0.3993873 0.8297644 -0.71403134 -0.06334734 0.66798246 -0.12057002 1.0388012 -0.012162249 -0.40379623 -0.44105884 0.54469854 -0.22442225 -0.8903894 0.13948992 0.21360229 0.11843089 0.550771 -0.446726 -0.3141777 -0.23825224 0.52089316 0.08588741 -0.15067975 0.6619479 0.19566602 0.26769894 0.13792983 -0.5200106 -0.3306897 -0.4265662 -0.12847744 -1.0489572 -0.7876475 -0.82719177 -1.1255099 -0.27391416 -0.49909136 -0.37255025 -0.53953403 -0.14435391 1.5630156 0.2348985 -0.73030317 -0.62007314 -0.2403374
59 0.4469491 0.2999356 0.028171914 -0.56473213 -0.2175586 -0.20811749 -0.14421624 0.3168819 -0.1433323 -0.35936323 -0.31520423 0.22931114 -0.047682103 0.081960686 0.515905 0.67869925 0.15767333 -0.7994211 0.6924527 -0.24985145 0.483706 0.3813918 0.5108421 -0.19642231 -0.46939778 0.26511124 0.16693924 0.08319001 0.09473949 0.32664567 0.4689234 -0.20167136 0.30527347 -0.2514379 -0.18117608 0.053825922 -0.56555194 0.2681174 0.092278376 -0.27896452 0.0029985553 -0.65100235 0.38561162 -0.4714908 0.62881184 0.53705376 -0.589419 0.2286369 -0.12926392 -0.112827964 -0.53730553 -0.7138671 -0.66045296 -1.1577652 -0.1688293 0.2770944 0.21390317 -0.9365054 0.008019817 1.3924289 0.779383 -0.78861386 0.003810941 -0.5760434
155 0.48678106 0.037380815 -0.3500895 0.1486753 -0.27996835 -0.013479237 -0.07877941 0.2613225 -0.11625586 -0.17596424 -0.11521574 0.20949419 -0.04665659 0.1844896 -0.18677211 -0.08237842 -0.38753924 -0.3452855 -0.20864677 0.10733789 0.58304447 0.36981067 -0.07765008 0.10520503 -0.46822938 0.57998353 -0.3660467 -0.20659065 -0.14546461 -0.3550181 -0.19929275 -0.009242349 -0.060144443 0.18742733 0.10433242 0.30463594 -0.650846 0.52465165 0.25823197 -0.12766749 0.1973689 0.040010475 0.43688133 0.0223477 -0.22348693 0.7192968 0.24896389 0.13019855 0.2521443 0.24332264 -0.33302557 0.22986558 -0.44067624 -0.14822367 -0.17992671 0.077470526 -0.55630237 -0.3633631 0.05478405 0.86847156 0.17586526 -0.39854294 -0.12919305 -0.021543281
151 0.10960142 -0.10118334 0.4073286 0.45955658 0.04527561 -0.027295649 -0.04086036 0.1433437 -0.10429297 0.25305882 0.27861485 0.3638734 -0.012377234 0.2428306 -0.28253412 -0.24155883 -0.15815894 -0.16937461 -0.31651184 -0.4565923 0.19620028 -0.16093375 -0.33744186 -0.24035788 0.11361283 -0.014515732 0.06578974 -0.2931137 0.010758052 0.04360916 -0.10362259 -0.47043368 -0.36754373 -0.12852152 0.3320704 -0.23778953 -0.6876638 -0.012308769 0.123466246 0.479733 -0.2458265 -0.12914813 -0.042853206 0.39522794 0.002018914 -0.2910207 -0.48940897 0.036586836 0.14770484 -0.06325797 0.31840557 0.2926751 -0.79424345 -0.2728739 0.1283537 -0.07634116 -0.07734178 -0.5788383 0.3725386 0.6740062 0.27806818 -0.07912077 0.09162194 -0.08075751
93 0.1359839 0.18134782 -0.022968864 0.73883474 0.26437703 -0.12800133 0.012058009 -0.06175493 -0.58201176 0.06709717 0.11503895 0.060317032 0.42235795 0.2085459 0.46706644 0.21220584 -0.734313 0.07534112 -0.308471 -0.48184407 0.12155926 -0.14078291 0.122944795 -0.118704446 -0.7978323 -0.12553823 0.42743632 -0.10474348 -0.48728967 0.3700399 -0.22454773 -0.9234549 0.79665977 -0.088495314 0.42690632 -0.4956375 -0.30071837 0.17293292 -0.04487132 -0.15915525 -0.12693794 0.103527345 0.3189079 0.7154039 -0.34428027 0.0066885897 -0.63512444 -0.47022274 0.62582326 0.45041144 -0.066103816 -0.23126948 -0.29629678 -0.19819021 0.14436339 0.21151121 0.40717533 -0.5816545 1.158181 0.5971185 0.2484511 -0.36379015 0.2474807 -0.27917746
167 -0.039878525 0.1762241 0.27215618 0.19457886 -0.16201065 0.2378323 -0.29088947 0.12347448 -0.37474987 -0.36581975 0.16267855 0.39024848 0.14976782 -0.32674652 -0.081892975 0.67328954 -0.05802319 -0.4079182 0.04750045 -0.80276984 0.55147874 0.094176546 0.54874426 0.65827405 -0.0324884 0.4769118 -0.014825443 0.115351416 -0.26029167 -0.22462879 -0.09462797 -0.098748565 0.018048545 -0.3597812 -0.093865365 0.35899636 -0.43502757 0.26037756 0.21178117 -0.047536764 -0.037137154 -0.25158063 0.11731235 -0.038593948 0.015525277 0.2394523 0.10839551 -0.14306629 0.37824622 0.13444825 0.39023498 -0.21233104 -0.17812742 -0.24694489 -0.2587566 0.042888425 -0.06704075 0.054660436 -0.06700883 1.0488875 0.54983497 -0.8327976 0.08452482 -0.1085717
70 -0.29465547 0.2986562 0.17257306 -0.76458263 -0.10529527 -0.4900377 -0.21812434 -0.089662075 0.13655497 -0.03517893 0.10529832 0.018469267 0.45267776 0.3571641 0.18249461 0.7450638 -0.1965414 -0.4730528 0.15487608 -0.24759805 1.3739855 0.30001712 0.6186544 -0.019880371 -0.26141086 0.4991662 0.04179731 0.06371507 -0.7308157 0.41057566 0.47369903 -0.43230242 -0.15297839 -0.057033915 0.525065 0.3169445 -0.21532549 -0.10905969 0.2286075 0.06990839 0.65002143 -0.12344552 0.64159584 0.23314835 -0.571479 0.54072464 -0.44632134 0.22564918 0.48741108 -0.031976987 -0.19613615 -0.74407256 -0.7189647 -0.49781033 -0.8253224 0.36245844 0.4072007 -0.61655134 -0.32827222 0.7568071 0.83367705 -0.6229711 -0.20503168 -0.15955572
108 -0.17720768 0.30099583 0.3087574 0.16209634 0.35841328 -0.07240218 -0.027646909 0.24501397 -0.027108965 -0.116696365 0.4333365 0.39804953 -0.05251671 0.24989676 -0.49138358 0.39065027 -0.4551914 -0.20069039 -0.83969045 -0.29022476 0.43590897 -0.18646334 -0.0057772254 -0.13230002 -0.180251 -0.4517084 0.2626522 0.043954406 -0.1478454 -0.53096175 -0.020812096 -0.051385928 -0.15542646 0.06314352 0.038920082 -0.092100635 -0.13263395 -0.24743402 -0.53211105 0.26568294 0.21147805 0.44262958 -0.42961395 0.096445255 0.04539288 0.19468604 -0.46211046 0.049073018 0.057112105 0.35504308 -0.22061247 -0.0435513 -0.5931695 -0.07108907 -0.07285307 -0.028298346 0.6071064 -0.48218477 1.2961528 0.19778608 0.49046105 -0.46502316 0.23497456 -0.2648642
22 0.08470759 0.10079859 -0.5002802 -0.09520915 0.14216608 0.21231914 0.00044642497 -0.0075860177 -0.014034837 -0.08824692 -0.07591565 0.08971803 0.16330527 -0.017449465 -0.09088166 -0.23915182 -0.078079924 0.26797968 -0.034470756 -0.14160463 0.38467824 -0.47525424 0.08210529 0.528502 -0.4153155 -0.2147206 0.36329928 -0.15976194 -0.18407078 -0.25091526 0.2531174 0.06493219 -0.33275884 -0.18123052 0.30231652 -0.26168525 -0.25490195 -0.104158014 0.4405103 0.28960025 -0.5225228 -0.25950232 0.0504668 0.21995506 0.015012546 0.42551792 0.07821517 0.090927504 0.10676734 0.38211474 0.040508147 -0.09801906 -0.3950716 0.066817686 -0.33074877 0.48169369 -0.17480467 -0.3988147 0.48480555 0.67020375 0.39013916 -0.27433184 0.43239754 -0.043956798
160 0.24083745 -0.15341564 -0.48604083 0.29307768 -0.37463403 0.068324104 -0.11598403 0.04494613 -0.2889147 -0.114980265 -0.08585717 -0.033935696 -0.09184395 0.090019196 -0.056960214 0.145696 -0.52123547 -0.5540857 0.06250258 -0.10735033 0.32085216 0.1264219 0.27227524 0.35608298 -0.5683643 0.006971241 0.011235307 -0.19297919 0.11019019 0.16405343 -0.56075937 -0.28894892 0.4107559 -0.105252944 0.20311558 0.23583072 -0.1172592 0.49427348 0.20568506 0.3320268 0.21810581 0.021861615 0.3215449 0.3162339 -0.4472015 0.49383694 -0.009825436 0.037046626 0.24678823 0.2562104 -0.3566779 0.28471124 -0.27519333 -0.07416786 -0.14278655 0.3197159 0.011219775 -0.48522702 0.2550124 0.69885796 0.2721626 -0.9169985 -0.18589965 -0.2765408
109 0.20078899 -0.08611226 0.12982471 0.0026271474 0.03514603 0.18170583 -0.18039152 0.029391505 0.026867185 -0.2307995 -0.15653649 -0.012912858 0.15129496 0.019960258 -0.18466626 -0.056686573 -0.3980948 -0.3212687 0.047811776 -0.054048337 0.5717149 -0.0128604425 -0.088131584 0.0744874 -0.09938255 -0.21162617 -0.022370992 -0.48867136 0.021141777 -0.33971733 -0.2098778 -0.022294411 -0.19316578 -0.20057346 -0.039672147 0.48701528 -0.35888675 -0.044141162 0.14881402 0.33123934 0.2680177 0.11736223 0.1493783 -0.33560118 -0.18107462 0.46587202 -0.3382971 -0.13551927 -0.03994293 0.47014385 -0.060341008 0.3240747 -0.20392177 -0.18838067 -0.42818916 0.3666202 0.16197014 -0.10575964 0.2743799 0.9225501 0.2630364 -0.5172967 -0.0704427 -0.31671545
169 0.3440538 0.17767893 0.12368492 0.24429385 -0.1477868 0.018338451 -0.16051951 0.25137204 -0.21764179 -0.108370416 0.51405424 -0.008918859 -0.043058243 0.003904237 -0.014582001 0.0017234018 -0.41289234 0.018205022 -0.16797371 0.28253448 0.26798669 -0.045515444 -0.58187306 0.01259228 -0.102787584 0.29134518 0.33868325 -0.12239958 -0.17486231 -0.28627434 -0.42797276 -0.22390963 0.10964216 -0.05048879 0.1847514 0.060591426 -0.28848028 -0.26087123 -0.2729468 0.24794896 0.12101273 0.09363967 -0.12777962 0.24669684 0.1916475 0.5057888 -0.15284394 0.02287678 0.035450798 -0.37367436 0.14144155 -0.16233617 -0.33748737 -0.14698446 -0.092084706 -0.13828672 0.079211086 -0.5258273 0.18612579 0.1241822 0.0784001 -0.83246183 0.14828727 -0.007884809
95 0.6525166 0.37364024 0.07706448 0.65426725 0.5293531 -0.46803916 0.16453731 0.34453985 -0.42724282 -0.4093719 0.19073553 -0.23553875 0.16586393 0.651221 1.0010822 0.084314175 -0.27762482 0.36957395 -0.11730422 -0.35840333 0.35292244 0.15610892 -0.26611686 -0.8073852 -0.8121975 0.14454557 0.6560335 -0.11728256 -0.66611093 0.0497788 0.10654797 -0.5404941 0.22532599 -0.0864996 0.16882436 -0.05649212 -0.9135455 0.51575726 -0.47842994 -0.75986063 -0.41506127 -0.4388456 -0.21947819 -0.33121586 0.040859833 -0.13094674 -1.0889767 -0.21341316 0.17529465 0.305572 -0.69253194 -0.8730672 -0.4739229 -0.6318059 0.2518974 0.0836145 0.49197212 -0.9968472 1.4043019 1.5695469 0.4348049 0.21964519 0.2661491 -0.31406048
45 0.3087013 -0.06953983 0.3956047 0.76749915 0.36314377 -0.62360615 -0.32113504 -0.055185527 -1.062447 0.020958135 -0.31120315 -0.09641777 0.5531253 0.56376356 -0.11450717 -0.18024315 0.3234635 0.051512044 0.24244091 -0.13046028 0.76315457 -0.12832241 -0.4838596 -0.96135277 -0.6309597 -0.023058752 0.29871753 -0.49400142 -0.01912718 -0.45066434 0.3855643 -0.18060988 0.7901706 0.057329398 -0.13254865 -0.110217735 -1.0610509 -0.29599467 -0.57527965 0.07729947 -0.75313455 0.18669029 0.3352018 0.77061427 0.36722416 0.20335385 -0.40528932 -0.9208406 0.6041243 0.35483256 0.011779717 -0.2065725 -0.6344491 -0.6951682 0.027740529 0.32232723 0.49453416 -0.113903105 0.523294 0.5829181 0.5535382 -0.23780176 0.35684925 0.06324234
79 -0.03673661 0.4950183 0.21469878 0.2450727 0.59705675 -0.7822998 -0.24760301 -0.09547735 -0.1957393 0.119061835 0.45787653 -0.35048243 0.59995687 0.6854421 0.6401464 0.0014412946 -0.29627147 0.5321649 -0.28466916 -0.32254893 1.166447 0.13242361 -0.08200281 -0.70919675 -0.5234791 0.471615 0.6637682 -0.29257712 -1.406457 0.12000476 0.27839768 -0.5986574 -0.021373905 -0.16573773 0.69677544 0.28615725 -0.7489541 -0.12565285 -0.54249865 -0.06756804 0.17649846 0.27777347 0.5168926 0.9081449 -0.9373977 -0.094244726 -0.6807837 -0.13856898 0.9757338 0.19961551 -0.20612712 -0.43215832 -0.6379354 -0.3233093 -0.5092569 -0.032902416 0.5195201 -0.33472273 0.9556227 0.8494417 0.56138813 0.20551538 0.26639873 -0.20499322
144 0.35794225 -0.26510862 -0.07286369 0.15507847 0.31114128 -0.087018535 0.15070078 -0.10258151 -0.199419 -0.26894754 0.3743806 0.23112833 -0.34542572 0.34104025 0.24191812 0.149499 -0.33270532 -0.07905367 -0.4141048 -0.4345378 0.19007647 -0.086173534 -0.44916153 -0.53341633 -0.42396146 -0.10359308 0.4424896 0.0034474395 -0.41974 -0.62214583 -0.1848393 -0.77131945 0.123337895 0.22353445 0.11730687 0.092864744 -0.56463856 -0.20659186 -0.516859 0.10355425 0.1934231 0.3353619 -0.7979864 0.8319628 -0.07689178 0.81666267 0.4648397 -0.31291252 0.21582668 0.25102302 0.07705708 -0.117909476 -0.2993295 -0.628912 -0.23743176 0.14364791 0.020595608 -0.545353 0.123057574 1.0402273 0.5624556 -0.5356694 0.47870508 -0.5559839
5 0.24338382 0.2561014 -0.4890056 0.07492768 -0.120683715 0.33104897 -0.32668957 -0.036633108 0.14843524 0.08067122 0.024560122 0.29727143 0.0902133 0.19292836 -0.21543945 0.15912583 -0.00078798586 -0.39437032 0.430015 -0.058368124 0.63673526 -0.41792417 0.15736292 0.15845832 -0.075364865 -0.068348005 -0.05141473 -0.7980112 -0.6164704 -0.27999768 0.014724116 -0.10650156 -0.29067525 -0.040633313 0.09586909 0.014747303 0.00078230153 0.05990192 -0.093197614 0.3601178 -0.31380475 -0.23775421 -0.23860566 0.012328052 -0.064576045 0.7086974 -0.017739115 -0.46549535 0.24581614 -0.2530062 0.20751329 -0.07690911 -0.039581288 -0.042480316 -0.09763246 0.38391468 -0.19901231 -0.5840797 0.60595816 0.80852777 -0.05974386 -0.030166205 -0.1643225 -0.324757
131 0.7154139 -0.130292 0.025435327 -0.5970152 0.07028332 0.001132024 -0.5795016 -0.55760294 -0.523692 -0.05245933 0.4597034 1.0161723 0.6511292 0.28600028 0.23223549 -0.33416155 -0.6296249 1.1188773 -0.50145215 -0.06524662 0.17079854 0.04006078 0.32175404 0.20973578 -0.3715356 0.42641827 0.8135025 -0.08635006 -0.79385346 -0.41422695 0.2677045 0.036202807 -0.70253474 -0.80050606 -0.23344101 0.614105 0.2061169 0.21943778 -0.21811752 0.29095903 -0.12354859 0.64913064 0.6773226 0.34298137 -0.50968134 -0.248995 -0.6575936 0.5443101 0.3044741 -0.029699014 -1.066146 -0.865152 -0.6167336 -1.5243471 -0.2402385 -0.26163977 0.6861949 -1.0484587 1.3938732 1.3259426 -0.32803312 0.4661443 0.28358814 -0.91933656
80 0.15732396 -0.439758 0.538678 0.6043735 0.3757279 -0.07350995 0.013009267 -0.81090534 -1.1704286 -0.13132396 0.46610588 0.12278493 0.5320595 0.8717291 0.3131372 0.04066428 -0.6785642 0.73373693 -0.68965036 -0.27809793 0.6142272 0.02533142 -0.57764083 -0.1479932 -0.6747872 0.11368396 -0.08706819 -0.030532341 -0.7953657 -0.304521 0.20409162 -0.55650246 -0.50651777 -0.078087665 0.2357236 0.11044634 -0.4469688 0.62902254 -0.28279525 -0.25908646 -0.385181 0.48446548 0.27650666 0.18746383 -0.29306728 -0.061591163 -0.46854892 -0.771836 0.6531647 0.37262043 -0.16623561 -0.7406899 0.1427039 -0.4400862 0.11912703 0.39922386 0.62197435 -1.0376405 1.0314735 0.98067486 0.3408085 -0.16271937 0.09991488 0.21455136
127 0.13132225 0.17202127 -0.18092139 -0.02372414 -0.1608527 0.4381685 -0.10735144 0.38958824 -0.6106274 -0.18598966 -0.3587234 0.14362246 0.062236674 -0.20809941 -0.16892286 0.3090268 -0.07496358 0.011071178 -0.49266517 -0.23879068 0.48038095 -0.25720802 -0.08520876 -0.16502799 0.027666377 -0.022739109 -0.1824705 -0.50665313 0.3270245 0.12798113 0.012959924 0.054300144 -0.075731695 -0.20668282 0.14761367 0.17956941 0.057645842 0.2563804 -0.35291314 -0.24980451 -0.034119222 0.5255343 -0.15008692 0.25253257 0.02800719 0.35974318 -0.48642898 0.35097992 0.18578102 -0.013008206 -0.2994897 0.36692172 -0.41881847 0.2258817 -0.82212317 0.38418072 0.23161317 -0.41412756 -0.12040874 1.0163876 0.10888881 -0.29588094 -0.119779296 0.016510002
110 0.35695186 0.013962669 -0.36153412 0.090171106 -0.3431269 0.36843023 -0.11677734 0.19067948 -0.39700377 0.30334488 0.020143583 -0.08981203 0.28335398 0.24287471 -0.02269506 0.092820674 0.2469165 -0.58446145 -0.24402297 -0.09976863 0.19132504 0.20190439 0.093431115 0.1874555 -0.6367144 -0.06429734 -0.120725356 0.13096231 0.045432977 -0.5395662 -0.09552801 -0.12504615 -0.46715692 -0.14090288 0.29154027 0.50688815 -0.086057246 0.12517932 0.011035201 0.4854305 -0.037327252 -0.19483112 -0.02520267 -0.22799401 -0.51343983 0.65084743 -0.46288195 0.050265364 0.37701142 0.07827833 -0.63556045 0.35633555 -0.38250476 -0.5768419 -0.52741724 0.002519325 0.17455325 -0.098319605 -0.096481256 0.7842986 0.37271714 -0.9016069 -0.15663955 0.14782944
158 0.07404362 0.31326196 0.083336145 0.4044839 -0.083145894 -0.44442955 -0.25036758 0.16756155 -0.19201647 0.21925175 0.12271832 0.36073464 -0.3505654 0.2957759 -0.19030993 -0.21566166 -0.15527007 -0.024976794 -0.10743146 -0.8388305 0.10260153 -0.70839065 -0.5917732 -0.113879174 -0.32852277 0.13131328 0.5629571 -0.5947224 -0.27787754 0.49472806 0.06153665 -0.15270638 -0.65209854 0.5490955 0.02014779 -0.57892823 -0.6525459 -0.06552539 0.4015915 0.31015044 -0.16821878 -0.32098177 0.3901949 0.12827677 0.32690987 -0.07512766 0.06728361 -0.064875685 0.40272012 0.47403097 0.071861915 0.16794051 -0.11351299 -0.4927183 -0.5622527 -0.15442526 0.591101 -0.32165474 0.4528906 0.62512636 -0.1875631 -0.508345 -0.2329297 0.098099984
161 0.29373062 -0.040318813 -0.04440003 0.14119782 -0.14386594 -0.046445344 0.16224948 0.081219606 0.09606102 0.04582032 -0.18842952 -0.45869687 0.120474555 0.14753374 -0.32072398 0.20938575 -0.2064562 -0.54502386 -0.19875725 -0.24134909 0.7247531 0.16312477 -0.05836838 0.016883692 -0.5777664 0.042575307 -0.09020591 0.054538235 0.31074134 -0.1570547 -0.12449516 0.07406342 -0.34899804 -0.29200903 -0.11180061 0.52811193 -0.057918105 0.63262814 0.14714791 0.14723562 -0.53910416 0.32153487 0.15231541 0.2898593 -0.14393757 0.75022566 0.17957652 -0.22968695 -0.2412181 0.13959233 -0.07182721 -0.18540752 -0.72612125 -0.18194279 -0.411072 0.027533494 0.42669445 -0.21104817 0.0029485426 0.86729854 0.45547208 -0.84121853 -0.46984747 -0.3115218
92 -0.34911332 0.49440563 -0.2634077 0.20315032 0.44985276 0.07962689 0.007644831 0.027412685 -0.6833623 -0.49528387 0.9396944 0.15887111 0.13956338 0.3376827 -0.1952347 0.3357714 -0.47896695 0.84361374 -0.4686612 0.11378663 -0.31864497 0.24754228 0.1579246 0.20145486 -0.38072875 -0.15287536 0.44138196 -0.7960543 0.12749107 0.2855331 0.05276975 -0.19075295 -0.6130657 -0.40210655 -0.14665355 -0.23898202 -1.2056365 -0.44192556 -0.20315345 0.21539064 -0.24762976 -0.34519082 -0.0006853601 0.20010424 -0.03745176 0.5386625 0.24342479 -0.30252403 0.48221716 -0.34352607 -0.028098024 0.37745225 -0.49676472 -0.07712194 0.06526476 -0.088785686 0.71258277 -0.6012975 0.07468359 0.4690026 0.31898654 -0.16552803 0.1769498 -0.60339636
62 0.5384692 -0.07321316 -0.091750346 -0.06000189 -0.5293409 0.29506105 0.08186119 0.7128465 -0.35713634 -0.22693475 0.4374689 -0.40121415 -1.1438899 -0.00778796 -0.47236437 0.917962 -0.37170568 -0.8792443 -0.055827063 0.43258503 0.2924444 -0.39899015 0.16044813 0.48303667 -0.61034954 0.15995717 0.46608737 0.045073435 -0.5866623 -0.12477542 -0.0389482 -0.36603278 -0.3646192 -0.2198676 0.39150283 0.17492077 -0.7281017 -0.09338576 -0.06959497 0.26727962 0.1237533 0.061142426 0.5770021 0.23471825 -0.018157773 -0.006523869 0.07234196 -0.22959188 0.34575912 0.08717336 0.29171452 -0.5918252 -0.13022485 -0.36770713 0.36008424 -0.13757174 -0.08523848 -0.038883287 -0.11780888 0.82109094 0.04806263 -0.25802597 -0.1390895 0.4718371
30 0.091808125 0.21001257 -0.1454882 -0.14677528 -0.07377782 0.47325915 -0.21428582 0.16556293 0.036998726 -0.026470805 -0.011555255 0.5184161 0.36326054 0.11455464 -0.4040402 -0.20893049 0.043497372 -0.15894043 0.2865866 -0.2003821 0.08286526 0.07124244 -0.4373508 0.063702926 -0.48229364 -0.054585893 0.2825018 -0.10314748 -0.37044716 0.3191058 -0.18553418 0.15608811 -0.60135 -0.6387082 0.25116944 -0.1968749 -0.80408454 -0.34802637 0.2728263 -0.22466914 -0.18292898 -0.051317733 0.022036845 0.19550022 -0.21428679 0.21321689 0.009993319 -0.3719897 0.37905198 0.51907295 0.15150341 0.19579898 -0.26293036 0.22491978 -0.42330554 0.028007116 0.3680898 -0.92146915 0.9582327 0.5529808 0.25504696 -0.20598519 0.12987323 -0.16035631
154 0.2567619 0.30290553 0.033176668 0.1114107 -0.00917781 0.35220742 0.11982026 0.17507641 -0.0009891462 0.085309885 0.24032791 0.4898305 0.42366716 0.14944282 -0.28719658 0.2302574 -0.37143123 -0.20505594 0.15689324 -0.030806819 0.56004417 -0.32841712 -0.028793614 -0.045136515 -0.4525975 0.00835302 0.15867469 0.22848397 -0.49021676 0.18315905 0.15513702 -0.23591353 0.046615142 -0.34277382 -0.16995619 0.08314226 -0.41338122 0.016498301 0.18969476 0.31070796 -0.16824685 -0.1771735 -0.18391386 -0.09279614 -0.08544549 0.48499036 0.2406754 -0.11755888 0.2475948 -0.28507003 -0.00070207246 -0.04002964 0.05247274 -0.30533978 -0.23253246 0.7228991 -0.12311602 -0.0695578 -0.106855415 0.849754 0.14080323 -0.4528617 0.07086933 -0.3590977
36 0.18470569 0.3043858 0.11213468 -0.07993367 0.23123582 -0.33049223 0.31341594 -0.069979206 -0.048725218 0.008756094 0.53590274 0.49445227 -0.25102282 0.42552257 -0.9092429 -0.47381005 0.16804452 0.020850696 0.21653427 -0.63563114 0.01809831 -0.4639075 -0.43801022 0.013922663 -0.40346146 0.3863567 0.065388724 -0.75897986 0.3672074 0.35296774 0.23475127 -0.5011907 -0.22966854 -0.16297825 0.46902093 -0.6614722 -0.5384855 0.116188906 -0.122344635 0.15315706 -0.15971853 -0.21198589 0.20039427 0.22565679 -0.49370798 0.28287506 -0.39908737 -0.1958513 0.1662109 0.4792366 0.25164768 -0.06427644 -0.29032296 -0.3873738 -0.0465041 -0.21472602 0.33733073 -0.012991339 0.63992685 0.8897046 -0.058573663 -0.37447682 0.3452852 0.3001205
136 1.607482 -0.31270415 0.2574652 -0.9615616 0.12662226 0.03127051 -1.0804495 -0.8642731 -0.41551477 0.37437987 0.7405625 1.2179381 0.34810564 0.042767595 -0.42502895 -0.9874094 -0.30196977 0.3226658 -0.63482076 0.015927808 0.37982982 0.9188908 1.0824771 0.29734474 -0.86110926 -0.763605 0.22908491 -0.23748024 -0.2910425 0.07790859 0.08566264 0.9308095 -0.91260004 -1.4009494 -0.13531893 0.530554 0.108830005 -0.0538833 0.6454004 0.73917854 0.19975522 1.2018192 0.3401981 0.65944636 0.05609052 0.9140099 0.4609452 0.8441871 0.8982497 -0.93411684 0.23090371 -0.34292614 -1.1595614 -1.2114822 -0.6415867 0.044417232 1.7115262 -0.7786122 1.4946481 2.0183032 -1.0053465 -1.1331828 0.8364905 -1.0528558
117 0.039881717 -0.2168726 -0.15678805 0.018768426 -0.3035343 0.1137312 0.19422527 0.008224811 -0.025718007 0.087832145 -0.2029315 -0.057549313 0.25201005 0.06704018 -0.31004483 0.5290232 -0.14463733 -0.10201848 -0.3745709 -0.0019931803 0.26795125 0.18746667 -0.35359022 0.16081987 -0.08844774 -0.18498223 0.1790129 -0.38014993 -0.18056999 -0.17359786 0.3106274 0.21332009 0.35753223 0.23644842 -0.19851789 0.29308385 -0.076881096 0.17841771 -0.07860463 0.2902268 -0.25865617 0.45386866 -0.09730415 -0.16642286 -0.19236138 0.35675824 -0.6604389 -0.014989279 0.4818357 -0.10749484 -0.2586365 0.23250236 -0.4342585 0.3110315 -0.40134802 -0.31793138 0.044484477 -0.5537525 -0.05339031 0.9779606 -0.20415571 -0.6089318 0.32753158 -0.48967767
116 0.48045748 -0.1154187 0.123648115 0.31216502 0.21680477 -1.0900044 0.67952687 0.09763443 -0.48026475 -0.20258103 0.14577913 -0.010264716 -0.6328151 0.19553405 0.954509 -0.028999355 -0.43089882 -0.8910886 0.1011901 -0.006706663 0.57572526 0.5824565 -0.33418432 -0.6353369 -0.44450152 -0.20485446 0.5063536 0.112691425 -0.14784232 -0.15012339 -0.07401398 -0.49162933 0.3844253 0.3605563 0.52906036 0.18141805 -0.32578957 -0.23132935 -0.10274063 -0.65903634 0.27384746 -0.4879913 -1.4328357 -0.017289208 0.09835643 1.0318774 0.053091384 -0.25560027 0.010674107 0.29119325 0.34602755 -0.6831875 -0.6490478 -0.024063172 -0.26681483 0.596735 0.6493336 -1.4590302 -0.39239347 1.5588902 0.509324 -0.5361805 0.6652554 0.25284985
76 0.08277936 -0.25025442 0.09520849 0.031028315 -0.11182858 -0.27147335 -0.0502237 -0.23866588 0.011777818 0.2145893 0.47470397 0.08480263 0.11291333 0.01824279 -0.22846177 -0.06446024 -0.37537897 -0.2966196 0.13420805 -0.82876366 0.11784501 -0.56924945 -0.01461771 -0.54759204 -0.3866202 0.46818236 0.11984747 -0.6271619 0.1345329 -0.08350819 -0.5373456 0.12498728 -0.60361713 0.017609142 0.15588498 -0.85197574 -1.320688 -0.10963031 0.4130193 0.39601937 -0.3373026 -0.050328128 -0.1367446 0.5604342 -0.09878871 0.2958555 -0.53706664 0.07964124 0.45150793 0.021366501 -0.1945803 -0.13964322 -0.0029251848 -0.07820284 -0.034598965 0.16110405 0.461389 -0.23336908 0.6495889 0.635286 -0.056300726 -0.090012416 0.325393 0.19048303
14 -0.13481124 -0.47265938 0.07698214 -0.15290214 0.12455918 0.06498886 -0.14632268 0.19596693 -0.13568272 0.17761646 0.21546257 -0.0027602145 0.22204873 -0.46587685 -0.25629497 -0.13858797 -0.29487953 0.31505433 0.12797488 -0.33309394 -0.026578832 -0.20342524 -0.11491708 0.045002155 -0.2675532 -0.026265966 0.05360236 -0.03468309 -0.1620754 -0.045604307 0.1048474 0.24437922 -0.20757066 0.12437767 0.06787231 -0.3671407 -0.25954083 0.23928872 -0.2969512 0.106635116 0.14023949 -0.5805397 0.1816604 0.15119807 0.1092188 0.29078948 -0.09056436 -0.28350872 0.27427158 -0.12859066 0.036394242 -0.13684665 -0.81793153 -0.039741416 -0.42856434 0.3301321 -0.31221014 -0.16957918 0.46607614 0.7100489 0.38095224 -0.7007462 0.004302452 0.13344412
134 1.3480757 -0.11681218 0.28875393 -0.34104472 0.6731305 -0.16436054 -0.17124976 -0.4903908 -0.84405696 0.5015136 0.89399904 0.4659525 0.92840105 0.1874708 -0.2553788 -0.3679757 -0.4573742 -0.23139627 -1.1881357 -0.28305492 0.8388909 1.1458211 0.657529 0.21416615 -0.7310706 -0.844519 -0.39870015 -0.41844428 -0.11875043 0.22106001 0.07507807 0.28350508 -0.78212327 -0.67153454 0.37196136 0.18025288 0.1798964 -0.1921414 1.24854 0.31551972 0.43103892 0.5546386 -0.22241345 -0.14588535 0.03635764 0.9696416 0.4607577 0.08598996 1.4483153 -0.29990503 0.9438461 -0.63538903 -1.0320996 0.20535532 -0.31390846 0.5369063 1.5599997 -0.93246585 0.88419193 1.5131737 -0.9243094 -1.2042786 0.5126439 0.3228934
130 0.17996238 0.7297631 -0.24909635 0.16819549 0.4727019 -0.16848475 -0.165157 -0.47915718 -0.5606297 -0.09275042 0.10080858 -0.55979615 0.4342726 0.19532843 0.05432285 0.5448373 -0.40453458 -0.19179972 -0.58052826 -0.32264942 0.77819043 0.76086515 -0.30675283 -0.5712366 -1.2290298 -0.21988307 0.42435017 -0.3155576 -0.25690576 -0.00057774346 0.20371899 -0.76478255 -0.45631462 -0.59006405 -0.19989999 -0.22704582 -0.3329814 0.4885335 -0.40226525 -0.038925245 -1.0927559 0.5001052 0.30561706 0.6710453 0.7172035 0.013924019 0.2325983 -0.90189177 0.18399282 0.26173893 -0.09158906 -0.58346933 -0.91350216 0.093816444 0.09609011 -0.5586327 0.7043368 -0.17390376 0.86464983 0.6642204 0.9869142 -0.06633174 0.33815753 -0.38127583
39 0.038697157 -0.29302096 0.1643289 -0.31559137 -0.46495962 0.42899334 -0.11949534 0.3816329 -0.182704 -0.20802811 -0.33410972 0.6737742 0.19975285 0.36761513 0.21349518 0.34397092 -0.2612797 0.05344027 -0.20868577 -0.5964887 0.26250324 -0.16190833 0.43778455 -0.2855153 -0.18851773 0.008174468 0.25977308 -0.20217219 0.02007231 -0.073289566 0.07745886 0.13005671 -0.1859858 0.035894908 0.27265975 0.38922283 -0.22801861 0.010101209 0.16758052 -0.4647457 -0.045028426 -0.30830693 0.1718864 0.30118883 -0.12522459 0.36560723 -0.16741027 -0.34796458 0.1400547 0.20753947 -0.21165888 0.030383414 -0.7687649 0.18762884 -0.055042636 0.17945245 0.035848122 0.16775799 -0.3711284 0.9062169 0.20206593 -0.992664 -0.076913975 -0.11981285
113 -0.31727552 0.13926539 0.34570324 -0.16968508 -0.119758286 -1.4029162 -0.035775285 -0.40741876 -0.14995085 -0.015266359 0.15355526 0.048621275 -0.75427103 0.22369894 0.6831659 -0.2813697 -0.33308536 -0.64083713 0.30323163 0.2300495 1.0805033 0.41838494 -0.13043836 -0.55181277 -0.46281058 0.13414432 0.7511173 0.09630376 -0.91786826 -0.069233626 0.13822412 -0.33603808 0.122010276 0.12085299 0.6914995 0.5417825 -0.29579297 -0.47713003 -0.5535434 -0.11435185 0.4078071 0.17553641 -0.6195866 1.2497659 -0.7860315 0.91294587 0.23908082 0.16092211 0.32715893 -0.11693319 0.30369934 -0.12165328 -0.7850258 -0.14130127 -0.9697973 0.2562416 0.600787 -0.7939632 -0.513409 0.9949017 0.861205 -0.3423321 0.8068425 -0.1426831
125 0.3999151 -0.04016489 -0.46673962 -0.07435308 -0.3340932 0.2528537 0.1359832 -0.08677062 -0.59101605 0.06368738 -0.12059005 0.32480815 -0.13819309 -0.21392564 0.28149998 0.15224446 0.049062517 -0.1811527 -0.28249332 -0.056964044 0.40303665 -0.38277072 -0.12637673 -0.12061589 0.37963566 -0.19516997 0.24181376 0.026764307 0.22621574 -0.14866395 0.23856746 -0.14309241 0.15918334 0.20528463 -0.2580369 0.20488645 -0.43495753 0.1808264 0.07597287 0.16732277 -0.007900208 0.8805374 -0.067858934 -0.6218897 -0.76623166 0.6786187 -0.16611373 -0.35499364 0.35794395 -0.15428756 -0.1954709 0.060380265 -0.90992105 0.34283838 -0.5732126 0.05382455 0.12593122 -0.2917903 0.35166803 0.5796997 0.4658449 -0.3773013 -0.3229511 -0.510141
44 -0.032272134 -0.10711084 0.3471089 0.43508002 -0.028334452 -0.29777625 0.4748099 0.12314762 -0.47264174 0.5287923 0.02595189 0.2251934 -0.11402771 -0.49045214 -0.27855945 -0.061116364 -0.032698125 0.19155812 0.023937734 0.12484063 0.3871183 0.092298344 0.21744631 0.021791667 -0.21877177 -0.39593986 0.22696598 -0.35789958 0.135925 -0.0958415 -0.14474402 -0.37541068 -0.30837727 -0.026961666 -0.15380776 -0.30407277 -0.29107416 -0.7738329 0.1398542 -0.37984908 -0.14307092 -0.014752877 0.12812757 0.2903501 -0.36878115 0.024265483 -0.027442304 -0.2115986 -0.10383176 -0.473273 -0.18670025 -0.020003693 -0.20808952 -0.26100755 -0.44455543 -0.23865941 -0.08860402 -0.56202626 0.2459037 0.7916561 0.03584315 -0.41434085 0.09185624 0.12107988
132 0.7214892 1.0020854 0.38689703 -0.6420341 0.5174699 -0.73785996 -0.86671895 -0.04549128 -0.1689417 0.2255193 0.5729596 0.05459882 0.3723285 -0.0009678192 0.24596474 -0.5413581 0.1836126 -0.34117067 -0.43916962 -0.051368617 1.1775328 1.055621 0.93661183 -0.29237425 -0.90468156 -0.62573546 0.27113482 -0.46571603 -0.72086596 0.5899046 0.26699576 0.49491054 -0.22645152 -0.72177577 0.29178602 0.37772134 -0.3892691 -0.32959425 0.36554334 0.62901914 0.2539079 0.29070422 0.21170275 0.55194074 -0.42793489 0.66892993 0.04295652 0.81665397 1.351789 -0.7164819 0.41979042 -0.0925923 -1.4527028 -0.025135675 -0.67379916 -0.059178695 1.1883403 -0.047222216 1.1314898 1.302719 -0.27267465 -0.69294757 0.7323035 -0.31781852
37 0.37172183 0.37702346 0.0038827253 0.104900755 0.7557645 0.17028593 -0.6492116 -0.6278127 -1.1330291 -0.40486062 0.068712525 -0.117691025 0.40999654 0.017176235 0.52425444 0.29462144 -0.35129967 -0.12234491 -0.27946123 0.11188531 0.537252 0.7096684 -0.084207825 -0.55263823 -0.7523826 -0.671024 0.23691045 -0.8956357 -0.43433824 -0.281418 0.17938575 -0.7597525 0.08024473 -0.40465975 -0.11971264 -0.17885298 -0.62736535 -0.09919231 -0.58136547 0.45190609 0.3292076 -0.06633271 0.44529647 -0.13852295 0.48516527 -0.24314106 -0.39423826 -0.5650566 0.9809088 0.7781546 -0.15558441 -0.0039619785 -0.35195896 -0.24366406 0.018827736 0.01187574 0.4779877 -0.28233105 0.8540743 0.86541116 0.9186934 -0.123152204 0.88158673 0.107017875
19 -0.36242884 -0.16102384 0.1370009 -0.3734459 0.1032694 -0.20600992 -0.12346429 0.65753615 -0.055684056 0.22708341 -0.04191956 0.29706728 -0.07957221 0.08358423 -0.545195 -0.32575083 -0.67018855 0.13048074 -0.3215256 -0.39525923 -0.011048828 0.13715184 0.44528973 -0.051581986 -0.6214233 0.34120792 0.5007637 -0.59210134 -0.2285226 -0.04694979 0.14523962 -0.5239684 -0.19747333 0.026394544 -0.07870806 -0.15814716 -0.26615185 0.37467423 0.010802956 0.061510395 -0.30660945 0.109861456 -0.32218745 -0.22103871 0.19081974 0.15081114 -0.47285187 -0.47247657 0.10667539 -0.30540192 0.06843278 0.43593267 -0.43939772 -0.31416938 -0.3994719 0.56054133 0.14112899 -0.0048631085 0.4157628 0.51618236 0.22606175 -0.56770486 -0.11651425 0.26966694
149 0.036160987 0.28241614 -0.032024466 -0.15361157 0.37972802 0.087158754 0.24366364 -0.124096155 -0.39570016 -0.28690037 0.19248542 0.2824082 0.20814931 -0.22569036 -0.25835967 0.38146234 0.044742502 -0.22909465 0.36956993 -0.108236074 0.088275604 -0.05916945 -0.15622793 0.17262383 -0.44187626 0.22644036 -0.048915394 -0.61338806 0.1576038 0.10952888 0.23121442 -0.010401134 -0.2845981 -0.0029239876 0.90126354 -0.29203933 -0.2819937 0.37424457 -0.4300728 -0.15041552 0.26326916 0.009746066 -0.17762695 0.17121224 -0.5845816 0.3659617 0.045461435 -0.21084881 -0.3252354 -0.29966444 0.14332807 -0.27783236 -0.42286336 -0.3609693 0.078001946 0.0950358 -0.3023858 0.089508265 0.07745089 0.6530254 -0.0550431 -0.7558265 0.38005084 -0.07324085
114 -0.095890656 -0.79381406 0.7487811 0.15567532 -0.4147093 -0.66836315 0.008928944 -1.1034093 -1.0713193 -0.45482093 0.05425271 0.6750735 -0.904812 0.494425 0.47514948 -0.35719603 -0.60333693 -0.28182197 0.10187385 0.39300385 0.47085345 0.19561833 -0.5472866 -0.073942535 -0.6261904 -0.17283373 0.17638452 0.2833903 -0.43575484 -0.46283886 0.08540157 -0.24402665 -0.2896787 0.18912807 0.21685804 0.44176945 -0.15705185 0.2548035 -0.55551875 -0.3174696 -0.165158 0.27377075 -0.8686909 0.5448223 -0.22245428 0.81494474 0.29704174 -0.23759362 -0.06393158 -0.03546903 0.08596538 -0.38720563 0.02567917 -0.42726508 -0.32329148 0.61912864 0.6882255 -1.3748747 -0.3129355 1.2402136 0.6625988 -0.64981043 0.7582165 0.11939634
124 -0.046923336 -0.09862873 0.17482634 0.16097629 0.115613684 -0.2832491 0.08649431 0.08708306 -0.40467414 0.06405506 -0.23663586 0.16359527 -0.1061868 0.092097715 0.22727273 0.4521676 0.015082018 -0.037373714 -0.16513973 0.085123405 -0.0725248 -0.119921654 -0.11217069 0.060395557 -0.30877843 0.30875322 0.00741182 -0.5229183 -0.41492358 -0.058572035 -0.6678022 0.234003 -0.486529 -0.435183 0.56056327 -0.5015013 -0.19914761 -0.23155703 -0.10244159 0.27596098 -0.15202075 -0.0017926417 -0.17559093 0.13658512 -0.17291722 0.5673255 0.09488729 -0.21974103 -0.019563535 0.033031054 0.16337274 -0.19844851 -0.81499445 -0.33676022 0.08842023 0.47303176 -0.34948415 -0.16414163 0.15801689 0.35217988 -0.124886155 -0.324277 0.5285511 -0.2770671
41 0.008164197 0.040432367 0.021697357 -0.09057264 0.054180842 -0.0027746663 0.20718533 0.32853684 -0.36385754 0.1694731 0.07333517 0.3879159 -0.36141458 -0.091012746 0.26986557 -0.0051480127 -0.27241263 0.15719935 -0.17557183 0.22228098 0.108989485 0.18549363 -0.25393423 0.30273443 0.06418227 0.1930899 0.18554635 -0.4517112 0.03558661 -0.29494277 -0.15910995 -0.17741583 0.105796695 0.3364769 0.33964896 -0.11253797 -0.49860257 0.026815457 -0.04554011 0.3320113 -0.2984887 0.09234763 0.111041814 0.40937552 0.07470117 0.64704394 -0.3008134 0.024421262 0.037184387 -0.13567942 0.20419309 -0.003102265 -0.4590446 -0.10788216 -0.413201 -0.27993464 0.053176533 -0.75006795 0.06289654 0.25828195 0.106450796 -0.24943696 0.26085636 0.27583683
6 0.018001398 0.27522743 -0.07798114 0.0867282 0.38803494 -0.06253307 -0.17855166 0.03718506 -0.28054553 -0.09326829 0.021502575 0.17094196 0.35606363 0.34471208 -0.12615225 0.0772069 -0.14799264 -0.5268841 0.21758515 0.026786244 0.18302567 -0.3218672 -0.05526152 0.42104065 0.17884366 -0.27217185 0.64854014 -0.5835019 -0.4337091 -0.22843666 -0.0101913 0.005905802 -0.32429463 -0.2747192 0.44307148 -0.07335383 -0.3639817 0.18096517 0.66197205 -0.04188462 -0.3400299 0.34617546 -0.12596433 0.029056223 -0.012750164 0.58955526 -0.13861947 0.040728092 -0.13473505 -0.07062014 -0.15289424 -0.043754008 -0.11029734 -0.11835443 -0.17507671 0.39046758 -0.6428394 -0.15710619 0.24430855 0.58902633 0.2163168 -0.47047737 0.15306953 -0.12552574
10 1.3185538 -0.20133345 0.3013275 -0.78228545 0.1956723 0.12850742 -0.15902919 0.11699765 -0.5717658 0.2181409 -0.052357167 -0.54290056 0.6426938 1.1237428 0.106016256 0.016755521 0.6950521 0.028982915 0.6875316 0.19008014 0.93480897 -0.11417287 0.7418954 0.18455611 0.5927089 -0.02596199 -0.10329247 -0.21832636 -0.48535547 -0.036014047 -0.48431203 0.6968741 0.19274966 0.45777783 0.21904041 0.8365218 -0.8876093 0.06618376 -0.10392991 0.57672036 -0.14956906 0.31845936 -0.11205108 0.84992135 -0.7498923 0.20651881 0.43596923 -0.28001717 0.47330713 0.29174593 0.24718006 -1.0281034 -0.3203946 -1.2786992 -0.4754888 0.8087588 0.5715966 -1.1486791 0.4140225 1.72633 -0.010483238 -1.2091619 0.025175864 -0.1291617
85 0.7319769 0.22779684 0.3037644 -0.4379503 0.3594309 0.014282308 -0.433388 -0.22143875 -0.4476772 -0.37609312 0.13022009 1.1262047 -0.22172733 1.1346118 0.56009537 0.29495415 -0.14367849 0.19367424 -0.6935297 -0.087640814 0.22636677 0.08799802 0.07599246 -0.6957022 -0.88554627 -0.44325393 0.3421981 -0.84531087 0.19867009 -0.65399903 -0.015075687 -0.3263356 -0.45343274 -0.2528708 -0.20355415 0.1577425 -0.047334332 -0.45901182 -0.0124848345 -0.08605151 -0.33101594 -0.16941105 0.61250454 0.9561593 0.20619595 -0.13998555 -0.058505505 -0.64433914 1.040431 -0.030863358 -0.2644481 -0.019836763 -0.59940577 0.6552387 0.46319938 -0.15353166 0.31459635 -0.13362104 0.66229266 0.55520433 0.54321814 -0.88327193 0.5692261 -0.27638027
17 0.40440485 0.24508171 -0.046889037 0.26750806 -0.0066931355 0.22225179 0.5179797 0.15865052 -0.4170024 0.23530371 0.37919632 0.89648587 0.22168346 -0.0054772464 -0.18015717 0.53244627 -0.51453656 -0.86332935 -0.025189273 0.75961727 0.8183865 -0.24003369 0.05530854 -0.13656798 0.6266966 0.041658863 0.5161846 0.22314121 -0.30831206 -0.10743029 0.12409066 -0.2963246 -0.47403803 -0.06863596 0.13773589 -0.23028207 0.05121372 0.48885292 0.030766997 0.24802138 -0.61185205 -0.74949616 0.31344733 0.13498911 -0.02992977 1.0016558 -0.09226431 -0.247442 0.40555242 -0.013048243 0.1428303 0.20734239 0.35058463 -0.17666142 -0.41912413 0.08900418 0.095687486 0.31086496 0.41844666 0.75663644 0.17416012 -0.13325028 0.21413043 -0.77009654
42 0.3779533 0.52581024 0.2578462 0.07307145 0.004514948 -0.31130707 -0.14087726 -0.40721264 -0.23974903 0.10006928 0.08130935 0.27377543 0.08624288 -0.22625634 -0.25213423 0.42759737 -0.616624 0.21196045 0.07492607 0.35111988 0.25797743 -0.3212705 0.2898881 -0.08260073 0.15005797 0.17996068 -0.055645447 0.38165554 0.0702543 0.09395579 -0.075255275 -0.5316835 -0.06846533 -0.038213618 -0.082493775 0.25362352 -0.39675525 -0.62716997 -0.057762194 -0.054266967 -0.63767624 0.24648261 -0.33704972 -0.11133506 -0.07048295 0.1871479 -0.32857078 -0.14998837 0.18156381 0.20602734 -0.12710026 0.39590558 -0.7629057 -0.1803419 -0.2981302 -0.16792779 -0.20338543 -0.7099246 -0.12255264 0.51382023 -0.26796082 -0.7430923 0.06572033 0.01026047
4 -0.07687217 -0.08984898 0.40506443 -0.19205682 -0.013062046 -0.03443969 -0.32291153 0.29608244 -0.049368262 -0.047343522 0.2562636 0.21952221 0.2654978 0.23666419 -0.43297443 -0.06916633 -0.14671104 -0.14847818 0.02127105 -0.54733294 -0.007491172 -0.22906601 -0.35742685 0.052168623 -0.05669467 -0.25688145 0.29671496 -0.43335578 -0.3570273 0.3081774 -0.24456853 -0.19446893 -0.21302627 -0.21510829 0.056344416 -0.62101275 -0.33797604 0.18062752 0.28280154 -0.18348558 -0.2569354 -0.07775294 -0.016682688 0.07595839 -0.03319537 0.5522025 -0.0134612005 -0.16821288 0.53019 0.13613853 -0.2056778 0.117023185 -0.48632866 -0.23644297 -0.32997122 -0.08542385 -0.07292504 -0.24146827 0.50765544 0.63837016 0.09464212 -0.12992886 0.05460202 0.06238496
101 0.09274903 -0.35754094 0.25728893 0.03540488 -0.31051707 0.13301784 0.18127216 0.26773402 -0.40088132 -0.27718326 -0.46838638 0.086331494 0.079036795 0.38045052 -0.4451295 0.28028414 -0.4986329 0.03313365 -0.86190766 -0.6832342 0.07770497 0.051607333 0.21223097 0.18000022 -0.48047358 0.54581636 0.68895143 -0.19264574 0.1412207 0.3902673 0.36332217 0.0070176274 0.121150754 0.20197582 -0.02412644 0.4631734 0.002425771 -0.30942485 -0.10289224 -0.039581925 0.47107965 0.48793468 -0.13995901 -0.15318128 0.38240868 0.71137536 -0.096476294 -0.15319428 0.13931584 -0.82789284 -0.17291787 0.8156773 -0.8152058 0.025467252 -0.24698955 -0.13776799 0.085300125 -0.2871222 1.3427957 0.5596313 0.52393544 -0.15051174 0.44525492 0.6599763
143 0.38637865 0.5689025 -0.03332166 0.1806182 -0.3190568 0.14669745 -0.1819508 0.025687834 -0.039545905 0.43407074 0.33854556 0.6457277 0.18939203 0.09922702 -0.16872719 0.48028487 -0.642414 -0.17365246 0.23463112 -0.15601903 0.5329131 -0.14802302 0.3125579 0.33927232 0.030983135 -0.3728546 -0.18794954 0.02934913 -0.38609853 0.005441733 -0.14792502 0.0022634899 -0.010021131 -0.05339786 0.28118566 0.26335195 -0.42030558 0.010397574 -0.013687885 0.038591083 -0.13043931 -0.30362156 0.19394104 0.17872937 0.13682541 0.9912646 -0.09063884 -0.351679 -0.14515744 -0.13747412 0.19078179 -0.19305351 -0.05910031 -0.32600135 0.06318364 -0.09143749 -0.05822004 -0.1076667 -0.015822785 0.716557 0.62967676 -0.4641669 0.12836923 0.040400557
73 0.6579996 0.026572617 0.76367265 -1.324018 1.0166551 0.14379008 -0.28858948 0.08091762 -1.5111527 -0.7596658 0.29375488 1.5863646 -0.6232281 0.5923775 0.15305062 0.71937096 0.46170807 0.523431 -1.015658 -0.118704356 0.6174513 -0.023229832 -0.041624412 0.43728006 -1.0007004 0.092508085 0.019187361 0.08098805 -0.25496212 0.2085685 -1.034146 -0.7143479 0.23589623 1.0056156 -0.29664123 0.58849984 -1.3671768 -0.73957014 0.16565129 1.1893095 -0.36987674 0.40844277 1.0992908 1.7656318 -0.13627934 1.420106 -1.5189133 0.0069125486 -0.19516228 -1.017226 0.48881078 -1.3932425 -0.9083326 -1.2527174 -1.4659181 -0.7245216 -0.54770076 -1.2046208 0.8648159 1.298753 -0.90926516 -0.17661777 0.083467364 -1.0029014
166 1.360581 -1.4214865 -0.63319254 -0.050688565 -0.5068169 -0.31719112 -0.7152108 -0.24868496 -0.3390435 0.04591816 -0.31041223 1.4246703 1.3329147 0.19317798 -1.6575732 -0.5607193 -0.9660719 0.19479105 0.19002366 0.29344195 0.56323653 0.38967925 0.84311604 0.50002587 -1.1805581 0.70741695 1.8606746 -0.49268946 -0.12971129 -0.5553907 -0.8198537 -0.041592117 -0.6434368 -0.77653074 0.40215692 -0.12940918 -0.031485375 -0.308034 -0.087947465 -0.23447247 0.30766386 0.2340488 0.05231786 -0.10947158 0.063836336 0.13258389 -0.47002783 0.39258036 -0.0008958704 -0.43598327 -0.29180995 -0.7052831 -2.2139878 -1.6361841 -1.1394643 -0.6747249 2.0874062 -0.94786847 0.44889563 1.0516837 -0.053425778 0.36326924 0.8217441 -0.84656763
52 -0.25016385 0.38110292 0.24807161 -0.3900675 -0.25457326 0.46440372 -0.25166333 0.31565017 -0.09070349 -0.45434174 0.09686683 0.16254357 0.3826652 0.13135824 -0.38677627 -0.5514875 -0.43665358 0.034770098 -0.4141469 -0.5232223 0.36714163 -0.034851056 -0.240348 0.24598336 -0.6709372 -0.43511695 0.20320956 -0.35034993 -0.14807598 -0.1668961 -0.4413514 0.115854494 -0.31037414 0.0096052885 -0.01908944 -0.5178306 -0.07480516 -0.36666057 0.030447636 0.11768142 -0.34301594 -0.1430943 -0.43488815 0.2804586 -0.4110516 0.5385506 0.5400952 -0.3479533 0.61100763 0.6450429 -0.34240237 -0.075525895 -0.6001504 -0.6948074 -0.037127495 0.17812543 -0.030986285 -0.37851515 0.5644921 0.98258954 0.3715924 0.030898621 0.11110182 -0.17879987
148 0.26441023 0.2940407 0.30983496 -0.41642088 -0.33703244 0.28836444 0.11809882 0.4278995 -0.9292465 0.070804104 -0.067841195 -0.117218204 0.33160022 0.35398692 -0.7730253 0.053393394 -0.13949123 -0.23461157 -0.49459672 -0.21306871 -0.022339273 0.025496436 0.56231356 0.0077071604 -0.1212633 0.071807995 0.7998984 -0.11027898 -0.347534 -0.35694754 0.22569257 -0.6304874 -0.19306877 0.11754816 -0.42005974 0.0010274492 -0.09047362 0.25495082 -0.19841829 0.0015923484 0.20496553 0.23593467 -0.3887792 0.15999337 0.26280522 0.04648935 0.14643598 0.41583133 0.34595633 0.06801231 -0.120684244 0.08891526 -0.7416756 0.2828742 -0.08521473 0.0018646389 0.59560406 -0.61057454 0.87183034 0.26448336 0.29055572 -0.5617152 0.72349644 -0.26024795
77 -0.12793978 -0.21386594 0.31194073 -0.2981423 -0.4306257 0.032350913 0.21061267 0.49706787 -0.82161456 0.23927528 0.22752392 0.2538581 0.06946616 -0.538054 -0.22273256 -0.16341786 -0.46443474 0.3420661 -0.58173156 0.045556773 0.5664905 0.34943774 -0.048733883 0.033452224 -0.098838545 0.20387378 0.7242373 0.043613415 0.47118255 0.4187544 0.011841284 0.15179724 -0.5489116 0.41632658 0.3185695 -0.16736189 0.10203053 0.25034195 -0.103327475 -0.2967712 0.0011353804 -0.18082201 -0.1759071 0.15482926 0.42443636 0.6005689 -0.52890986 -0.42839068 0.82760394 0.095517404 0.19608612 0.26636216 -0.16407765 -0.063755274 -0.3679421 0.16234688 -0.2872817 0.44323143 0.60445356 0.75258416 0.4833867 -0.34608257 0.35226455 -0.84018797
51 0.17252988 0.18186216 1.1627756 -0.4764143 1.0751749 0.012819544 0.5838551 -0.27635399 -2.5574298 -0.09243541 0.22390771 0.8606998 0.28451252 -0.07224477 0.38174686 0.51773524 -0.3371519 -0.51336366 -1.0214638 -0.12146757 0.69483125 0.28293312 -0.5420078 1.1020856 -1.2444583 0.22962621 -0.3314144 -0.062919036 0.00986715 0.19897754 -0.9756374 -1.2425672 0.45780563 1.0889747 -0.32161868 0.48148447 -0.81640357 -0.35029012 0.7119213 1.3579633 -0.26904827 -0.04064409 0.52093107 0.47461233 -0.042127978 1.5791839 -0.98784304 -0.22404039 0.004334834 0.03216873 0.43905982 -1.1945138 -0.71543753 -0.84391063 -0.667491 -0.20421979 -0.38651657 -1.6675578 0.8342627 1.1791911 -0.94697475 -0.100508705 0.123963654 0.084635876
28 0.88466394 0.43239164 0.05973108 0.45084408 -0.33800006 -0.2683483 -0.023938743 0.31125328 -0.033938386 -0.48205304 -0.092237175 0.32556742 -0.3939164 -0.54464775 -0.67439944 -0.28720725 0.39510953 -0.009207278 -0.8099055 0.030865815 0.59010476 -0.03733188 -0.08942758 0.13644421 0.041227236 0.24360977 0.7709309 -0.2898468 -0.9393352 -0.11191941 -0.42025337 -0.19864027 0.068728186 -0.44000217 0.9364805 -0.24040738 -0.6044003 -0.10037537 -0.27241862 0.8981239 0.25802207 -0.3396929 0.18946506 0.26078352 0.11107791 0.9283946 0.25012204 -0.5462021 -0.13529524 -0.12723374 -0.5995781 -0.48974276 0.56699526 0.005966724 0.59751797 -0.24448453 0.124088995 -0.5794418 -0.18043257 0.4173302 0.083870605 -0.6137541 -0.32069105 0.09598542
146 0.5635031 0.40930507 0.3461291 0.2110177 0.25599444 -0.06942746 -0.04088467 0.30814883 -0.5247553 0.006898235 0.2492133 0.74318254 0.11188513 0.220435 -0.03173092 0.039206527 -0.23257273 -0.20228086 -0.9921394 0.28519872 0.1873505 0.18615218 -0.38662153 -0.28834465 -0.87764513 0.53913987 -0.26707235 -0.11287099 -0.10980502 -0.5109545 0.5093822 -0.26749012 0.016674114 -0.05232428 -0.395276 -0.5340837 -0.5335329 -0.34730637 0.060757156 0.15052573 0.109184936 0.5493713 0.17976172 0.43506682 0.09001771 0.27568412 0.2686826 0.10691457 0.6888022 -0.20825307 -0.13683753 0.17923602 -0.44977108 -0.18108368 -0.022894684 -0.008253059 -0.30896053 -0.55428076 0.88087666 0.32883427 0.09562161 -0.35044804 0.5310699 -0.27725112
24 1.0002216 -1.2399997 -0.072707534 0.50826246 0.052034825 -0.4588285 -0.034516 -0.132215 -1.0864695 -0.022134759 -0.02112393 0.88564825 1.7107016 0.45154703 -1.2812691 -0.15175337 -1.064579 -0.2769574 -0.50548744 0.025123319 1.1091422 0.6047808 0.27687383 0.5567725 -1.0875038 0.49590436 0.8763746 -0.65670514 0.01141447 -0.53318816 -0.6640831 -0.43709406 -0.5482013 -0.030359587 0.6147616 -0.25409037 0.0067631616 -0.30852672 0.31121174 -0.40668947 0.23535417 -0.29731783 -0.5477857 -0.7799374 -0.07067164 0.19971997 -0.20981778 -0.43454674 0.85295254 0.08070869 0.35453662 -0.89740187 -1.7004659 -0.20022997 -0.67849 0.09010539 1.9306622 -1.1263438 0.071319275 0.6536113 0.10419477 0.0074780984 0.4663335 0.6994713
29 0.8797605 0.24811003 -0.37969834 -0.25458142 -0.21266904 0.44282395 -0.31773126 0.101195276 -0.031730104 -0.6815052 0.73296875 0.5682969 0.47009587 0.61682594 -0.23510598 -0.1239221 -0.3562462 -0.3347295 -0.7195353 -0.51553065 0.5773599 0.80718917 0.07586935 -0.14785641 -0.5811178 -0.0098194005 0.37527624 -0.5979247 -0.07818636 -0.0006127736 0.07371801 0.46537924 -0.086727396 -0.056868676 0.3024759 -0.85504115 -1.0123793 -0.61458856 -0.26569295 0.26816228 -0.54079795 0.19493352 -0.23564723 0.28675872 -0.28179243 -0.02435659 0.03226099 -0.32622072 -0.15285975 0.031144176 0.38762268 0.23651427 -0.37752604 -0.58504647 -0.49572474 0.3837281 0.4021951 -0.8626381 0.6867371 0.14888792 0.012682529 -0.5660706 0.43283182 -0.33148462
0 0.17144908 -0.2924669 -0.13891639 -1.3348057 -0.6681415 0.35528708 0.008323456 -0.3607315 -0.9404139 0.7645601 0.570982 1.0265826 1.4740106 -0.39603627 0.32305396 -1.4254857 -1.7484149 -0.29270816 0.18193887 -0.30166554 0.44489494 0.15078062 0.11090929 0.80822635 -0.2921427 1.0149517 0.9315649 -1.1185647 0.09852301 -0.29542953 0.003477217 1.4461945 -0.72442734 -0.7677939 -0.12834068 0.68097264 0.44382128 -0.6208585 -0.5862366 0.6598815 -0.4114752 0.45878512 -0.20934108 0.5393025 -0.32587776 -0.16559134 0.57653666 -0.43936595 0.13227142 0.37775445 -1.5441793 -0.57725257 -1.0886376 -2.2495847 0.46013942 0.12284568 0.9329254 -1.4310511 0.3034609 2.1157126 0.1434911 -0.6011968 0.1872847 -0.53745383
168 0.282753 0.9296716 0.22615694 0.3445209 -0.26074725 0.31021088 0.4738408 -0.7655709 -0.08378278 0.04731956 -0.26863098 0.4107718 -0.11393732 0.28942725 -0.26763496 1.0645736 -0.5334213 0.27493605 0.18119381 -0.14870149 0.22512576 -0.18622445 0.23949392 -0.1999224 -0.05968729 0.32826027 0.3493249 0.39198837 0.33803403 0.0876043 0.025385996 -0.034767907 0.28484264 -0.09015959 0.051426306 0.63301826 -0.05630792 -0.25248313 0.48007655 0.46102682 0.14066279 0.10976435 -0.16092244 -0.04470238 0.15800071 0.4559306 0.14628951 -0.624181 0.35583305 -0.61924636 -0.18922706 0.47614443 -0.5164527 -0.31274647 -0.6832549 0.048471127 -0.3171198 -0.4791052 0.4563807 1.0786835 0.34384114 0.062952325 0.2617333 0.47589633
38 0.14147936 0.40567413 -0.37327087 -0.1959567 0.119352 0.52309483 -0.16420083 -0.17061235 -0.12597787 -0.35716015 0.41393834 0.44730905 0.13393447 0.30435422 0.045680907 -0.1860871 -0.38959613 0.055173025 -0.6387615 0.7162245 0.45198828 0.15317868 -0.1260269 0.048955355 -0.6859259 0.2883307 -0.03846882 -0.89436316 -0.36190423 0.10344584 -0.22090504 -0.061358057 -0.30089164 0.05107236 0.65390754 -0.8667688 -1.1556357 -0.25030714 0.1192796 0.3961528 -0.18055992 0.117088355 -0.8571981 0.25925276 0.15964396 -0.67029005 0.6465752 -0.4987739 0.08478358 0.357063 -0.26787403 0.24669303 -0.40150496 0.071847245 -0.4968539 -0.49746016 0.497178 -0.13129197 0.93087447 1.0372007 0.29200605 -0.43859985 0.27891093 -0.26572716
152 0.021406824 0.27487457 -0.006088374 -0.03510494 -0.23025848 0.27915937 0.03620505 0.3054277 -0.5253943 -0.024120934 0.019868717 0.25951096 0.17445675 -0.25711194 0.02367821 -0.24117589 -0.4529254 0.46966064 -0.414301 -0.14264977 0.517521 -0.0937339 -0.2332574 -0.11462502 -0.4554297 0.03248497 0.36250275 -0.017541172 0.19396943 0.2471159 -0.15566602 -0.41659737 -0.26825854 -0.1000029 0.13109477 0.11730505 -0.07834609 -0.13568026 0.09782073 0.520065 0.0030621174 0.29855022 -0.41947716 0.056028556 0.12672989 -0.11681677 -0.37534842 0.08412268 0.3750949 -0.36476436 0.55922407 0.22568716 -0.5331342 -0.2713584 0.34832788 -0.036544263 -0.11095729 -0.63061905 -0.083399 0.5185789 0.6655852 -0.338924 0.23450302 -0.37455672
90 1.4239148 0.5182496 0.36822462 -0.29015523 0.46423405 -0.16486436 -0.44406357 0.13499922 -0.6325432 -0.14925446 0.3158532 0.3752928 -0.078297555 -0.18646476 0.48799336 -0.41704097 0.13422853 -0.31634018 -0.4608724 -0.08174376 0.15982363 0.99490577 0.643014 -0.20835577 -1.0414661 -1.0022451 0.004354237 -0.23392376 0.30151823 0.31317726 0.10629513 0.5012288 -0.09515518 -0.7265042 -0.37001833 0.071617976 -0.25561905 0.29763362 0.6324303 0.08360441 -0.28015003 -0.082255945 -0.28560418 -0.46836632 0.7880603 0.80377287 -0.13135783 0.4880545 0.6282296 -0.4889531 0.17090319 -0.41398323 -1.0185814 -0.4311645 0.15905483 0.06651595 1.0605779 -0.73549265 1.4487816 1.8763969 -0.5417999 -0.8735497 0.6898972 -0.4144236
165 0.30891094 0.30793545 0.24802506 -0.10548394 -0.6586186 0.46638733 -0.26739836 -0.13184263 -0.20376083 -0.16286685 0.6081985 -0.28344935 0.2956569 0.2766964 0.0048795496 -0.093505464 -0.2842842 0.021963844 -0.28780594 -0.37546194 0.4910475 -0.16504341 -0.23746985 0.3274431 -0.7076766 0.1879821 0.18095224 -0.7028173 -0.0071345414 0.08969533 0.11389304 -0.3804954 -0.49487913 -0.37864155 0.16919866 -0.4991295 -0.35036203 -0.2619908 0.20117955 -0.1081323 0.05630903 -0.47110143 -0.010261308 0.055368766 0.13611113 0.16399463 -0.08424882 -0.4341501 -0.29502633 0.10121476 0.025442058 0.36823294 -0.30420643 -0.052108213 -0.73515844 0.25954837 -0.121674374 -0.29284233 0.62237316 0.5687742 0.17872769 -0.25178468 0.34840345 -0.48753795
97 0.113228984 -0.014942276 0.08748241 0.048034508 -0.3374045 0.07192488 -0.19420594 0.37293953 -0.38364846 0.46942532 0.029308276 0.5838303 0.26509786 0.2519569 -0.1975218 -0.29444382 -0.5042935 -0.2952775 -0.7523327 -0.3855534 0.61526173 -0.25302747 0.3483713 0.34216017 -0.73217666 -0.023638498 0.678878 -0.0767402 0.056155995 -0.3476297 0.37101358 -0.36528653 -0.028450867 -0.33801052 -0.51604605 -0.09324411 -0.56265295 0.110536456 -0.5472611 -0.46140558 0.4760329 0.49861446 -0.12431545 -0.36785316 0.2014126 0.6982967 -0.19207695 0.26026207 0.27840716 -0.089794666 0.046785578 0.20668763 -0.8643947 0.272481 0.029030114 -0.10370022 0.13151424 -0.32956758 0.52714163 0.24441884 0.035850577 -0.35599524 0.053714123 -0.1270726
8 0.102378875 0.012710519 0.2513811 0.07949566 -0.3608934 -0.1322748 0.42722514 0.30902293 -0.3500032 0.42432064 -0.08844134 0.1967639 -0.58792144 0.16776673 0.16932051 0.24980961 -0.16367649 0.27110216 -0.050976425 0.08781945 0.36212137 -0.123027764 0.02454355 0.032732032 0.1745499 0.28936476 -0.21182348 -0.32287598 -0.3073562 0.3616678 -0.45594153 -0.19747494 -0.055142727 -0.65452546 -0.029259868 -0.17099027 -0.2729894 -0.37156308 -0.04793634 0.3777125 -0.53193444 0.2931694 0.047775324 -0.50839186 -0.018511998 0.37133107 -0.21223268 -0.50333285 0.112987205 0.1754138 -0.27213293 0.12420187 -0.6397331 -0.07697854 -0.7584869 0.03818236 0.16203338 -0.4585119 -3.4342414e-05 0.32637835 -0.1325729 -0.50298274 0.5451252 -0.016897742
164 -0.54010063 0.0933255 0.42570528 0.14765757 -0.21861382 0.5615798 0.08257499 -0.13770092 -0.633098 0.0076473784 -0.29350746 -0.11084802 0.2817092 -0.56295717 -0.1364363 0.25662145 -0.41039735 -0.27665386 -0.13708462 -0.47932714 0.15600352 0.34164613 0.5626518 -0.20086925 -0.42103675 -0.059560794 -0.12260407 0.30413315 -0.2604024 0.27424857 0.21466221 -0.1178329 -0.26016375 0.14058807 0.49863008 0.28737733 -0.83136016 0.3828024 0.27079794 -0.042287894 0.12990941 0.050477374 0.33531722 0.14488515 0.31333885 0.9302313 -0.10465782 -0.007192223 -0.084371604 0.56214195 0.03852287 0.12638848 -0.87879807 -0.7625443 -0.11770913 0.08727058 0.12075295 0.10549552 -0.21359672 0.7586522 -0.04515839 -0.57440555 0.084091 -0.10292425
75 0.7786316 0.20254675 0.19674687 -0.9030326 0.96747494 0.008717244 0.74857414 0.7559406 -1.2487268 0.23200336 0.14162861 1.4985062 0.10775849 0.7199437 0.4624499 0.7752052 -0.0022644163 -0.4606754 -0.96572536 -0.4700401 0.36641118 -0.16803552 0.10868254 0.40486515 -1.007686 0.22395258 0.5583225 -0.23712894 0.5723297 -0.08665268 -1.2469572 -1.0819733 0.48158324 0.86858714 -0.1485715 0.45694703 -0.56257534 -1.1567233 0.7597464 0.7087743 -0.24423565 -0.59474146 0.22045568 1.0138197 -0.036007136 1.1893073 -0.98883843 -0.41653684 -0.117543705 -0.25204292 0.21229587 -1.0089618 -1.4136764 0.21482415 -0.6437451 -0.6134652 -0.15224452 -1.0573686 0.3311079 1.0031238 -0.8220175 -0.6409948 -0.0007211498 -0.3753104
11 0.81095076 0.2702698 -0.579077 0.30583876 -0.42947754 -0.041785497 0.5763654 0.22288899 -0.29206958 -0.54774344 -0.040762145 0.31032297 -0.61237836 -0.0022347705 -0.3042236 0.08020591 -0.10906589 0.115420915 0.031017581 0.08936631 1.0247761 0.3376812 -0.7419911 0.7035579 0.18856236 0.020515082 0.2831776 -0.47304106 -1.1732026 -0.07069778 -0.25821644 -0.20089047 -0.24340023 -0.45255855 -0.1586089 -0.3443057 -0.67878544 -0.16622838 0.15881647 0.35359642 0.43120116 -0.44548023 -0.56168646 0.94816875 0.070517935 0.61643046 -0.27731907 -0.05363707 0.08655457 -0.14262238 -0.28369805 -0.20033278 -0.25474188 -0.6676852 0.5749228 -0.07168873 0.3154606 0.18267018 0.30738738 0.057602108 -0.16692172 -0.7965266 -0.4362393 0.4113602
102 0.40673935 -0.19577865 0.15212828 0.27659824 -0.026405403 -1.0753905 -0.8958598 0.24086168 -0.53809017 -0.37651414 -0.29700845 0.66662043 1.0586785 0.077050924 -0.8270486 -0.31774867 -0.20423095 -0.5826608 0.1314676 -0.021304378 1.3935864 0.56737304 0.7013899 0.44167006 -1.1780946 0.75076014 1.3388078 -0.7205202 -0.3346379 -0.4491644 -0.5471693 -0.045017295 0.07900905 -0.37919435 0.2497913 -0.052332282 -0.4117424 -0.46683267 -0.43368003 0.016616222 -0.076971404 -0.44626105 -0.20212506 0.093364544 -0.41429442 -0.056587487 -0.2176323 0.23916294 1.0200719 -0.3765464 0.21559083 -0.23117587 -1.9728489 -0.27920187 -1.0879385 -0.5428942 1.6380606 -0.037162215 0.4071886 0.57952344 0.7851376 0.08153924 0.76354086 -0.059904434
126 0.07887091 0.31741548 -0.0122870505 0.41414875 0.33993614 -0.1440283 -0.26789996 0.05290767 -0.36445624 -0.15526558 -0.34421778 0.3205902 0.069829434 -0.1883603 0.49964333 0.63477224 -0.1588504 -0.25369903 0.020764071 -0.18351355 0.15179445 -0.24287532 -0.3762973 0.24648131 -0.585576 0.04284125 0.55887777 -0.8105668 -0.3703643 0.046856567 -0.13843471 0.28001434 -0.8752798 0.78883237 0.73451257 -0.2180285 -0.39815414 -0.09465333 -0.0024534038 0.13504665 0.1325852 -0.058009632 -0.12074523 0.21144967 0.0009441845 0.10320167 0.61827123 -0.0930376 -0.15457834 -0.088553295 0.05328544 -0.119369455 -0.26784834 -0.6307607 -0.1585415 0.14040995 0.079721786 -0.19773808 0.114315026 0.30271482 -0.40749475 -0.7892637 -0.020795144 -0.346387
16 0.32182938 0.15906169 -0.09344242 -0.6492341 -0.00764876 -0.030407395 0.68717504 0.18457372 -1.0807109 0.8168242 0.624182 0.18336542 1.7688826 -0.25430116 0.58340466 -0.8675941 -1.4340441 -0.9673958 -0.1595688 -0.49166006 0.92467767 0.5753559 -0.11902381 0.3611839 -0.38635987 0.61445266 0.3642984 -1.1508926 0.41427612 0.029089883 0.03594327 0.9821042 -0.31202886 -0.16244122 0.40347564 0.2916983 0.21084575 -0.88027847 0.111219674 0.19833753 -0.10929818 -0.2399128 -0.8750456 -0.20123366 -0.14870149 0.14406863 0.5113433 -1.0372391 0.7258717 0.7744806 -0.5100761 -0.7967026 -1.1034875 -0.75473285 0.57460713 0.67517287 1.1279569 -1.4655398 -0.11098285 1.697259 0.13620181 -0.87236565 0.029315844 0.6239705
139 0.2872888 0.88882685 0.30278996 0.04600687 0.32137534 0.5784518 -0.23087114 -0.6012512 -0.4120437 1.1612526 0.065244645 0.445659 -0.52174103 0.19591144 -0.56008804 0.8653046 -0.57655716 0.17191453 0.10069168 -0.15595984 0.68809277 -0.105053976 0.22712977 -0.14554958 -0.18046951 0.18936701 0.2847154 0.3214347 0.07087213 -0.37871727 -0.0860201 -0.14668229 0.4965805 -0.16356575 -0.18087372 0.2338616 -0.281704 0.11360884 0.27665114 -0.018284054 -0.11763985 -0.21688958 -0.27674025 -0.19060953 -0.16473517 0.28634548 0.021280415 -0.13739432 0.16878828 -0.062230382 -0.29269287 0.27166936 -0.65451896 -0.16980776 -0.34396502 0.19020654 0.047273964 -0.5591202 -0.21548174 0.76190823 0.083299346 -0.20862237 0.08897465 -0.26162603
88 -0.13241406 0.8922572 0.37250283 -0.71899664 0.52767026 -0.052595552 0.048046537 0.2765283 -1.746822 0.4699851 -0.12418623 0.6661409 0.0075311195 -0.31936318 0.37693354 0.021659907 0.48279083 -0.83334166 -0.22897014 0.08925138 0.33813578 0.124090105 0.114408955 0.5568984 -1.453246 -0.17189927 0.45696846 0.13809675 -0.028152557 0.3551401 -0.9460056 -0.93057954 0.78668714 0.5235211 -0.2138905 0.44079226 -0.87189746 -0.7146319 0.030878976 1.482749 -0.5799553 -0.2182447 0.1675071 0.9330474 0.21566127 1.4507543 -0.937851 0.4306045 -0.13290638 -0.39588246 -0.1648352 -0.20861486 -1.3118137 -0.7927583 -0.96407133 -0.8908847 -0.089904115 -0.45766994 0.62705445 1.0102009 -0.45740777 -0.24000227 0.37062293 -0.4022119
111 0.27518067 0.28171742 -0.6215552 0.06538848 -0.6849718 -0.1846384 0.029514194 0.12051782 0.03314663 -0.022799604 -0.34379706 0.16639733 -0.3495065 -0.04896069 -0.4651578 -0.031169709 -0.43130797 -0.21187735 -0.9164984 0.17763714 0.636066 -0.19106555 -0.7061346 -0.028214153 0.2751798 -0.11154305 0.29548103 -0.8277315 -0.3525639 -0.14732848 -0.37344095 -0.37656724 0.16915114 -0.72189695 0.69151676 0.5156974 -1.2174118 -0.17142308 -0.2269294 0.13616574 -0.16822726 -0.8081572 -0.27645487 0.17851755 -0.16210835 0.40316427 0.562593 0.051060706 0.3313262 -0.32135293 0.1229749 -0.8630138 0.32789516 -0.9003938 -0.017989265 -0.11076596 0.1588303 -0.34644687 0.6567644 -0.025576679 -0.22199622 -0.92974967 0.21164528 0.17098041
137 1.0190686 -0.4831234 0.1551131 0.2360607 -0.11626668 -0.43005475 -0.27853346 0.45566332 -0.62555325 -0.5244916 -0.47352716 0.7004823 0.55806375 0.3793162 -0.47998843 -0.4958466 -0.5140127 -0.38140205 0.21141665 0.4130922 0.5477917 0.5840367 0.3812622 -0.16611657 -1.3646019 -0.12776329 1.1063699 -0.42888623 0.35255352 -0.004654963 -0.39333642 0.053228397 0.17035803 0.069742896 0.01468848 -0.29402995 -0.56016743 0.10524787 -0.37468162 -0.43887785 -0.38545412 -0.8568401 -0.63001657 -0.85400254 0.6410077 0.319925 -0.548772 0.14297347 -0.01017099 -0.21437915 -0.4919026 -0.6326732 -1.7387623 -0.702318 -0.053876687 -0.06075246 1.4604263 -0.78765297 0.74463505 1.0962526 0.24875052 0.110235006 0.61511785 -0.014495189
60 0.23794864 0.19053997 -0.4072193 0.16524076 0.049234968 0.13957442 0.774641 -0.060926426 -0.53874105 -0.9553295 -0.84412825 -0.20127513 -0.0109162135 0.0737727 -0.16693936 0.3096221 -0.61855865 -0.6713362 -0.4015223 -0.2830698 0.17187347 -0.7663362 -0.3246929 -0.25500423 0.19954892 0.06173019 0.31747356 0.2016149 -0.62781864 -0.41212022 0.34305346 0.252973 -0.13704726 -0.54136866 0.5344173 0.12040214 0.08867551 0.08671852 0.65451443 0.52014023 0.40293893 -0.62252074 0.64440304 0.27808753 -0.18460377 1.010484 -0.092816554 -1.1080899 -0.082687 -1.3469416 0.005102284 0.6715154 -0.17612329 -0.3796393 -0.3339473 -0.306957 -0.021110866 0.047546655 0.7883429 1.1475006 0.13425721 -0.037786916 0.18897642 0.3228809
3 0.023069955 0.91440487 0.13963139 -0.9283539 -0.40407252 -0.44108155 -0.21602921 0.316504 -0.6104404 0.2858669 0.07485859 0.14624318 0.86112285 -0.3561388 0.88613385 -1.1426551 -0.6063412 -1.0013047 0.71954453 -0.07547137 0.938205 0.48586434 0.19952503 -0.048878912 -0.75423276 0.62451 0.89929706 -0.94696474 0.11599818 0.26525953 0.28975314 1.3844464 0.14275543 -0.49425375 0.062857226 0.45498642 -0.4011822 -0.74925995 -0.6738753 0.35033226 -0.47516108 -0.38869822 -0.40469462 0.42542621 -0.2053591 -0.052002706 0.122903846 -0.22035182 0.41695738 0.13339743 -0.9407602 -0.23423102 -1.3556772 -1.1159364 0.23471417 0.06615149 0.96058047 -0.68671393 0.29745033 1.6340376 0.6504273 -0.59508824 0.4695426 -0.30581462
12 -0.016472967 1.1209829 0.25416237 0.241411 -0.35373905 0.081810124 0.41417333 -0.5091936 0.02423109 0.7213974 0.09494912 0.8459553 0.25531936 0.299405 -0.0034170095 0.64020735 -0.3663718 -0.004182898 0.013391846 0.04085116 0.51075006 -0.3106979 0.5273733 0.15601113 -0.3324605 -0.41054833 0.30143613 0.42626053 0.39665493 -0.517699 -0.21916664 -0.25207078 0.22625175 -0.3883915 -0.40527636 0.20848137 -0.53421366 0.41286832 -0.30490822 0.17470829 0.27865613 0.26021397 -0.12499835 -0.007869339 0.29390717 0.16737887 -0.15281473 -0.3172293 0.4360335 0.091620825 -0.08845092 0.0488063 -0.7584608 -0.15535004 -0.6582913 0.16176791 -0.06852427 -0.57050157 -0.36539337 0.92209154 -0.25579506 -0.23461297 0.050084434 0.013504971
147 0.32182366 0.1713494 0.20057473 -0.4970898 -0.11916401 -0.019786853 0.7182535 -0.4175374 -0.35860673 0.045545295 0.5721418 0.34010127 0.056876387 -0.3974546 -0.11973071 0.24301827 -0.15452196 0.6055735 -0.52785647 0.15739225 0.29093277 -0.22695188 0.20486891 -0.38114506 -0.86082894 -0.11691104 0.50175697 -0.9326907 -0.42531335 0.15768039 -0.77727276 0.0394554 -0.11933784 -0.077563494 0.0019029054 -0.19543108 -0.3118014 -0.13615754 -0.05599863 -0.3706428 -0.3006744 0.0015495259 -0.06283254 -0.305855 0.07387003 -0.019306378 -0.14914954 0.0010903932 0.12669912 0.0016707847 0.3282208 0.7168834 -0.50388676 -0.4707002 -0.32642257 -0.54198664 -0.014542385 -0.41735104 0.20267692 0.40421554 0.59916455 -0.6037025 -0.29324478 0.199723
87 -0.23250143 0.27137607 0.8086252 -0.90932715 0.20289059 0.028988078 0.27662587 0.08136654 -1.7046044 -0.14066952 0.13276082 1.4450529 -0.09433537 0.77329934 0.4401903 0.25571656 0.20123535 -0.24877544 -0.73213017 0.03939062 0.41918612 -0.18830934 -0.38001508 0.411957 -1.1942669 -0.111422285 0.26778665 0.37914458 -0.45027438 -0.13612899 -0.5686702 -0.78931594 -0.32442355 0.79015267 -0.067567624 0.6738755 -0.51149416 -0.72066593 -0.22526811 0.5968071 -0.63070786 -0.53706825 -0.26083887 0.25778034 -0.52723014 0.8388896 -1.3369545 0.013165836 -0.1439207 -0.47436938 -0.629648 -0.649849 -0.61821276 -0.22986802 -0.8798191 -0.29706928 0.042603057 -1.04158 0.06390011 0.89332247 -0.03808691 -0.223419 0.26063395 0.25445127
69 0.21234888 0.18665439 -0.43659773 -0.29490107 0.8164094 0.530053 -0.088252954 0.040224437 -1.0145079 0.40354493 -0.3333112 -0.09523413 -0.63864815 0.048727304 -0.55056 0.13454601 -0.6340364 -0.92007715 -0.54726857 -0.37337974 0.7536007 -0.5909093 -0.3529691 -0.120904975 0.1442972 0.0004005685 0.27212438 0.112428635 -1.147461 -0.97092795 0.1658996 0.14170362 0.31865016 -0.5016386 0.29444334 -0.329872 -0.35191414 0.6653588 0.32891333 -0.19994693 0.087935746 -0.98548913 0.5792146 0.0034237816 -0.53193104 0.7932254 -0.16059367 -0.57231086 -0.35590878 -0.6818947 -0.17076033 0.656546 -0.3925825 -0.09727274 0.08502029 -0.12569752 0.48003477 -0.14724693 0.013366528 0.74254674 -0.2368522 -0.39026126 -0.056396957 -0.5550624
83 -0.3029976 0.40643433 0.8150296 -0.50203955 0.8315712 -0.49938884 0.11434405 0.33348402 -1.3205695 -0.6329421 0.010853433 1.118079 0.056101143 -0.38209566 0.23096745 0.3723906 0.029661953 -0.5616604 -0.39308566 -0.4841958 0.8132246 -0.16049771 -0.13343856 1.1224725 -0.47779056 0.8380912 0.3374901 -0.26752922 -0.12952392 -0.28171292 -0.9401092 -0.50121 0.5149582 0.15753806 -0.82303566 0.64913803 -0.626274 -0.6444249 0.00844718 0.72352654 -0.4430727 -0.20679247 0.06294937 0.57988673 -0.3382598 0.31151754 -0.49291202 0.011869335 0.035598997 -0.20793305 0.48912853 -0.44727817 -0.6432786 0.1115794 -1.0726174 -0.5471357 0.052779563 -0.6966177 0.30968457 0.98362875 0.17863171 -0.23965365 0.31067285 -0.44158635
15 0.49995694 0.124311805 0.16935466 -0.31438443 0.11209351 -0.057602074 -0.17864028 -0.10751826 -0.38316143 0.29654735 -0.35356802 0.061965812 -0.018135304 -0.44814843 0.13515891 0.3491856 -0.69433165 0.5660037 -0.4175412 0.16295199 0.08456823 -0.13364965 0.054287754 -0.33025482 -0.49808067 -0.08967041 0.612751 -0.5636231 0.077336244 0.4819824 -0.27704066 -0.16187687 -0.6368632 -0.22179134 -0.5932804 -0.64658874 -0.48418707 0.13003281 -0.15806898 0.321164 0.040278215 -0.20115131 -0.3608518 0.08673434 -0.5462163 0.20215558 -0.29684284 -0.49835092 -0.17862228 -0.044301897 0.25772572 -0.042649332 -0.16027468 -0.23781176 -0.6824685 -0.7286211 -0.19407636 -0.16696551 -0.13670255 0.7023698 0.23012576 -0.58240235 0.12629893 0.69023734
84 0.35119176 0.8939762 0.38364342 0.43708524 0.06290139 -0.043885637 -0.27118132 -0.9608165 0.3627459 -0.0003968806 -0.6265594 0.1369267 0.045166202 -0.46772036 -0.54472834 0.02042031 0.75291115 0.072767794 -0.96844906 0.09602594 0.0007127764 0.09442306 -0.25654793 0.05734791 0.49106094 0.58925825 1.1989533 0.15861046 -0.36678404 -0.10496148 -0.5324547 -0.3912563 -0.10006488 0.14369777 0.5235139 -1.0582207 -0.34191194 -0.2924406 -0.58907866 0.5297614 -0.07474976 0.16957287 0.7700604 -0.26946577 -0.012877433 0.71694386 -0.3053471 -0.17985238 -0.16463731 -0.3083175 -0.40996316 0.13648888 0.015559695 0.64078283 0.45639557 0.53455675 -0.081548385 -0.7337541 -0.3025176 1.5851835 0.28476867 -0.96142083 -0.58939046 0.08351362
35 -0.6261942 0.7956417 -0.13434185 -0.15107216 -0.75668895 -0.08766139 0.3374871 0.28410664 -0.49139535 -0.030977761 -0.2279383 -0.028331455 0.02786516 -0.18339829 -0.0662711 -0.42629993 -0.16873483 0.64548963 -0.44438088 -0.25121677 0.4560229 -0.028139917 0.18447383 0.11359157 -0.5006314 -0.25361282 0.52140933 0.11259967 0.3078085 -0.45969293 -0.11494679 0.09120164 -0.23208225 -0.06777674 -0.17280225 0.14355712 -0.23302825 0.111072734 0.12879397 -0.10002861 0.6651369 0.7567897 -0.22917487 -0.06837562 0.38172075 0.17612201 -0.6882607 -0.97844565 0.5651633 -0.12257888 0.33142412 0.014267102 -0.45164582 0.013937281 -0.38586283 0.07785789 -0.3870872 -0.40158272 0.2678899 0.9204464 0.016139073 -0.48949113 0.40108234 -0.37331676
68 -0.15360971 0.68268883 -0.7112065 -0.035935443 -0.11457122 -0.1744599 0.7576583 0.16096637 -0.3597758 -0.36739266 -0.27131116 0.4036828 0.29613644 0.27683246 0.14193012 -0.21658148 -0.3974496 -1.154505 -0.57892996 -0.113722086 0.57403046 -0.98740417 -0.018455755 0.30054012 0.01646527 -0.6624395 0.36011752 0.3027068 -0.7821931 -1.1530845 -0.037555873 -0.057702392 -0.15957768 -0.7391305 0.03260894 -0.3592429 -0.76521707 1.1388553 -0.3950428 0.17568803 0.6905767 -0.4261092 0.83001566 0.23962507 0.13762751 0.7558283 -0.3075444 -0.9989392 0.06886088 -0.6078287 0.13872358 0.3518737 -0.4532352 -0.053819712 -0.33027878 -0.0716421 0.12945583 -0.19252294 -0.050810758 0.94332325 -0.7344091 -0.38017175 -0.016520211 -0.18320547
46 0.29281026 0.65012634 0.5651199 0.0023027377 0.1607115 -0.25545758 0.5127168 -0.07607773 -0.59744596 0.07091592 -1.1324798 -0.062230818 -0.19427577 -0.0361957 -0.5052249 -0.46080104 -0.031320322 0.6404756 -0.15631178 -0.58946425 0.565907 -0.13217369 0.38242528 -0.40498665 -0.31720164 0.28821304 0.9656319 0.17623204 -0.12484647 -0.27525634 -0.3380306 0.3833154 -0.38756755 -0.29088303 0.94701433 -1.1485922 -0.1804385 -0.11235752 -0.36837944 0.8674909 0.07405152 0.5819978 0.11416481 -0.60139966 0.06675217 0.6226147 -0.3036273 -0.20062308 0.59242636 0.14442584 -0.12195552 -0.086284935 0.4325851 0.44061905 0.0765462 -0.5552744 -0.65669465 -1.001592 -0.14959547 0.6503017 0.36343732 -0.88217854 -0.39839455 -0.5787544
78 0.18128356 0.40665653 -0.039180692 0.05950193 0.119370885 0.038442504 1.2726704 -0.06895717 -0.941482 0.10583082 -1.1122522 -0.046579473 -0.3618101 0.7372251 -0.090829566 0.013497015 -0.64949167 0.71936554 0.5205077 -0.4362706 1.0543114 0.22033054 -0.14325948 0.30629802 -0.15385698 -0.04761614 0.3605422 -0.020594312 -0.46664256 -0.07354072 -0.10755862 0.28422332 -0.8831663 -0.3616668 -0.3590928 -1.4530672 -0.32948536 -0.3422301 -0.028447356 0.21966632 0.3470876 0.37129557 -0.70516175 0.19008946 0.0064492347 0.27318755 -0.85136986 0.3528879 0.65839297 0.057266675 0.32145497 0.32149523 -0.52867186 -0.35830477 0.10449778 -0.4994786 -0.43908745 -0.26262036 0.4642147 0.30631748 0.34009328 -1.1513274 -0.40063822 -0.38776842
100 0.00020628158 0.06869339 0.81852716 -0.91986614 0.7517379 -0.19955145 0.35522076 0.18146783 -0.9673845 -0.30485186 -0.14221162 1.0275581 -0.16340509 0.02757409 0.18902506 0.045496378 -0.5813608 -0.49046338 -0.11381402 0.42982823 0.7194579 -0.1067882 -0.20689514 -0.12640049 -0.59712666 -0.47426447 0.4559894 -0.48737535 -0.056227982 0.47716475 -0.44142544 -0.5701466 0.71484035 0.522217 -0.387946 0.5139347 -0.73822856 -1.0585644 0.0067402115 0.78816175 0.52219117 -0.22238596 0.19882987 0.33037037 0.06993622 0.86576945 -0.86707115 0.046110876 -0.36805165 0.28050318 0.027771566 -0.32149664 -0.71101993 -0.17711514 -0.55124176 0.29360485 0.12883005 -0.97220325 0.22607824 0.8875543 -0.17720073 -0.039083935 0.4782796 -0.32548487
99 0.24232401 0.7978107 -0.32060698 0.2974668 0.007925825 0.21331869 0.43460974 -1.109259 0.12398629 -0.043603953 -0.6674085 0.12626357 -0.29539093 0.08127674 -0.09332824 0.45939535 0.204956 0.2145815 -0.1520631 0.13340154 0.5338816 0.4759293 -0.9542956 0.7098855 0.6357345 0.40940857 0.68019277 0.008289724 -0.5869182 -0.05722169 -0.3990327 -0.49853617 -0.5684108 0.19612595 -0.6493406 -1.2231172 -0.40603092 -0.39697912 -0.15780087 -0.061855864 0.107078254 0.059182152 0.08444778 0.44790018 -0.03140602 0.41692832 -0.90773773 0.3282503 0.12147717 -0.30604535 -0.07545533 0.48669738 -0.8452005 -0.114427224 0.5253969 0.73214626 0.098304905 0.08321169 0.20546821 1.2028561 0.011381995 -1.1777976 -0.59812945 0.3668282
157 -0.31557798 0.32697266 -0.104728445 -0.5053703 0.33695802 0.7695498 -0.64690906 0.18042788 -1.30248 0.99633366 -0.30274114 -0.35898107 -1.0292884 -0.33102286 -0.59061706 -0.17604221 -0.41265473 0.66796446 -0.7202649 -0.6873624 0.8374196 0.23986234 -0.30446124 -0.11653 -0.5192273 0.23601934 0.45286098 0.0040578283 0.05447481 -0.5100052 0.10734541 0.44526452 0.51307404 0.096408695 0.046755027 0.06416306 0.038049176 -0.09408916 0.6615097 -0.58972293 0.33651543 0.22529638 -0.39482418 -0.2526459 -0.35296115 0.3436034 -0.58737063 -0.48288092 0.17864412 -0.072672434 -0.05934583 0.23888583 -0.62393826 0.09423748 0.02824673 -0.006919565 0.23114398 -0.46595386 0.08401748 0.7071937 0.4695758 -0.4366387 0.3483689 -0.98000866
57 0.5483608 0.46520147 -0.81829613 -0.32380718 0.4491049 -0.5716619 -0.34860376 0.10475206 -0.6782478 -1.0658692 -0.41240123 -0.17261 0.20671473 -0.28868133 -0.4975803 -0.21264327 -1.1072824 -0.9551188 -0.47703356 -0.03148629 0.35767093 -1.1444675 0.28092375 -0.22199203 0.20856719 0.037470564 -0.19710912 0.79258007 -0.97983986 -0.46758613 0.23290305 -0.5001844 -0.60649526 -0.28972453 0.12271556 -0.051024407 -0.16645972 0.21066664 -0.03609602 -0.15764429 -0.23218258 -0.7254232 0.32082888 0.2625636 -0.2146577 1.0032729 -0.48520008 -0.99686813 0.17531906 -0.35397074 0.07749046 0.8879818 -0.5377643 -0.31564915 0.13427235 -0.24523439 -0.009003809 -0.30372196 0.1960512 0.9048033 -0.44234446 -0.91652554 0.095314465 -0.29159284
21 0.1861052 -0.403073 0.7956244 -0.03385858 -0.32693005 0.24388948 -1.0162728 -0.92083263 -1.0851661 -0.54690695 0.17002068 1.067879 0.39460984 0.96467423 -0.29093456 -1.0133045 -0.5048045 0.073092714 -0.29466856 0.2680964 1.1398094 0.3626202 0.38282806 0.25699145 -1.1216476 -0.6506654 -0.36785334 -0.43459976 -0.41253793 0.3892103 -0.07187067 1.0043262 -0.43647483 -0.0799092 0.30081174 0.19163957 -1.1019138 0.13007632 -0.22023666 0.41215342 -0.8154785 0.40581977 -0.45486638 0.15230809 -0.34606388 0.3416317 0.31632596 -0.13432664 0.38733706 -0.698051 0.14680834 -0.2766331 -0.58326936 0.109204255 -0.13773638 0.3289092 1.3875568 -0.06258499 0.6961113 1.2436273 -0.19335127 -1.2118138 0.5618824 0.28956935
86 -0.3282936 0.45838642 -0.13136788 -0.19960342 -0.19443448 -0.13407663 0.7341451 -0.105116464 -0.6179943 0.6111268 -1.5707134 -0.16866036 -0.23217414 0.6099657 -0.2876442 -0.11609573 -0.94382316 0.4052107 -0.66211617 -0.37381828 0.6974217 -0.2887489 -0.088694066 -0.2754694 -0.080314726 -0.13806872 0.36617473 -0.45400038 0.25123948 -0.06138784 -0.20339975 0.056006823 -0.57312304 -0.54939604 0.5847158 -0.53127503 -0.88450223 -0.42923453 -0.5027816 0.009681911 -0.32449287 0.043001674 -0.39237133 -0.59337646 -0.107543245 0.18083884 -0.050603967 0.37791947 1.0246311 -0.08823226 0.7690306 -0.2709397 0.015281313 -0.5483627 -0.3358251 -0.5455327 -0.48666638 -0.8752272 0.8154134 0.25512305 0.302201 -1.200476 0.3303995 -0.744654
43 -0.15845832 0.24796183 0.66591376 -0.67474645 0.47129402 -0.42272443 0.69141257 0.1356151 -0.77567816 0.19655919 -0.05122153 0.45276085 0.24721576 0.16909218 -0.106660455 0.075359486 -0.15043923 -0.37342966 -0.4278656 -0.05913684 0.9907051 0.023131914 -0.5538396 0.059456676 -0.9951231 -0.0020827996 0.28952667 0.28397867 0.04712941 0.52907497 -0.3808081 -0.2934846 0.08857254 0.32936677 -0.39452347 0.6204154 -0.3907535 -0.20023575 0.11053029 0.46859968 -1.2413745 0.29142654 -0.20191705 0.9846786 0.23920992 1.081466 -0.13235274 -0.30992484 -0.85605735 -0.3222358 0.3058876 -1.0299431 -1.0581561 0.08882944 -0.56597954 -0.2990891 0.4966314 -0.8268416 0.13628985 0.6914379 -0.14403144 -0.14875205 -0.18465544 -0.22012706
81 -0.35966608 0.84957045 -0.29356802 0.094341144 -0.2618139 0.069411136 -0.085620336 -1.1603931 0.40416428 0.46165127 -1.0300109 -0.06185649 -0.10735013 0.03710047 -0.3159599 0.32907435 -0.092531525 -0.17699383 -1.2473642 0.22204924 0.13288127 -0.03018477 -0.9068929 0.033308767 0.6909793 0.2963425 0.75564605 -0.4016714 0.15115662 -0.041937806 -0.6054005 -0.81955373 -0.2077383 -0.050364584 0.22012252 -0.360745 -0.892843 -0.477113 -0.6333641 -0.33091977 -0.5148171 -0.274553 0.50321686 -0.43289876 -0.24699646 0.28175408 -0.030744446 0.39611018 0.4024042 -0.49560714 0.3548325 -0.19592059 -0.3331098 -0.34414598 -0.0053242194 0.6924925 -0.11041533 -0.44918174 0.5385372 1.1225377 -0.045933355 -1.2949107 0.14666301 0.06346018
56 0.21365063 0.5251243 -0.5086768 -0.40781805 0.27038196 0.10986503 1.0880159 -0.08486078 -0.62179756 -0.6360556 0.25609428 0.402009 0.12925562 -0.28204072 -0.5280316 -0.14033587 -0.4482088 -0.89290947 -0.20883645 -0.25252846 0.7345176 -1.2868242 0.06931033 -0.4999238 -0.30512464 -0.26087174 0.15404466 -0.004252926 -1.4152703 -0.94520116 -0.5761232 -0.10857437 -0.077648304 -0.12348767 0.5851715 0.16617703 0.037843976 0.4831285 0.22053976 -0.33750945 -0.30504772 -0.65690976 1.0778061 -0.11489112 0.2628752 0.88061213 -0.2200616 -0.47203964 0.335581 -0.93707705 0.3187022 0.95653135 -0.48548776 -0.67163134 -0.015256854 0.24291468 0.38122246 -0.1981867 0.36815366 0.9634901 0.3848261 -0.63093525 -0.30337906 -0.2752378
20 0.71976143 0.009168352 0.6103652 -0.68910784 -0.14103022 -0.76065564 -0.4180565 -0.08599339 0.10673889 0.35927513 -0.44218022 0.07453743 0.09264375 -0.75615424 -0.6859409 -0.064582415 0.9666961 0.45690316 -1.1344647 -0.5751566 0.4815867 -0.5094216 0.6009893 0.6566852 -0.4550998 0.37068015 0.9650547 -0.3370053 -0.22184464 0.29411653 -0.16968009 -0.6332535 -0.48740727 -3.7741347e-07 0.84118515 -0.58442634 -0.9088244 0.8509688 -0.4057525 0.24169874 0.419809 -0.37479523 -0.0857413 -0.22629347 0.32755983 0.87259185 -0.1429792 -1.5975106 -0.16637939 -0.15781628 -0.64684045 1.2204393 -0.07062947 0.59847623 0.09975378 0.75039464 -0.2857011 -0.7815569 0.40320423 0.81828624 0.44359064 -0.18438701 -0.34022593 -0.38680843
94 0.2493474 0.16985738 0.17742021 -0.0913788 -0.1240993 0.33797503 0.68615913 0.6926227 -0.9425363 0.3196494 -0.6494758 -0.5167016 -1.0218747 0.6334968 -0.27677786 0.40909868 -0.8816888 -0.053352278 0.048069753 -0.0660787 0.60269725 -0.57465434 0.38073677 0.38443255 -0.8521312 0.07956357 0.77356374 -0.12150373 -0.27825874 -0.13441573 0.0095794555 0.39390025 -0.990233 -0.09543051 0.55130744 -0.8909056 -0.5756642 -0.830584 -0.6932321 0.49882838 -0.2803389 0.98835814 -0.024331825 -0.38234589 0.04675123 0.0018918432 -0.40726155 -0.024862658 1.0891507 0.27509692 1.0019997 -0.17459488 -0.2917655 -0.17240688 0.13577484 -0.55120635 -0.34220675 -0.73388714 0.43573204 0.9655541 0.20224813 -0.5162507 0.01694637 -0.5156353
112 1.0572907 0.18957011 0.8934661 -0.106206186 0.055917334 -0.085022226 0.7608323 -0.14117353 0.08861587 -0.045234885 -1.2324897 0.23585247 -0.74571973 -0.849249 -0.06751638 0.23463038 -0.05785018 0.28812456 0.11005413 -0.9012375 1.0680884 0.0858863 0.17460324 0.32302555 0.22573897 -0.15542853 0.3796799 -0.2472657 -0.37148786 -0.08920383 -0.09101646 -0.69415605 -0.3135689 -0.41825283 1.5487167 -0.4032135 -0.9049839 -0.0070488974 -0.59770477 1.1007107 -0.73391557 0.22958912 0.34992796 -0.7009806 0.04558904 0.4091714 0.19138776 -0.7720588 0.32485545 -0.35779378 -1.3256096 0.44088054 0.30657008 0.7173083 -0.52720577 -0.14401929 -0.01124915 -0.8271349 -0.50092256 0.5197646 -0.54665816 -0.47903642 -0.22707206 -0.4509282
82 0.25777766 0.5880277 -0.029150952 0.14415187 -0.13953614 0.46077976 -0.07069889 -0.46677926 0.0010265412 0.2180769 -0.022487167 -0.39650047 -0.7955714 0.033792093 -0.40304327 0.924559 0.012272909 -0.54008573 -0.5977951 0.57885426 0.0159149 -0.25205538 -0.48987007 0.6537893 -0.05291164 0.3991275 1.1937867 0.0011806181 -0.45596427 0.012277865 -0.54459906 -0.3416704 -0.5048054 0.44222054 0.19511808 -0.7573357 -0.68443066 -0.8521441 -0.8170762 -0.06840088 -0.52162796 0.78367406 0.87424546 -0.25893554 -0.20666268 0.10561488 -0.41824865 0.037366256 0.3876416 -0.17369072 0.590853 0.03263777 -0.6247514 0.029668225 0.49594593 0.7564038 -0.06346542 -0.28707623 0.09861621 1.9082296 -0.076926626 -0.6618271 -0.2825996 0.41072667
54 0.085428886 0.84837115 -0.89220667 0.13015789 0.7790527 0.40780926 -0.045709353 0.93574893 -0.9380211 -0.3685745 -0.36952877 0.5906667 0.11565664 0.18108296 -0.56839746 0.15151222 -0.89727795 -0.9638609 -0.527155 -0.10499491 1.0559068 -1.2002411 0.22184674 -0.15861994 0.013780025 0.00021660607 -0.25873205 0.12985049 -0.7246345 -0.29944938 -0.31032553 -0.18970862 -0.5949159 -0.65034014 0.34140363 -0.27843 0.23446764 0.62108594 -0.22754653 -0.13040914 0.2280275 -0.6912823 0.74984354 0.7012216 0.40123206 0.9871669 -0.25043657 -0.5652714 -0.07023511 -1.0396961 -0.055299144 0.6936333 -0.10823336 -0.6032225 -0.46722525 0.565497 0.5340463 -0.57879025 0.023040086 1.523467 0.22684288 -0.14396402 0.54208964 0.09368154
118 0.19277067 0.21942699 0.3248926 0.124789014 0.4959689 0.3114846 0.44152007 0.56828266 -0.53437823 0.15400055 -0.21647094 -0.109511845 -0.39335075 0.52357495 0.06396108 0.020859348 -0.8919172 0.018275306 0.28323093 -0.435665 1.2190907 -0.22201207 -0.23587148 0.26901868 -0.08942836 -0.22263083 0.7241368 -0.15064935 0.18942267 0.67404723 -0.58508587 -0.20517164 -0.6528095 -0.032889158 0.29354557 -0.35574722 -0.88607293 -0.115712844 0.12964526 0.05119607 -0.22596377 1.1810107 0.07426851 -0.45701656 0.07553694 0.10632481 0.013425598 -0.27413782 0.90157163 -0.30172065 -0.6872246 0.060438428 -0.14090706 -0.47446087 -0.5019037 -1.1273984 -0.5287973 -1.1417006 -0.21533105 0.15308446 0.33133104 -1.3245784 0.9938344 -0.20199026
163 0.59190035 -0.20084026 -0.18720978 -0.8531484 -0.20382355 -0.53120106 0.31753126 -0.16731168 -0.10376939 0.30785096 -0.48697013 0.1515108 -0.14086246 -0.12546045 -0.31200263 0.48223293 0.58916044 0.577158 -0.20815271 -0.55774504 1.0876437 -0.030361712 -0.11392556 1.4136419 -0.4040363 0.104207814 0.4329571 -0.5101163 -0.59738505 0.3610204 -0.06249713 -0.6743242 -1.0347221 0.08731117 -0.47025752 -0.87998766 -0.95348054 0.79139185 0.0949115 -0.32797468 0.64341116 -0.4668525 -0.789538 0.5807089 0.23704796 0.54940206 -0.80698186 -1.1061913 0.030960103 -0.14636919 -0.3200461 1.6905062 -0.98320204 -0.14408642 0.27123255 1.0419724 -0.081100866 0.032869656 0.9342259 0.5393628 0.21299963 -0.33760926 -0.32588035 -0.11814026
32 0.79318976 0.22376639 -0.9605938 -0.074580595 -0.041462805 -0.5347319 -0.70960724 -0.25825256 -0.90638405 -0.32045922 -0.5041678 0.10178192 -0.78149813 0.27403912 -1.19236 0.28592822 -1.1905743 -0.7432317 -0.051306948 -1.0797802 0.69303364 0.9263762 -0.057431944 -0.36099437 -0.17453773 0.3682329 0.8373009 0.89745414 0.14435694 -0.006461172 -0.3493227 -0.44692242 -0.88996387 -0.18453471 0.13244253 0.56539166 -0.56887543 0.44528905 -0.77870077 0.5356084 0.52902913 -0.58626026 -0.20160295 0.24454394 0.2622919 0.9313343 -0.299484 -0.22341006 0.39405286 0.01739617 -0.6344542 -0.11630057 0.010416958 0.65531325 -0.36979756 0.17854069 -1.6513381 0.5628747 0.7078579 0.7596148 -0.37557134 -0.87845886 -0.53535306 0.28362343
104 0.43449244 -0.22749002 0.99166834 0.35488302 0.45849028 -0.3956605 1.0354862 0.41697738 -0.8686484 0.2689242 -0.74257267 -0.044549834 0.040014364 0.57999516 -0.5122247 -0.18079498 -0.1800421 0.508738 -0.5959312 -0.53493947 0.81482375 -0.59743756 1.1393883 -0.28404164 -0.5900182 -0.19847293 0.73088694 -0.43974948 -0.6648334 0.14885561 0.1345363 0.108609475 -0.7382614 -1.0596288 0.7189976 -1.5202162 -0.6555108 -0.015337509 -0.53699166 1.0163546 0.31834593 -0.20682181 -0.12957938 -0.4907713 0.1507943 0.4300661 0.16548824 0.14514954 -0.20389026 -0.18323356 -0.16136928 0.5045863 0.27083296 0.45192397 -0.12966071 -0.9828882 -0.8787174 -1.1850356 0.54193693 0.35558468 0.92455506 -0.93261766 -0.6151183 -0.55529404
