170 64
162 0.16824773 -0.046651464 0.05552421 -0.3579665 -0.10300815 -0.013301056 -0.10508536 -0.12391283 -0.4140524 -0.062183626 0.1299805 0.13750353 0.20027155 -0.23570256 -0.17550276 -0.23573655 0.077155754 -0.28281096 0.3574976 0.07880398 -0.019252148 -0.091903694 0.18333021 -0.2465988 -0.23161805 0.0011486014 -0.20399994 -0.06837144 0.096033305 -0.49080497 -0.47783646 -0.11615072 -0.14147797 -0.1615829 0.08375165 0.06847454 0.046003032 -0.111280605 0.08258964 -0.36029318 0.039654247 0.4234988 -0.18768394 -0.06286266 -0.14102753 0.41711986 0.52371985 0.061324194 -0.037550233 -0.109991685 -0.4339825 0.13550708 0.099047646 0.035003904 -0.37061363 -0.2877207 -0.07192745 -0.13717666 -0.02545707 -0.1585691 0.1480989 -0.3889517 0.046235923 0.21789859
40 0.1681488 -0.07597401 0.085279934 -0.38871443 -0.058855984 0.023175249 -0.01132525 -0.09951237 -0.34494787 0.02476607 0.075461015 0.13390598 0.1804989 -0.23898141 -0.17237961 -0.22032978 0.08822855 -0.24949095 0.29406393 0.07356293 -0.016224325 -0.052590996 0.16066875 -0.23657347 -0.26232985 0.057543147 -0.17747936 -0.111888625 0.06376294 -0.48537293 -0.45400855 -0.08578337 -0.13660523 -0.18714125 0.017717779 0.09669923 -0.019316472 -0.12627286 0.081441745 -0.34777167 -0.012485321 0.43113977 -0.13415448 -0.06700718 -0.08039888 0.472786 0.530249 0.049362916 -0.019915555 -0.1522757 -0.44116348 0.15917955 0.06886552 0.022792555 -0.445069 -0.29268262 -0.111325495 -0.12318697 -0.026916616 -0.17069985 0.13107248 -0.35922328 0.041363597 0.2978928
98 0.50979024 -0.26396653 -0.16825785 -0.91830856 0.13096686 -0.09553733 0.20782925 0.03922324 -0.3017432 -0.304263 0.7544171 0.5986039 0.26671153 -0.22356889 -0.11161525 -0.061633144 0.07141063 0.056464545 0.2358247 0.12391242 -0.70097613 0.340527 0.24804476 -0.68057096 -0.16228922 0.3841492 -0.66915834 -0.038082622 0.5638095 -0.32198334 -0.4942051 -0.5207246 0.40974525 -0.13843976 0.08130064 -0.52791137 0.4537668 -0.6265143 0.52614444 -0.1849814 -0.19220544 0.41926077 0.49012414 0.41018808 -0.2008329 0.81333005 0.98031616 0.677042 -0.022568021 0.10703661 -0.52289647 -0.10486857 -0.06742357 -0.15600826 -0.4458768 0.22210386 0.19782363 -0.04268577 -0.35200444 0.14295077 -0.3395439 0.17544037 -0.10698869 0.008258151
13 0.18536112 0.014795017 0.044003822 -0.39977092 0.0658656 -0.19725257 -0.116808064 -0.017011965 -0.41508445 -0.107001655 0.08461037 0.08644488 0.015776554 -0.060003337 0.00917124 -0.25559956 0.18868312 -0.22253624 0.2884887 -0.14385091 0.16712016 -0.1506469 0.12148892 -0.16718523 -0.08196345 0.17140348 -0.36529353 0.027180588 0.26987222 -0.44657397 -0.3663964 -0.14284874 -0.07873233 -0.16180694 0.02029286 0.041767213 0.0044753663 -0.34432095 -0.032493595 -0.40839624 -0.09717258 0.44414538 -0.09719028 -0.14633392 -0.15401398 0.38098794 0.43171918 0.084056064 -0.07152629 -0.1866794 -0.4301 0.20015594 0.037540488 -0.056301717 -0.33334488 -0.2314816 -0.07651105 -0.1455298 0.06815503 -0.052395113 0.15019195 -0.25757557 0.04325094 0.30632117
63 0.14684768 -0.35950977 -0.43559605 0.86523646 -0.1426483 0.027909674 0.3224794 -0.17004506 -0.81616914 -0.21167894 0.4256149 -0.10446364 -0.06490034 -1.0690417 0.44139498 -0.37915632 0.20419867 -0.5380047 0.5375512 0.2650224 -0.5241328 -1.5395458 -0.98184836 -0.6356219 0.6504748 0.8248354 -0.3554988 -1.2817594 0.19842188 -0.5247042 -0.073376805 0.84706396 0.3645081 -0.340151 -0.5841402 -0.030684091 -0.64719063 -1.013123 0.040296156 -0.29664323 -0.53492826 0.8185111 -0.35126132 -0.4538632 -0.23800083 0.04428648 0.23611152 -0.4233971 -0.012452978 -1.1826024 -2.013239 0.15178439 -0.18428856 -0.4628693 -0.642956 0.1373345 -0.36472946 -1.2210877 -0.04985605 0.86812097 -1.0164454 -0.91409326 0.5412517 -0.16927876
64 0.7604701 0.1859141 -0.066927835 0.35725498 -0.12158334 -0.084614106 0.6047475 -0.29493573 -0.4984572 0.11122511 0.095748715 0.48616916 -0.4252007 -0.54331696 0.47637865 0.06565826 0.38739258 -1.026694 0.7130454 0.19320655 -0.4113531 -2.139047 -0.63904774 -0.6747622 0.5588797 1.0463692 -0.071638815 -0.69640875 -0.600917 -0.42143393 -0.90969664 0.48481035 0.38414112 -0.4205648 0.0012547061 0.23215042 -0.0018233886 -0.563673 0.047752783 0.15769221 -0.2984053 0.786441 -0.37300113 -0.8710572 -0.13375771 -0.34681383 0.80587393 -0.4595328 -0.04631672 -1.5189105 -1.1870521 0.5540038 -0.60470384 -0.048185572 -0.6002063 1.129632 -0.5183258 -0.39780253 0.18196726 1.2413448 -0.15680845 -0.6910421 0.26545876 0.354992
61 0.7734369 -0.34246147 -0.17163871 0.8914922 0.027218254 -0.33385268 0.5753327 -0.30438608 -0.7469744 0.42720073 1.3689748 0.13593811 -0.046360157 -0.2310333 0.70034826 -0.61061245 0.92742926 -0.8809443 0.6936647 0.11145108 -0.847168 -0.99811393 -1.1658412 -0.28237784 0.32240227 0.63678753 -0.30971226 -0.7772571 0.42522517 -0.26501188 -0.27071917 -0.0036490033 0.4118175 -0.4784974 -0.05261201 -0.6430798 0.021013664 -0.6473699 -0.32465106 0.05402665 -0.23468028 0.38261673 -0.33882368 -0.6001769 -0.272883 0.69218904 1.0721679 -0.25228608 -0.050202932 -0.836807 -0.9282248 -0.030948184 -0.35391006 -0.32426733 0.15246317 1.0070634 -0.024328949 -0.7197574 0.099156715 0.80444443 -0.53913784 -0.28860995 0.14558713 0.30132696
142 0.8367343 -0.77746946 -0.25854003 -1.6161757 0.31179476 -0.06059716 0.021978457 0.118147224 -0.48378494 -0.35495487 0.56684226 0.3688126 0.5508967 -0.5144294 -0.41180667 0.4364521 -0.40140674 0.5147991 0.34214512 0.4161705 -0.97581476 0.42066854 0.6096383 -0.6592918 0.0651298 0.14335491 -0.57096064 -0.043732766 0.7339988 -0.6858368 -0.22428429 -0.16809693 0.55809563 -0.4880031 -0.40754628 -0.29178756 0.1975649 -0.8849851 1.3211141 -0.3902429 -0.35792252 0.4106638 1.0322148 0.73845917 0.017474726 0.6673701 0.43267456 1.1843692 -0.060784135 0.22627933 -0.8588528 0.13525334 0.13770807 -0.29899067 -1.0560634 -0.6366691 0.06936284 -0.41335684 -0.9556988 0.5141034 -0.60106665 -0.35058796 0.19935879 -0.514403
141 0.5205491 -0.22356713 -0.45316395 -1.1332684 0.47893488 0.06251446 0.35393795 0.15989214 -0.020591037 -0.6706267 0.27086878 0.53355527 0.029120611 -0.6763625 -0.22801389 0.23053993 0.19592988 -0.29013693 1.1774354 0.8599665 -0.955648 0.5061074 0.65482557 -0.32371846 -0.14031045 0.2685973 -0.4406487 -0.20161557 0.7216416 -0.6466969 -0.9192027 -0.618551 0.28194275 -0.551525 -0.11470817 -0.23965183 0.6704817 -0.68687975 0.26722676 0.046160586 -1.0795555 0.83 0.88590837 0.29551786 -0.7094511 0.67038375 1.0512947 0.9048238 0.36930215 -0.006293299 -0.12859848 -0.052038155 0.49049777 -0.03754327 -0.5177581 0.07317427 0.5134188 0.30818078 -0.09031085 0.61259216 -0.54297185 0.33772957 0.027163666 -0.18392034
122 1.0341086 0.04289544 -0.23051909 -1.5728692 0.14383796 -0.4903768 0.44801325 -0.26077393 -0.16193832 -0.25319836 0.7226482 0.2451704 0.20194109 -0.4819982 -0.48663068 0.22471589 -0.4799935 -0.27101916 -0.20527174 -0.10019391 -1.3032986 -0.06512134 0.3541307 -0.48411125 -0.20303154 0.1297065 -0.24538274 -0.08578227 0.39833218 -0.92015016 -0.90937746 -0.5532544 0.5150693 -0.08769559 -0.13241084 -0.52078694 0.89622855 -0.7459896 0.3004042 -0.43970868 -0.41016844 0.3248725 0.2948042 -0.0034393894 -0.058249872 0.82244396 0.81750005 1.0069506 -0.36337116 -0.02420484 -0.77117926 -0.5848641 0.09647411 -0.06617089 -0.17957519 -0.003867112 0.21643724 0.3145527 -1.015518 0.22560711 -0.5933567 0.5575914 0.43492168 0.22973263
120 0.7603853 -0.1099105 -0.09054331 -1.2797325 -0.11608467 -0.13523127 0.19249077 0.15323031 0.048918236 -0.41946706 0.538675 1.0318933 0.28695294 -0.16735628 -0.11833934 0.3150301 0.27949855 0.17931318 0.18027295 0.00033253024 -1.0925121 0.07596844 0.23816293 -0.48391587 -0.3305433 0.30358762 0.033589758 0.15845598 0.6373263 -0.8015401 -0.6380784 -0.38342232 0.33039543 -0.20819785 0.1229517 -0.7886741 0.7126709 -0.52249783 0.6770921 0.3788034 -0.48591974 0.32598606 0.23583886 0.10873688 -0.3976228 0.77098435 0.8773638 1.039062 0.059815362 -0.024805214 -0.39646792 0.0063018445 -0.3234434 -0.32664376 -0.8299954 -0.30946016 0.13916492 -0.4589234 -0.13416655 0.20156433 -0.3834137 -0.26125655 -0.24785848 -0.18584582
7 0.41796806 -0.109851345 0.037871756 -0.57224864 0.17209598 0.13277207 -0.018324612 -0.34945443 -0.35562393 0.1074777 0.10966401 0.14120594 0.14724374 -0.27162877 -0.027097922 -0.037411083 0.067827925 -0.15623093 0.28628162 0.11426172 -0.18631144 -0.06777693 0.103231065 -0.19357559 -0.26388368 0.029679691 -0.3763757 0.1723293 0.4456255 -0.103192516 -0.5108681 0.047998227 -0.061767202 -0.18267392 0.030538483 -0.17761071 0.1077902 -0.06168787 -0.10931185 -0.4525406 0.10735117 0.51401705 -0.023606323 0.1121126 -0.16402113 0.5298321 0.57200867 0.23034468 -0.1740978 -0.16950008 -0.14792825 -0.049512047 -0.113637276 -0.1531408 -0.33129415 -0.21525723 -0.15567094 -0.21534953 0.06820344 0.19466075 0.12733983 -0.39917818 0.101471506 0.28499523
119 0.8770344 0.06814723 -0.3327934 -1.3201259 0.017932681 0.3467379 0.12771828 -0.38074 -0.31282163 -0.3627416 0.64748126 1.3249124 0.06615982 -0.057727367 0.008690385 0.38458604 -0.23228951 0.46039099 0.40472803 0.325162 -0.97797817 -0.21547012 0.8700387 -0.4018631 -0.07653423 0.642922 -0.53729814 0.18907477 0.22652857 -0.52121466 -0.52319825 -0.69703126 0.107560076 -0.36345494 0.051942818 0.21308096 0.55753213 -0.6161285 0.7145177 0.12049967 -0.27949223 0.41422895 0.82828647 0.47664553 -0.0210133 0.35911584 0.9516406 0.41114485 -0.34326607 0.04551216 -0.6628573 0.39382464 -0.40730318 0.078684025 -0.54607207 0.21941261 0.23259315 -0.050700344 -0.45109814 0.19929229 -0.40357754 0.33575565 0.063051015 0.42329964
106 0.08509248 -0.51060385 -0.21649519 -0.5608227 0.2585707 -0.10913031 0.33827865 0.5261952 -0.51189137 -0.2587134 0.09369255 0.41271085 -0.045473747 -0.05608683 -0.36365706 -0.24660914 -0.4027166 -0.21651629 -0.029261129 0.49668184 -0.761103 -0.28214663 0.47236097 -0.30254093 0.073542304 0.119708285 -0.21573263 -0.43010804 0.15645103 -0.6902254 -0.8157515 -0.8126384 0.22646923 -0.8150416 -0.17834097 -0.030835181 0.40866828 -0.21817876 0.6483142 0.09905739 0.28125075 0.13678627 0.46986774 -0.32727835 -0.5522424 0.47740275 0.54022896 0.0702474 -0.31154126 -0.016629772 -0.05689107 -0.09747993 -0.48640114 -0.4912488 -0.45472312 0.31911373 0.10739622 0.010265115 0.1128717 -0.6154206 0.07164154 -0.4781363 0.7324395 -0.2638887
128 0.2494105 -0.24031173 -0.014203298 -0.3938711 0.37696308 -0.0019056769 0.4509623 -0.35349384 -0.23868084 -0.41119808 -0.27195582 0.113270506 0.05792836 0.48856115 0.16834374 -0.4526465 0.069059186 -0.091656886 0.5313467 -0.18205215 -0.45494437 -0.15230331 -0.33790877 0.043631747 -0.038964808 0.31225568 -0.53816473 -0.25642234 0.00031752238 -0.36810157 0.0836711 0.10467349 0.27342448 0.121515855 -0.22072473 0.29527563 -0.29844174 -0.12625189 0.120265715 -0.5235206 -0.56417435 0.25595382 -0.19196397 -0.2570894 0.04707761 0.68686587 0.44917846 0.36739293 0.1068665 -0.56069857 -0.065271854 0.15671189 -0.45919445 -0.2992282 -0.22146903 0.079772994 -0.24302498 -0.15608796 -0.02365119 0.10181298 0.11331849 -0.04401906 0.101844564 -0.16387127
153 0.28353593 -0.40009186 -0.41866654 -0.045698866 0.07581277 -0.047280304 -0.36068606 -0.26996684 -0.42945006 -0.18804651 -0.22731918 0.17970179 0.2607489 0.09704786 0.03431645 -0.44566986 0.0032368328 -0.101447575 0.27843475 -0.27411345 -0.7001293 -0.15928683 -0.41889873 -0.26790547 0.354184 0.053347915 -0.39710587 -0.1339921 0.014344873 0.021662077 -0.25467348 -0.21560253 0.21374732 0.031067595 -0.010776178 0.41801664 0.05730646 -0.40760016 0.3863053 -0.39012748 -0.3197465 0.6759085 -0.47032797 -0.14853461 -0.16888785 0.22401798 0.2390163 0.27416793 -0.09912598 -0.65409327 0.0042112484 -0.039843548 -0.3766171 -0.100465916 -0.096257076 -0.065047905 0.36384326 -0.105058685 -0.17055745 0.15586117 0.24614993 -0.15965901 -0.4190669 -0.092727534
93 0.10366192 -0.54619426 -0.25550446 -0.49555272 0.011133354 -0.34436554 0.39945468 0.3680909 -0.578464 -0.3430192 0.3881773 0.41890556 0.11529613 0.030379243 -0.14035073 -0.15543315 -0.15671864 -0.09989976 0.042573888 0.33673927 -0.8606492 -0.36579204 0.46231544 -0.28734806 0.15635008 -0.04551118 -0.1953035 -0.19077216 0.12616247 -0.5518594 -0.6385721 -0.811169 0.5118592 -0.54778355 -0.17474633 -0.003858187 0.33790383 -0.3208552 0.4118484 0.20893592 0.044557896 0.23244055 0.47604325 -0.05584453 -0.4647589 0.54551774 0.71875334 0.3338782 -0.17745781 0.204218 -0.21415505 -0.09846405 -0.1927975 -0.4026764 -0.33108863 0.077216126 0.19391975 0.1678519 0.09848707 -0.31689242 0.30493712 -0.3764879 0.687225 -0.12874034
144 0.7162336 -0.07298807 -0.27032438 -1.0867932 0.31638327 -0.023847269 0.089210175 0.14906383 -0.16658667 -0.59453815 0.43687946 0.8940889 0.06618293 -0.15531003 0.15090655 0.31405154 -0.0015819753 -0.21557218 0.079443336 0.2559283 -0.75427264 -0.06621506 0.23541798 -0.45005292 -0.35050437 0.146 -0.447694 0.39087388 0.29573607 -0.36873433 -0.29584554 -0.09950875 0.28399584 -0.32797784 -0.19875044 -0.3096626 0.58829474 -0.69713277 0.5235235 -0.39711744 -0.1925806 0.68810207 0.60654795 -0.043569367 -0.067945085 0.75040466 0.7172431 0.4855898 0.06128509 -0.18355766 -0.4831982 -0.13162257 0.12509193 0.11617318 -0.58291036 -0.07971207 0.14145471 -0.054522675 -0.32041427 0.37873805 -0.36116537 -0.18467125 0.044866517 0.1975903
150 0.69698244 -0.8251093 -0.45316184 -0.024076069 0.08479176 0.5048345 -0.11476013 0.23685753 -0.12893984 0.7178812 0.28807208 -0.5516799 0.20067944 0.49754903 -0.44791245 -0.68547916 0.59182674 -0.99087876 0.36855912 0.5139268 -0.46050456 -0.56974244 -0.5220416 0.3629311 0.5830605 0.19768254 -0.38851997 0.10206385 -0.5666104 -0.5978956 -0.2251433 0.109669365 0.3285092 0.72399217 -0.68100005 0.14641123 0.10839324 -0.8827059 0.40047356 0.30977756 -0.67699313 0.17159925 0.09767013 -0.17065157 -0.47452384 0.08519578 0.93409944 0.874304 -0.041648902 -1.4906542 -0.9676212 0.7012672 -0.28148285 -0.92733765 -0.9655313 0.8152948 0.005437971 -0.97530776 -0.88941 0.52647996 -0.04452964 -0.36405155 0.44986272 -0.101318695
53 1.1351818 -0.29499298 -0.679185 0.25624073 -0.07001124 -0.10762687 -0.10100175 -0.6877224 -0.12678303 0.12076757 0.46246994 0.5590533 -0.26698443 0.15816417 0.025525665 -0.13597158 0.025281893 -0.896839 0.10784545 0.55564016 -0.19087607 -0.8723277 0.009454938 0.08512413 0.33444437 -0.06056399 -0.14121395 -0.68130094 -0.8694621 -0.5732896 -0.039615896 -0.5024878 -0.20935512 -0.032121837 -0.5991922 0.50463223 -0.2420857 -0.4073616 0.3952666 -0.08163769 -1.018227 0.2555163 0.13590494 0.3014178 -0.28333038 0.2504456 0.99041116 0.79202044 -0.03182592 -1.0198048 -1.0863949 0.15307051 -0.85338175 -0.90887 -0.20497696 0.25871864 0.016700573 -1.1344959 -0.23503935 0.4573716 -0.32209298 -0.11362097 -0.05861088 0.039102495
18 0.2434178 -0.47713 -0.18143713 -0.24654843 0.37485352 -0.18538363 0.41542333 -0.29505917 -0.14736578 -0.20849249 -0.3017504 -0.15715687 0.5714335 0.22792402 -0.14814304 -0.35458183 0.26552725 0.1227775 -0.23928405 0.01834973 -0.39171305 -0.4157062 -0.017478261 -0.27183643 0.048659205 0.15012367 0.12508997 -0.0770796 0.18410257 -0.5027578 -0.014061796 -0.1735302 0.010730267 -0.42995614 -0.055650778 -0.018728351 -0.31511244 -0.49667698 0.06455349 -0.24551806 -0.28361198 0.9300217 -0.041083183 0.22071354 0.21130168 0.26565364 0.23490886 -0.05970101 -0.26749 -0.190007 0.09867356 0.34164837 -0.44593912 -0.008965941 -0.37785274 0.051001623 0.21279635 -0.30079097 -0.028399514 0.29230052 -0.029740032 0.22090608 0.09062047 0.075366534
55 0.78741413 -0.9435476 -0.39286694 0.564579 0.3133036 -0.43822402 0.14479195 0.39149633 -0.38209048 -0.13320541 0.20896287 -0.7804449 -0.42346314 0.37460458 -0.43487325 0.44316813 0.27136457 -0.77381253 0.44769123 0.39227492 -0.10619422 -1.1924183 -0.6070361 -0.40594092 0.08871384 0.21519141 0.07702754 -0.48979342 -0.63129324 -0.30802163 -0.043601327 -0.23180452 0.11550797 0.07210484 -0.48276126 0.23675732 0.17281412 -0.7884318 0.28916788 -0.16796584 -0.3786986 0.08679416 0.49876675 0.03460269 -0.5986278 0.96514624 0.47498396 0.7986808 0.25117314 -1.3602903 -0.44811016 0.14660983 -0.72953486 -0.49438068 -0.5570633 0.31665957 0.05756607 -0.7336242 -0.7300832 0.45372757 0.31374115 -0.9347747 0.065851316 0.09583368
66 0.5617688 -0.6890166 -1.1260811 0.15716413 0.11580192 -0.3678161 -0.10510101 0.22726963 -0.55208814 0.41617945 0.2892177 0.1436498 -0.14270847 0.45902967 0.0292129 -0.2154754 0.68105185 -0.74845725 -0.02867414 0.91876465 -0.07616395 -0.7399556 -0.060711715 -0.09058206 0.9485001 -0.3388531 -0.3232759 -0.40040827 -1.0080181 -0.6613682 -0.25831327 0.26474398 0.6563908 0.14324518 -0.63411856 0.026610933 0.21748835 -0.5802392 0.09963092 -0.46132582 -0.6140618 0.42585167 0.11815067 -0.53368926 -0.26807156 0.5471702 0.31086895 0.6506679 -0.21653901 -0.80870396 -0.4327475 -0.16687886 -0.5582846 -0.025359951 -0.7984825 0.6030727 -0.70117086 -0.8141355 0.33800718 0.33288714 -0.12630422 -0.4841237 0.32605243 -0.38238153
67 0.7726399 -0.8359928 -0.22909625 0.2592644 0.53683096 -0.2142769 -0.1308743 -0.31111398 -0.09428182 0.47581315 -0.3054408 0.006038057 -0.22433898 0.26193812 0.37309387 -0.286041 0.12921707 -1.2741406 -0.048003696 0.16799024 0.12077329 -0.832381 -0.4135105 0.12099671 -0.028703738 -0.30862626 -0.018252982 -0.15789573 -0.5981044 -0.20656073 -0.1981903 0.24598013 1.1290481 -0.3824888 -0.7115132 -0.32161576 0.41402605 -0.45689437 0.45494288 -0.60642046 -0.76240945 0.44937375 -0.08597577 0.32028982 0.1967605 0.2673909 0.9631094 0.9535974 0.434342 -0.8050218 -0.8878367 0.36690828 0.07458724 -0.63922197 -0.49914032 0.6872967 0.38847858 -0.6797647 -0.29471081 0.15990646 -0.09611972 -0.80515456 -0.0041417344 -0.23054509
58 0.97846115 -0.7805171 -0.21427366 0.2898301 0.23274516 0.108850166 -0.09144547 0.10523297 -0.6422705 -0.43407744 0.28456774 0.36474562 0.36356243 0.11938836 -0.5069014 -0.2675838 0.5584035 -1.181952 0.36812732 0.4073338 0.05033513 -0.25861442 -0.49390703 -0.12745441 0.47589234 -0.3079918 -0.06588301 -0.18079984 -0.7295986 -0.46473524 -0.044417173 0.16186461 -0.15106986 -0.39670494 -0.71315086 -0.14681813 0.00889805 -0.51511705 0.42801088 -0.45006013 -0.07499664 -0.15423603 0.029201517 -0.1486999 0.19839954 0.09127629 0.8432089 0.41618234 -0.04273668 -1.1361951 -0.7050842 0.09726813 -0.30018583 -0.91374147 -0.45184606 0.15653235 -0.10818217 -0.3288005 -0.24607554 1.2170929 0.44182485 -0.2512699 0.2849169 -0.40058628
71 0.5898149 -0.46959028 -0.3238094 0.10162996 0.14718007 0.07819876 0.51141256 -0.7031096 -0.7774263 0.22535554 0.30902022 0.231125 -0.21245624 -0.9699182 0.25132167 -0.3320442 0.35951045 -0.3491799 0.6408874 0.21383181 -0.60149986 -1.5530019 -0.32143748 0.2673028 0.7515702 0.5958876 -0.80188763 -0.34311438 0.16252637 -0.04374434 -0.19105737 0.6491267 0.48412526 -0.72074807 -0.5684586 -0.1360852 -0.117408775 0.03910803 -0.12461361 -0.37380436 0.46284056 0.83866423 0.022830011 -0.11980769 -0.7838858 0.318802 0.41519135 -0.0931958 -0.14726521 -0.96013373 -0.6667176 -0.018185725 -0.38335565 -0.5641501 -0.062198866 0.7035868 -0.43256846 -1.1571479 0.10288796 1.3565364 -0.12299052 -1.1173779 0.33922395 0.64953256
34 0.82565403 -0.45648062 -0.22942725 -0.026449451 0.11757701 0.34026828 0.28782183 0.14420067 0.27414078 -0.3918162 0.033148877 0.24372062 0.14775848 0.3225574 0.2371561 -0.41423538 0.48560697 -0.3012039 0.44535673 0.20286088 -0.3506795 -0.32546884 -0.271194 -0.09906676 -0.09231129 0.5968068 -0.4811 -0.08803681 -0.10712554 -0.15561038 -0.6027002 -0.063357286 0.28126848 -0.032712925 -0.6431059 0.21526806 -0.25882885 -0.22613648 0.28615722 -0.69521207 -0.32663557 0.60482943 -0.24050418 0.22389877 -0.3722974 0.39777017 0.0020911656 -0.08879973 -0.35012114 -0.18930934 -0.066316955 0.27031484 -0.3035269 -0.3282144 -0.015880575 -0.027569389 0.05916459 0.05707534 -0.13573313 -0.065017104 0.0016684231 -0.24197625 -0.27817518 -0.40491408
59 1.0411412 -0.6469154 -0.30586284 0.20113471 -0.3001637 0.09321293 0.021667898 -0.76524854 -0.119961455 -0.16709189 0.16291429 -0.14955583 -0.33539775 0.16706368 -0.2892341 0.17061363 0.6308152 -0.26475814 0.39242816 0.27730635 -0.15198526 -0.28114754 -0.118407264 -0.41850522 0.8234326 0.1525254 -0.4729673 -0.36417535 -0.90067786 -0.9099896 0.06376869 -0.20788397 0.79500747 -0.17902558 -0.29360342 -0.18123534 0.22633295 -0.50087583 0.083014466 -0.5019413 -0.64153546 -0.11129929 -0.119477786 0.12687354 -0.14976926 0.18616813 0.3867998 0.38241643 -0.0777603 -1.0007684 -0.7935257 0.34994158 -0.27772775 -0.36194628 -0.9537373 0.7844474 0.22814201 -0.5864451 -0.6613003 0.5387406 -0.2539182 -0.42129976 -0.020790188 0.38094312
169 0.015774945 -0.19833088 0.0052524167 -0.6204645 0.057041407 -0.12458598 -0.09182906 -0.25610483 -0.28173348 -0.21981731 0.097763 0.4137181 0.42317182 -0.21301423 0.20802183 -0.07836055 0.21570587 -0.24690866 0.21661158 0.18753226 -0.33347052 -0.086716995 0.057458285 -0.24833892 -0.32981676 0.33707643 -0.17453083 -0.26407748 0.029088328 -0.013789304 -0.17338705 0.033241533 -0.12047276 -0.17051472 0.3619656 -0.036832035 0.04877207 -0.25020278 0.06929554 -0.6385671 0.20277631 0.36845115 -0.08512193 -0.22508849 -0.36449173 0.47772938 0.43143252 0.05815814 -0.10930627 -0.16725214 -0.32897153 0.16854835 0.08170623 -0.12760176 -0.34241018 -0.10335493 -0.21564372 -0.23085982 -0.22704647 -0.06370152 0.028037708 -0.101965465 0.02821213 0.19154908
22 0.26015875 -0.24677743 0.1532877 -0.40445295 -0.058046985 0.19046363 -0.17436948 -0.2567229 -0.5356423 -0.13997787 -0.1622206 -0.18819337 0.050394014 0.54920495 -0.5943852 -0.5648386 -0.0007052042 0.22232398 -0.06964375 0.1784804 -0.48316643 -0.5065342 0.0034109848 -0.66553277 0.09434089 0.6050091 0.25010198 -0.14747104 -0.15327138 -0.087835975 -0.26808396 0.1106191 0.0597905 -0.3355697 -0.26921955 0.025464218 -0.1077523 -0.46014002 0.21170397 -0.35337543 -0.506453 0.27591425 -0.04522173 -0.04481373 0.010468734 0.4107555 0.5913722 0.17877178 -0.18037425 0.40693274 -0.045682922 -0.06316122 0.009007168 -0.020838473 -0.1804328 -0.11284512 0.20820928 0.06992619 0.23091325 0.22715849 -0.25242954 -0.15506661 0.17338972 -0.0872381
155 0.43875754 -0.5672192 -0.39506373 -0.13220069 0.00061035 -0.048169896 0.4105678 -0.13643594 -0.06827118 -0.35491452 -0.4635753 0.3668048 -0.13832425 0.71665734 0.0601377 -0.50872004 0.031253036 -0.1848331 0.31724286 0.5516306 -0.45825657 -0.34717852 -0.47183648 0.06679192 -0.020288365 0.20101306 -0.44112208 -0.13654883 0.21862087 -0.11848173 -0.31271747 -0.37268037 0.16986893 0.375776 -0.11405451 -0.057509474 -0.2688973 -0.2566166 0.2120697 -0.54729307 -0.024080412 0.35750708 -0.20427579 0.20415577 -0.32528305 0.34003904 0.27285454 0.20833227 -0.16760975 -0.43408656 -0.49968165 0.27624518 -0.18997228 -0.16164246 -0.2828591 -0.027853763 0.050799727 0.18443143 0.08574115 0.4641627 -0.20486271 -0.2601813 -0.3513256 -0.17666468
70 0.20576183 -0.44060537 -0.73738295 0.46362942 0.56234854 0.5129864 -0.16682072 -0.26623088 -0.49995485 -0.076681726 -0.00047583072 0.38935763 -0.11429965 0.50706697 -0.2250364 -0.06870474 0.51709265 -0.67551196 0.333585 0.4020114 -0.43878204 -0.8850244 -0.24882577 0.1678158 0.19125757 0.11283181 0.08369827 0.008703786 -0.47295418 -0.5327365 -0.04601672 0.10033338 0.12460845 0.14297365 -1.0276629 0.16857363 0.77919763 -0.8740408 -0.1858326 -0.2791734 -0.23719436 -0.051483132 0.03367523 0.31981525 -0.007298817 0.7334177 0.5641096 0.054287728 -0.12931961 -1.2170783 -0.92090416 0.06036457 -0.4683775 -0.29264942 -0.34619334 0.4135337 0.48696977 -0.6346587 -0.14908749 -0.030598516 -0.22373639 -0.11779018 0.5797827 0.2809881
167 0.6587667 -0.709058 -0.49743906 -0.060474582 0.04633441 -0.07453368 -0.00031493724 -0.53989464 0.031598248 -0.2906872 0.010512961 0.09736882 -0.18807122 0.44963074 0.01007195 0.0696292 0.15909882 -0.6648817 3.0953e-05 0.027344052 -0.54170793 -0.36419055 -0.21156725 0.03426453 -0.079362564 0.15742435 -0.3674806 -0.039415523 0.038691275 -0.22041376 -0.15422389 0.33949932 0.17233126 -0.15403183 -0.3572434 0.20225151 -0.34132648 -0.57560724 -0.17224072 -0.09661807 -0.69087154 0.071530275 -0.03778314 -0.4047786 -0.2597744 -0.18282197 0.66099983 0.35344836 -0.31564984 -0.45412567 -0.16392992 0.08081958 -0.37893116 -0.060118515 -0.48013985 -0.08778519 0.1830001 -0.33646628 -0.07169323 0.057439927 0.22626022 -0.46399197 0.19412763 0.18243274
151 0.20771971 -0.3461026 -0.45738453 -0.32615328 -0.1997057 -0.18008514 -0.023897864 0.10076227 0.10750674 -0.8229379 0.1027986 0.011383741 0.09769602 -0.5576696 -0.019236462 -0.0072916867 -0.1305481 0.094467044 0.16766743 -0.07999046 -0.19731766 -0.14785428 -0.06867704 -0.29077315 0.3943674 0.49499708 -0.37803897 -0.10230046 -0.036388844 -0.116258696 -0.3367894 -0.27515498 0.06642725 -0.21611524 -0.19692552 -0.36882868 0.17469896 -0.08641188 -0.12855992 -0.017924368 -0.034983505 0.36443126 -0.17957734 -0.21690398 0.12764983 0.60704553 0.56057227 0.33662927 -0.4615113 0.35387978 -0.34675878 0.6558244 -0.04434025 -0.10956744 -0.22054085 0.017746145 0.24293423 -0.016948065 0.050743546 -0.29044977 -0.25244722 -0.60359514 0.56475294 0.1676194
160 0.47122416 -0.062081482 -0.7694494 -0.35100958 0.2993782 -0.38406825 0.07943873 -0.29783905 0.10734186 -0.12727594 -0.123109035 0.42647076 -0.12915988 0.60896415 -0.3801956 -0.71175057 -0.008959076 -0.37429696 0.6643772 0.44863254 -0.18274818 -0.23404759 -0.68582994 -0.71319413 0.031122217 0.18676612 -0.32748026 -0.24362183 0.396681 0.11833012 0.04986125 -0.10429826 0.4183694 0.041423805 -0.75928855 0.021376682 0.036980014 0.10999783 0.37506375 -0.39405358 -0.37381712 0.50444996 -0.21856903 0.009523962 -0.47541207 0.1778996 0.2801431 -0.28924745 0.17911184 -0.040830333 -0.28635502 0.42011863 -0.5163599 -0.24148288 -0.6769679 0.063596115 0.12611416 -0.088274784 -0.33856237 0.37824932 0.20282342 0.027481578 0.059887517 -0.019824633
109 0.4462973 -0.2001163 0.029196095 -0.18483345 -0.04236096 0.048057966 0.17289081 -0.07740591 0.060663767 -0.26641345 -0.39365914 0.43030775 0.08426812 0.46129662 -0.04293877 -0.10254375 0.4088916 0.09865309 0.109158486 0.10755122 -0.3750331 -0.29904857 -0.34554562 0.072871126 -0.077384695 0.11463466 0.56262153 -0.116677664 0.2406314 -0.82390696 -0.4402738 0.1426644 -0.032281734 -0.09395772 -0.09097846 -0.390865 0.16482437 -0.16131328 0.41377127 0.03464724 -0.5034522 0.38978875 -0.62477887 -0.19408327 -0.58238727 0.346994 0.061089516 0.28230104 0.012586796 -0.07599518 -0.1541919 0.37342852 -0.6337948 -0.43585092 -0.5541406 -0.31210688 0.1969342 -0.5518866 0.047172166 0.2870825 -0.1766582 -0.35439494 -0.2602219 -0.19159229
5 0.3680492 -0.2690818 -0.16387676 -0.17697363 0.13704665 0.08723352 -0.03176787 -0.39952484 0.03407436 -0.31607533 -0.0151232 -0.4013479 0.4621471 0.5686043 -0.22050364 -0.31439963 0.059766244 -0.042257972 -0.034044035 0.12565418 -0.39029 -0.5019729 0.28565282 -0.21696375 0.3824105 0.11376385 -0.20247564 -0.47333834 0.39687717 -0.5960223 0.022184266 0.4470604 0.32974043 -0.06867126 0.013009208 0.21865694 0.00039570613 -0.58460575 0.80974716 -0.1302091 0.016626943 0.62765557 -0.26820678 -0.19886492 0.23247354 0.67444307 0.65341914 -0.07197135 0.121457376 -0.07413164 0.08439089 0.37296686 -0.48180845 -0.23348644 0.118449785 -0.18451205 0.19151813 0.01652733 0.15826528 0.20172599 -0.15144798 0.101130396 -0.15898067 0.08964408
108 -0.18967697 -0.5032969 0.05776015 -0.1282368 0.10300137 0.39883965 0.05736577 -0.18869835 -0.64671814 -0.7306761 0.07614878 0.56886697 0.34385046 -0.30777434 -0.76034695 0.26465136 -0.08323051 -0.22529045 0.08195141 0.3625376 -0.33842012 0.1797223 0.26655787 -0.21823916 0.023514615 -0.17356649 0.03259081 -0.18631151 -0.27110898 -0.5713675 -0.25110745 -0.1110333 -0.04963771 -0.3118352 0.104939334 -0.3566248 0.66869134 -0.17081778 0.2688012 -0.5738129 -0.19913718 0.18057019 0.023695892 0.61926305 -0.3299909 0.9813271 0.24417138 -0.008290381 -0.21440274 -0.057863317 -0.5022605 -0.090149745 -0.2613678 -0.04445679 -0.54671973 -0.17475964 0.121705815 0.035689574 0.34135017 -0.5595834 0.17027365 -0.27518824 0.7339772 0.5277057
95 0.55193156 -0.72795427 -0.68887144 -0.9083976 0.41035214 -0.93462443 0.3183706 0.84638065 -0.77410376 -0.03894982 0.5944516 0.34649655 -0.013935241 -0.11894821 0.21954732 0.18370758 -0.46540815 -0.20963404 0.012505253 0.55653805 -0.6895548 -0.6241299 0.74219173 -0.6583296 0.2970489 0.0006590821 -0.010497339 -0.99827665 0.14812094 -0.5600548 -0.84750146 -1.1373032 0.18305735 -0.26362544 -0.27148327 0.39934844 0.6453062 -0.34013945 0.7942463 0.2871737 -0.32869455 0.3044042 1.0021912 0.21939866 -0.72213084 1.0103837 0.52706426 1.1116616 -0.11143363 0.35693675 0.034708038 -0.32600817 -0.71780854 0.0966662 -0.31767324 0.30371514 -0.33107993 -0.15483627 0.36904913 -0.39279094 -0.075098574 -0.45424765 0.6406143 -0.11734696
131 0.14609621 -0.5766637 0.23031828 -1.2743365 -0.31354257 0.39549896 0.3863069 0.68781585 -0.36480013 -0.2701154 0.24879391 -0.10836527 0.531493 -0.30391356 -0.6439649 -0.80356807 -0.24810044 0.62502843 0.38371348 0.74476284 -0.42526948 -0.5310983 0.032963663 -0.7053672 1.0129553 0.2232388 0.5711415 -1.1622024 0.06437303 -1.5686463 -1.3309451 -1.2074131 0.0014278281 0.6007765 -0.51104194 0.09798046 0.79417855 -0.080012076 0.60458344 0.46763402 0.107149154 0.058077775 0.2875312 0.40043128 -0.5112432 0.37546897 0.24628612 -0.03393531 0.17021246 -0.50786847 -0.6058903 -0.16970152 -0.72431237 -0.65796703 -0.8614156 0.5545116 -0.20159134 -0.09362535 -0.46594256 -0.5043454 -0.023468008 0.09610197 0.45710027 -0.0953337
127 -0.02749586 -0.2438507 0.057977702 0.20581026 0.22645862 -0.24461904 0.18309872 0.055460695 -0.032100834 0.026294215 -0.0560072 0.28958192 -0.20251487 0.2531769 -0.11547497 -0.09682332 -0.21466154 -0.06536926 0.5497913 0.5781386 0.09282805 -0.03470741 0.0030577662 0.08836261 0.1021987 0.1513795 -0.17914088 0.236852 0.07302911 -0.7014903 -0.650018 0.3246867 -0.034546006 -0.25140667 -0.22741008 0.21124668 -0.26588294 -0.75441384 0.26881763 -0.2969004 -0.13183224 0.3918539 -0.6298922 0.3187649 -0.5178791 0.33334842 0.6105183 -0.037634805 0.113947324 0.38867906 -0.29296908 0.13044278 -0.39929816 -0.05714769 -0.23437634 0.28706458 -0.07792006 -0.019080253 -0.5130092 0.2857663 -0.15462746 -0.15307899 0.00066572905 0.013459991
45 0.53525174 -0.5326035 0.29973394 -0.36259755 0.372907 -0.29471675 0.32490414 0.2928394 -0.2508145 0.42839915 -0.047308303 0.4194341 0.25344136 -0.11123365 0.8190975 -0.36002353 -0.4179749 -0.70026815 0.0024865116 0.059125032 -0.6569199 -0.34865326 0.21393129 0.16673084 -0.27489105 -0.106272794 0.12144466 -0.051788792 0.23933245 -0.17128454 -0.4938509 -0.7289183 0.8746782 -0.69402647 -0.13210037 -0.106705405 0.85898477 -0.25081158 1.0940723 0.30224377 -0.18659648 0.37105736 0.47374728 0.20737003 -0.083184466 0.1793413 1.1228251 0.76608765 0.17051037 0.5143455 -0.6693982 0.59362286 0.3824603 -0.1816341 -0.42451257 0.8286423 0.4971019 -0.0126405945 0.11696422 -0.3163509 -0.11757713 -0.5430228 0.9291642 0.16074248
79 0.23922984 -0.78069055 -0.09179232 -0.54723436 0.40228742 -0.20496203 0.5207283 0.9255601 -0.6560833 -0.23844226 0.44627813 -0.27006477 0.16762207 0.17074728 -0.73160034 0.23594458 -0.13087566 -0.14456289 0.6142377 0.1281658 -1.325663 -0.44910207 0.03931959 -0.34460443 -0.25510967 0.56403345 0.012791254 -0.10711123 0.5261636 -0.5416304 -0.77573186 -0.98954165 0.08347635 -0.29820427 -0.28643504 0.046867624 0.77469414 -0.73999745 0.56897014 0.6635891 0.37449914 -0.20175952 0.94403666 0.059343256 -0.6407216 0.97627354 0.7716401 0.42310566 -0.0853112 -0.26985767 -0.08444248 0.32623553 -0.31872642 -0.23886855 -0.45919475 0.23494655 0.48752376 0.22105195 -0.6359786 -0.20099331 0.44500124 -0.4421567 0.8636651 0.018329117
80 0.056368824 -0.6097262 -0.78220093 -0.9938242 0.19169478 -0.033695288 0.06909505 0.6854441 -0.7828894 0.31034765 0.5145941 0.53775656 0.50653595 0.21680485 -0.26661322 -0.49282137 0.2814769 -0.104345635 0.14753623 0.6721812 -1.275618 0.09002224 0.5178608 0.018037101 0.6691074 -0.112587556 -0.29790348 -0.04685051 0.16300945 -0.9733008 -0.93306565 -0.5465818 0.66759545 -0.15107429 -0.57112396 -0.21131834 0.7626753 -0.53911734 0.37732795 0.2802918 0.07041301 0.07824404 0.50206923 -0.3385057 -0.2955419 0.55271965 0.63083625 0.37741277 -0.48437217 0.23194341 -0.14639062 0.0430176 -0.080988824 0.095301785 -0.71419156 0.55176944 -0.26072684 -0.033665597 0.3448629 -0.347956 -0.07748951 0.039517473 1.0739915 -0.5182273
110 0.8342674 -0.23703323 -0.21064076 -0.24429722 0.28377575 -0.1312073 0.46373403 -0.18492287 -0.1170236 -0.1681133 -0.19822094 -0.13175602 -0.11286753 0.22795328 -0.086811945 -0.3642105 -0.26422188 -0.34118757 0.087967545 0.35495454 -0.28273258 -0.534728 -0.47534108 0.06411126 -0.10293774 0.019486418 -0.16074042 -0.15547812 -0.06524343 -0.6847099 -0.49656293 0.014097904 -0.022708317 0.24105796 -0.3023519 0.029588025 0.31715345 -0.14571108 0.090425275 -0.83063376 -0.41175047 0.468518 -0.5814383 -0.31479412 -0.48796114 0.23641667 0.059867103 0.27733365 -0.4137468 -0.21198873 -0.451031 -0.24280097 -0.11555991 -0.33409634 -0.06523843 0.022891698 0.08183649 0.126494 -0.6686528 0.4321786 -0.27064243 0.1411395 0.26454896 -0.0041347323
92 -0.76202714 -0.019448264 -0.3577801 -0.80018395 0.6156083 0.46590975 0.09661024 -0.32242662 -0.81873477 -0.3065163 -0.008215404 0.6812118 -0.08326547 -0.8048121 -0.0057028444 -0.24161303 -0.1335686 -0.17396408 -0.3639606 0.3361848 -0.2745524 -0.8309421 0.12534088 -0.51051366 -0.014147554 0.500183 0.07861292 -0.22905052 0.59051526 -0.29361716 -0.8178417 -0.24047318 -0.109616525 -0.2715736 -0.25741377 -0.42644674 0.10830329 -0.32891265 0.21696602 -0.09639937 -0.116021246 0.24768811 -0.03480318 -0.03159188 0.332581 0.5369257 0.45575693 -0.066984266 -0.14495826 0.03982229 -0.3625712 0.35410583 -0.41900977 -0.46947825 -0.0433221 -0.26495653 0.3048661 0.24078368 -0.21358362 0.13313478 -0.3382935 -0.48597524 0.27528173 -0.54868114
62 0.273557 -0.78276914 -0.36554226 -0.56868136 1.2479591 0.3738076 -0.22455552 -0.48161623 0.21044603 0.08997821 0.065194026 0.36856425 -0.6015327 0.08831294 0.076834835 -0.22572428 0.724928 -0.46467692 0.10084356 0.16345417 -0.89904153 -0.46751955 -0.5944249 -0.6247162 -0.027562661 -0.15622243 -0.9937443 -0.34201047 -0.51304 -0.47030574 -0.054599125 -0.18838695 -0.19723964 0.08964799 0.18916097 -0.13780904 -0.3191275 -0.05342235 0.26861838 -0.0713158 -0.038032863 0.21096486 -0.19459003 -0.23116226 -0.4053836 0.029085377 0.44052735 0.12169332 0.09069359 -0.36897463 -0.6215239 -0.16246025 0.18604627 0.0055321874 0.44584712 -0.36129844 -0.25792944 -0.40632018 -0.24459447 0.03969518 0.8234018 -0.40376714 -0.30501163 0.12863134
158 0.2088351 -0.37285063 -0.21875267 -0.43408617 0.6312996 -0.028592352 0.08533554 -0.13184263 -0.04463169 -0.51413655 -0.49055964 -0.025008164 -0.0029470616 -0.41346315 -0.44652852 -0.28694037 0.32585 0.15644166 -0.098653585 0.2770768 -0.8702767 -0.46722886 -0.37752482 -0.6909435 0.10021146 0.3217435 -0.71539634 -0.39233112 -0.40753433 -0.45745233 -0.24452454 0.07621226 0.011389832 -0.2512341 -0.08764645 -0.47254142 -0.029003106 -0.38051072 0.36889127 0.9354911 0.07884811 0.44016266 -0.17602886 0.1565834 0.31241822 0.39046648 0.4241312 0.6653014 -0.2844659 0.88974965 -0.704497 0.30255297 0.24658656 -0.067028105 0.5088396 0.17000382 -0.04780993 -0.24700901 0.31859803 0.016213037 0.5143548 -0.23855987 0.33074218 0.35288313
116 0.9490163 -0.028649438 -0.6277432 -0.9672282 0.8126104 -0.5694504 -0.3304623 0.6907774 -0.4383357 -0.28950477 0.6219933 0.27514073 -0.31944868 0.12834516 0.9898192 0.87299854 -0.26354298 -0.5892184 0.19999905 0.829387 -0.2544519 -0.63557035 -0.088074245 -0.8857684 -0.3706253 -0.055315908 -0.16170418 0.101810336 0.29935774 0.37502038 -0.48985863 0.18928218 -0.019507166 0.45843807 0.22886784 -0.05388916 0.51411563 -1.2962334 0.4929897 -0.7768276 -0.3223424 0.9974079 0.96900004 0.17889787 -0.11560581 1.0085068 0.2766606 0.92567176 -0.16531861 -0.04271517 -0.17097053 -0.26419786 -0.5399294 0.4133262 -0.64579594 0.11341306 -0.67486435 -0.7504088 0.22217952 0.19893397 -0.36518064 -0.11349285 0.052271392 0.45497194
154 0.044106204 -0.38680875 -0.36082935 -0.06034199 -0.21272561 0.14646704 -0.061225843 -0.25355458 -0.3489844 0.1511378 0.02253694 -0.059045266 0.48605487 0.37006453 0.069270186 0.024404528 0.06640005 0.036817774 0.14189763 0.101239674 -0.38238877 -0.37052074 -0.26561958 -0.14459656 0.14002371 0.3286421 -0.13206027 -0.065389715 -0.0012348295 -0.6112698 -0.2792737 0.31340358 0.2544486 -0.12647021 -0.30770668 0.05795205 -0.13652354 0.026975049 0.19208881 -0.47149402 -0.2550778 0.5872835 0.44406298 -0.5275062 0.1727433 0.41204214 0.60049856 0.40123975 -0.127266 -0.13307127 -0.4646205 0.25203073 -0.5343783 -0.028418928 -0.0006967439 -0.09739307 0.5075546 -0.13587342 -0.26708463 0.26038733 0.28669915 0.07367592 -0.4088874 0.11510279
30 0.31477773 -0.51228786 -0.30139676 -0.46770856 0.036639057 0.27965316 0.11572831 -0.7395286 -0.6172773 -0.1575491 -0.13695781 -0.3051461 -0.15070976 -0.084251635 -0.460072 -0.18067224 0.14476688 0.14807315 0.2159766 0.33185965 -0.64352506 -0.14744695 0.20702918 -0.29616377 0.1493485 0.1987356 0.08591376 -0.24507323 0.53410226 -0.24536167 -0.81047124 0.12993939 0.359863 -0.053919286 -0.17877552 -0.41056365 -0.119677596 -0.14789696 0.013437908 -0.17447096 0.10784577 0.3788231 -0.012615433 0.3410092 0.21920149 0.68769604 0.2467805 0.32235658 -0.34946847 0.6342433 0.22311085 0.07992739 -0.7512029 -0.7895677 0.09113746 0.18933456 0.39013496 -0.3076409 0.105401486 0.27108398 0.05693355 -0.21634571 0.49700353 0.106038794
161 0.66019106 -0.70193005 -0.1420027 -0.04246921 0.3335428 0.2639342 0.5801425 -0.027024815 -0.4714247 0.07245479 -0.15664352 0.32979062 0.11979125 0.62337875 0.36655375 -0.19734074 0.12574066 -0.32646722 0.15144254 0.44723767 0.307165 -0.095112614 -0.31461903 -0.44202575 0.045631576 0.26703793 -0.5337559 -0.30622658 0.1520619 -0.30424282 -0.24208769 0.26126218 -0.2117576 0.2359198 -0.11706729 0.22598554 0.28863138 -0.20556052 0.22029859 -0.25911155 -0.75382805 0.38826036 -0.34569055 0.31525773 -0.56099963 0.06511767 0.19226006 0.4586094 -0.23930785 -0.1832508 -0.43617922 -0.01444423 -0.4569626 -0.21067606 -0.37247655 0.07942025 0.3692411 0.080291405 -0.18236865 0.43816924 -0.28783658 -0.39168414 0.17799583 0.28144082
117 0.6519278 0.3342413 -0.20356207 -0.22248442 0.2906845 0.026924 0.167011 -0.034620896 -0.628786 -0.071776696 -0.16172287 0.006320117 0.24209918 0.34386945 -0.18958303 -0.22326036 0.15400697 -0.4406064 0.6969249 0.43879122 0.26875257 -0.14272793 0.25324184 0.32958794 0.16636778 0.2878204 -0.07754109 -0.14065643 0.075938456 -0.5648623 -0.40553173 -0.07472074 -0.05808631 -0.21809562 -0.1792728 -0.4246055 -0.42460734 -0.33408752 0.2944984 -0.19423412 0.030851733 0.7772846 -0.37200454 0.01660074 -0.34302086 0.16513444 0.11267462 0.2528778 0.4800547 -0.18519966 -0.3276767 0.26161122 -0.3370913 0.5648511 -0.16116212 -0.20836762 0.31638518 0.1465285 -0.38527837 -0.2604675 -0.3033477 -0.34203857 0.2793712 0.1152644
36 0.16853932 -0.47633108 -0.3417705 -0.35440084 0.0030370094 -0.23076512 0.33516487 -0.26267976 -0.7927368 -0.72305816 -0.3297144 0.01760755 0.31033066 -0.54770505 -0.6021436 0.38265687 0.43539247 0.06409436 0.036357973 0.24878442 -0.3113358 -0.37462568 -0.52275544 -0.032829538 -0.2060025 0.54849094 -0.4060268 -0.26591858 -0.086538896 0.1608801 -0.43457925 -0.031576924 0.7512164 -0.21709406 -0.15728955 0.33070865 0.23113745 -0.1844406 0.4946293 0.7983293 0.013869443 0.4570614 -0.36392644 -0.09522141 0.33943334 0.491756 0.4967123 0.3877668 -0.44636467 0.730111 -0.42494252 0.11351276 -0.027355412 -0.32254297 -0.3676545 0.27514088 -0.09976155 0.080386825 0.11414391 -0.1388384 -0.38588428 -0.035383742 0.1642204 0.06106367
113 0.63206065 -0.247119 0.05281653 -0.8320605 0.93099284 0.26873282 -0.13909188 0.90319604 -0.3951128 -0.54471403 0.37934843 -0.2604979 0.03008929 0.37085006 0.13082284 0.7344291 0.088087834 -0.60280305 0.6924228 0.31197912 -0.68749094 -0.43140432 -0.6483652 -0.6643313 -0.7345496 0.50717497 -0.113699324 0.85597324 0.74435985 0.32891527 -0.45246235 0.3224783 -0.13598283 0.5636805 0.025283815 -0.29031423 0.9430876 -1.5303466 0.26366627 -0.24186341 0.33951113 0.4244156 0.8724425 0.18403527 -0.12352055 0.88924676 0.5213401 0.4332565 -0.034972765 -0.7880105 -0.2968537 0.2537976 -0.13759457 0.010663415 -0.7977232 0.1811938 0.21543786 -0.22173505 -0.75796187 0.4045877 0.06482248 -0.20992926 0.3393694 0.70775396
76 0.82912195 -0.28506073 -0.032744806 -0.22901909 0.08480985 -0.20896195 0.17772315 0.09715466 -0.533182 -0.9059921 0.078789204 0.524645 0.6780284 -0.47870716 -0.3932647 -0.11620701 -0.117720805 -0.18268518 0.32158116 0.16302899 -0.3611677 -0.030364543 -0.33372387 -0.4102639 0.12285 0.1371996 0.09483209 -0.44284976 -0.05035411 0.13795891 -0.5225997 0.00557824 -0.30528057 -0.4398975 -0.19102447 -0.20012492 -0.0074446723 -0.41311613 0.413195 0.40962756 0.24866395 0.15644264 -0.18684785 -0.03811783 0.7068103 0.39193642 0.7393809 0.5396454 -0.52970034 0.5315658 -0.47365823 0.41662663 -0.13451904 -0.74685705 0.15266864 0.1111304 -0.04227404 0.035976395 0.58109033 0.6122616 0.28913358 0.26491496 0.65046006 -0.14852926
136 0.4138625 -0.57884854 -0.14722311 -1.7486019 -0.061136637 0.65253025 -0.24697138 -0.4022292 -0.5867405 -0.4142781 -0.5915264 -0.85697556 0.14598848 -0.72030926 -1.1837716 0.6014916 -1.2459384 -0.1597281 0.26051986 1.2460579 0.07778086 -0.21187505 0.33275172 -1.1712006 0.8084649 0.121817395 0.1701817 -1.1936351 -0.15860285 -1.0762985 -1.4019867 0.69220215 0.1807032 0.505184 0.27114052 0.3178771 -0.7840886 -1.2147229 1.1624993 -0.57370466 -1.3287125 0.65789914 0.5122371 1.0366114 0.08785822 -0.5676131 -0.36458725 1.1673346 -0.349082 -0.20523292 -1.3441979 1.1206272 -0.81992847 -1.2228223 -1.7158325 -0.8770136 -0.2459521 -0.83943063 -0.6745832 0.099639565 -0.13043402 -0.47723928 0.50370944 -1.0241033
125 0.13808055 -0.52374905 0.19505188 0.0032965024 -0.07445879 -0.23608841 0.114739105 -0.13313176 -0.2771272 -0.1126853 0.009046777 0.27477017 -0.40490434 0.52234256 -0.1496771 -0.6159019 -0.2282532 -1.1694345 0.66699034 0.32830888 0.20657296 -0.050345458 0.29254436 0.17720135 0.20541766 0.63505477 -0.07740987 0.1397567 0.2168158 -0.86173046 -0.4416487 0.048567425 -0.027176263 -0.22441857 -0.14566652 -0.11184404 0.056402255 -0.09908677 0.37098464 0.19455469 -0.3125914 0.91964483 -0.23863395 0.21836916 0.0016294452 0.81446993 -0.40464848 0.011811754 -0.0915401 -0.080147445 -0.18528754 0.35488757 -0.0030286133 0.3722382 -0.34695652 -0.39322886 0.014713587 -0.17778042 -0.42758083 0.26716444 -0.19243628 0.109777994 0.036235105 0.2152519
114 0.434886 -0.088305905 -0.6324356 -1.2296531 0.6476408 0.42655066 -0.456516 0.67334545 -0.5139035 0.060843267 0.50476927 0.565853 0.34678182 0.43252867 0.61312544 -0.01964438 0.5038029 -0.5864219 0.20092702 0.83425987 -0.661117 0.13914308 -0.17269744 -0.3620046 0.1997065 -0.13183105 -0.49714676 0.9075743 0.39259756 -0.10673496 -0.6251939 0.7664572 0.43139216 0.6600154 -0.16644388 -0.53142345 0.8740648 -1.3142463 0.12406471 -0.5947622 -0.013473332 0.72594213 0.40139952 -0.2810008 0.21033531 0.39699346 0.38442105 0.36220434 -0.43598518 -0.2795541 -0.3492051 -0.05981574 0.10224356 0.40000972 -1.0785106 0.45384628 -0.5301585 -0.43675438 0.23333451 0.2843532 -0.43934238 0.2354489 0.618504 0.15735544
130 0.14847317 -1.2190392 -0.026971735 -1.3435504 0.5180984 0.38842544 0.23796079 -0.09484772 -0.6378251 0.18858443 0.24053608 0.56684756 0.2653362 0.30002323 -0.09600999 0.14451888 -0.30694652 -0.96830416 -0.7123549 0.37450668 -0.46607876 0.20641777 0.61559355 -0.89757454 0.20520404 0.08866801 -0.43838373 -0.47718015 0.78864974 -0.5065432 -1.0150032 -0.36220384 0.551594 -0.7647826 0.024124205 0.050286014 0.5137825 -0.5984515 0.16456126 0.47364074 -0.54880124 -0.14683506 0.30494162 0.23417546 -0.31476566 0.049128115 0.80133116 0.7599153 -0.1777547 -0.28759003 -0.1461133 0.33787453 -0.4571429 -0.7729724 -0.5800719 0.17708702 0.8004722 0.746513 -0.099961884 -0.5211548 0.0057353904 -0.96015555 0.95251846 -0.064575695
42 -0.16292697 0.09769427 -0.058879238 -0.36648858 -0.0538151 -0.1534442 0.17271166 0.3093409 -0.14478332 0.09115442 -0.07506799 0.07498144 -0.02350476 -0.050551478 -0.25879115 -0.24242254 0.019127944 -0.46647546 0.36134544 0.0053966464 0.074469045 -0.2678985 -0.06284054 0.02133908 -0.2836925 0.5930678 -0.6127831 -0.2404766 0.33352253 -0.2963577 -0.4254847 0.05080252 -0.19521111 -0.43498743 -0.03099923 -0.2931718 -0.16337202 -0.32763276 0.5764101 -0.6287931 -0.09689581 0.13812701 -0.015472232 -0.49392635 0.1687179 0.040453255 0.28977248 0.14722143 -0.55348504 -0.31641743 -0.35050163 -0.17423776 -0.42230767 0.15223631 -0.27538702 0.4472101 0.33392194 -0.76146585 0.13588165 0.010201175 -0.22272322 -0.22972718 -0.12626897 0.43996933
134 0.6290272 0.48408994 -0.001851232 -1.4706212 -0.5462612 1.092329 0.13326171 -1.2745227 -0.14640425 -0.29803342 -0.2763344 0.2702216 -0.23573375 -0.26735544 -0.84181774 0.39921987 -0.8479214 -0.28425318 0.21380976 0.8147051 -0.29929265 -0.47621456 0.4992352 -0.8851104 0.5791001 0.68569463 0.08730311 -0.8139448 -0.4928946 -1.1569296 -1.7277122 -0.12586282 -0.11127932 0.6170378 0.84183323 0.46646732 -0.23254113 -0.8753051 0.37997702 0.1447722 -1.4799267 0.47856855 -0.052801434 0.6769634 -0.027606536 -0.8116897 0.49430826 0.42587966 -0.61848134 -0.4886055 -1.2782398 1.2653612 -1.1643528 -0.95021635 -1.1329703 0.15709442 0.29059675 -0.27242807 -0.40773064 -0.20342402 -0.1761992 0.50218385 0.38887855 0.075006686
14 0.43199277 0.068003535 -0.113201834 0.2939825 -0.03037881 0.18754658 -0.18518624 -0.5162044 -0.381885 -0.48191306 0.015281441 0.092428535 0.16776718 0.0044456855 -0.120133236 -0.56856364 -0.22202204 0.048485655 0.13042708 0.57244366 -0.46062568 -0.5421689 0.005401827 -0.2361444 -0.30999157 0.71689135 0.03909931 -0.17885382 -0.12689859 -0.30198574 0.073117994 0.2511626 0.23273525 -0.2618 -0.01959242 0.016826546 0.09403558 -0.2791867 0.014950281 0.0907334 -0.11785463 0.18597917 -0.026279062 0.074645706 -0.34521163 0.1774654 0.29874307 0.75880647 -0.41561127 0.107432365 -0.058554932 0.020660259 0.057672296 0.033974834 -0.35775596 0.30546895 -0.028453726 -0.16345285 0.015042256 0.20078789 0.106802374 -0.3594674 0.18589263 -0.33291185
37 -0.089400485 0.07439246 0.18879235 -0.95755476 0.40737778 0.35754624 0.09864035 -0.139292 -0.1318811 0.44901493 0.21779789 0.1222754 -0.2061952 -0.22897917 -0.30512494 0.12663594 -0.06669766 -0.4323733 -0.14157706 0.5797825 -0.47568965 -0.08121457 0.18636823 -0.6542875 0.28019002 -0.5448623 -0.22105391 0.079491235 0.112479754 -0.25195324 -0.8905275 -1.4396794 0.6326053 -0.5566329 0.33618203 -0.035972733 0.21800566 -0.6025416 1.1494704 0.056046396 -0.28705776 0.46093488 0.5629921 -0.09851674 -0.39797822 1.374864 0.46390375 0.79691 -0.5955831 -0.32766366 -0.4164079 0.49181437 -0.43929806 -0.8439302 -0.52031636 0.19840528 0.5726345 0.30775952 -0.03894167 -0.3898233 0.11098029 -0.38656673 1.0863578 -1.037131
44 -0.23377147 0.43794635 0.0632593 -0.17770538 0.24981998 -0.47417155 0.57844913 -0.021743132 -0.54512787 -0.67894745 0.46883807 -0.19653805 -0.17924114 -0.0645087 0.22329134 -0.2834952 0.21392302 -0.27835196 0.37005967 0.35801402 -0.36074442 -0.3760303 -0.08754151 -0.29991603 0.4668642 0.53468233 -0.09329679 0.4275793 0.22043565 -0.027065199 -0.5350013 -0.0015817608 0.18671936 -0.016223824 0.112260684 -0.08412542 0.11760572 -0.3055315 0.30863625 -0.29265305 -0.20821908 0.27497053 0.0020936038 -0.07205907 0.25510564 -0.46612248 0.21742013 0.39760897 -0.2582182 0.17122029 -0.37818378 0.107083224 0.034884833 -0.39053866 -0.21614718 -0.19521247 0.18887572 -0.60501695 0.102012224 -0.14099932 -0.023839815 -0.2954593 0.055862136 0.40896794
39 0.3181087 0.090576574 -0.18394692 0.3353855 0.15791944 0.19083756 0.25689343 -0.421434 -0.07643488 0.038993295 -0.048720688 -0.08640918 -0.54566866 0.04232209 -0.18210462 -0.18939711 0.22890061 -0.37607312 0.3473499 0.27247366 0.04477772 0.008869664 -0.4958032 0.08700373 0.025527034 -0.20868154 -0.21401992 0.42579344 -0.38525 -0.28820297 -0.19908041 -0.09109331 0.02589523 -0.13119037 -0.10450964 0.14235455 -0.29134056 -0.5950994 0.43601668 -0.09799295 -0.6340162 0.5027359 0.022184324 0.19926904 -0.46231952 0.7241298 0.45478907 0.55333555 -0.58419174 -0.17811188 -0.5892078 0.11883253 -0.5293226 0.2534077 -0.52860355 0.23441917 0.36749953 -0.16914834 -0.15467773 0.3061822 0.12779908 -0.10508973 0.44247755 -0.57528967
149 0.41781965 0.30426657 -0.31440142 -0.16197386 0.37811884 -0.047810532 -0.16308373 0.0766978 -0.13765806 -0.12482104 0.522061 -0.10524133 -0.07881488 -0.11080624 0.066762984 -0.112008296 -0.2328226 -0.27122834 -0.40867427 0.40086493 -0.45470724 0.00957956 -0.450718 -0.28396687 -0.070578404 0.6079959 -0.42145613 0.07450489 -0.09126382 -0.7265061 -0.022991888 0.133544 0.0041057956 -0.24103089 -0.1352816 0.26702133 -0.15030414 -0.32991037 -0.44329095 -0.19646347 0.25080225 0.40308967 -0.32248455 0.2597231 -0.08243639 0.3759744 0.36670953 0.37018436 0.09913527 -0.14245424 -0.23951058 0.37292475 -0.0952742 -0.47264665 -0.31248006 0.24854504 0.16407345 -0.080334626 0.5120157 0.49009743 0.22872789 -0.255044 -0.18818347 0.095949076
41 0.21692617 -0.17697842 0.17068686 -0.30664167 0.18761872 0.0424186 -0.02539893 -0.04170415 -0.37185454 -0.41384295 0.27748716 0.34907088 -0.030322064 -0.3684376 0.04671771 -0.33167088 0.028055055 -0.26527235 0.04805313 0.18296874 -0.16270748 -0.34101468 0.16091675 -0.0894492 -0.17495365 0.45685273 -0.18457183 0.23347245 0.20643069 0.14103575 -0.29190996 -0.2721101 -0.043928854 0.03413878 -0.058940534 -0.25573882 -0.3123996 -0.66178447 -0.02676261 -0.26078442 -0.046432406 0.6187214 -0.24631573 -0.39697665 -0.22969025 0.22961584 0.22095159 0.06832147 0.19615828 0.12669614 -0.21971045 0.18443848 0.02202136 -0.050040137 -0.43624365 0.19927855 -0.41307902 -0.20698193 -0.09165218 0.05268706 0.084004894 -0.093487754 0.07993571 0.54348785
17 0.43549147 -0.40556598 0.37354335 0.320903 0.30576387 0.095309176 -0.059152823 0.1861245 -0.5479705 -0.20822197 -0.39570746 0.09954614 0.61781037 -0.085214525 0.1534752 0.055515595 -0.19208385 -0.2733365 -0.22749685 0.12328536 -0.36788672 -0.7849437 -0.096123286 -0.56443965 0.7047907 -0.13345994 -0.7273065 0.25111914 0.36125493 -0.66466177 -0.20313549 0.1006725 0.5922589 0.07856515 -0.13062826 0.20322736 -0.39257884 0.38856027 0.24116574 -0.41341573 -0.12694086 0.06275122 -0.24112491 -0.35507885 -0.16215342 0.5623792 0.9731858 0.3945425 -0.18344323 -0.37519804 0.12609844 0.5346342 -0.53508353 0.30685827 -0.2781333 -0.69333744 0.42491594 -0.6153648 -0.3349062 -0.10682458 0.028560987 0.80253243 -0.21018498 0.3065178
6 0.4256714 -0.07395424 -0.015945483 -0.1993692 0.39826453 0.18536356 0.015052228 -0.14804372 -0.40200415 -0.013853707 -0.17584603 -0.37608853 0.062982075 0.28230837 -0.33290914 -0.34302756 0.052386437 -0.033938393 -0.2136482 -0.29874653 -0.49554363 -0.19438756 -0.13649996 -0.11391545 0.42716756 0.35483167 -0.055765875 -0.1624307 0.18317275 -0.22943808 -0.040371872 0.08358095 0.07135732 -0.5250424 -0.4630915 -0.08771348 0.02482373 -0.5890157 0.21138455 -0.33046982 -0.3441304 0.39564812 0.02669597 -0.19949691 -0.32330245 0.44778803 0.23708406 0.20801444 -0.09890472 0.09829847 -0.3274892 0.64472634 -0.401011 -0.1628672 -0.18827982 -0.25704435 -0.13274223 0.11979734 0.60494465 0.21384871 -0.10849768 0.22485581 -0.5448044 0.4817123
132 0.22483574 -0.06261975 0.0134179555 -0.99282545 0.13085397 0.56705487 0.12514125 0.22904314 -0.4687936 -0.47889328 -0.38536555 -0.80675894 -0.22340468 -0.012675825 -1.1557833 0.88647765 -0.8414623 -0.59215665 0.5003132 0.7593872 -0.17831562 -1.157788 -0.21988699 -0.99566495 -0.014961419 0.7742357 0.4875006 -0.6878473 -0.12982833 -0.45261806 -1.6368071 0.019297585 -0.5087136 0.8135375 0.68642336 0.45039687 -0.10199254 -1.1589015 0.23319794 0.34410688 -0.5639156 0.41791055 0.51784426 0.40102452 -0.47724366 0.1704534 0.13896601 0.46852988 -0.34487447 -0.8328395 -0.49431536 1.1354574 -1.2592347 -0.7607348 -0.9231736 -0.08443395 0.0432023 -0.09178636 -0.57488185 -0.117650546 0.655569 -0.27224386 0.55837446 -0.077514485
124 0.5520471 -0.08826221 -0.19960277 -0.584448 -0.15082063 0.39251852 0.10573794 0.14169876 -0.32521927 -0.18982826 0.11387106 -0.37208644 -0.18875758 -0.59967244 0.27423292 -0.59211147 0.061072603 -0.33270615 0.04860943 0.16934992 -0.2888837 -0.44957802 0.19023731 -0.6917726 -0.28784928 -0.103976935 -0.014671491 0.24170928 0.16473883 -0.27230102 0.34682626 0.16710947 -0.073149145 -0.33973333 -0.049611725 -0.009667469 0.06491633 -0.57687867 -0.18522935 -0.18157217 0.23857288 0.18862788 -0.22214238 -0.07695532 -0.021086866 0.3902318 0.4418074 0.15176919 -0.18112165 0.19281393 -0.52377456 0.27456084 -0.3384557 -0.20731671 -0.39827517 0.082682215 0.12528309 0.090989575 0.43559808 0.20142217 0.21960244 0.045693167 -0.3479981 0.10462684
143 0.32847315 -0.32755268 -0.17461865 -0.04237985 0.115276225 -0.13997073 0.25851783 -0.4785629 0.22115995 0.05971676 0.08306423 0.051874332 0.5910216 -0.07413182 -0.360744 -0.011383101 0.42896944 -0.45933774 -0.3162246 -0.048903387 -0.16858625 -0.47344223 0.011833194 -0.19233508 0.26873493 0.6016658 -0.18118547 -0.23607779 0.14150442 -0.15423268 -0.3387213 0.30614325 0.3219931 0.49508548 -0.30987066 -0.005575458 -0.332096 -0.31919223 0.4288851 -0.51605123 -0.24711585 0.24088494 0.085779846 -0.36681825 -0.34995613 0.5133148 0.71664804 0.23798177 -0.20301084 -0.38173532 -0.36673757 -0.033348482 -0.08138208 0.032707527 -0.3450494 -0.16224629 0.5843771 -0.36317912 0.25635722 0.13366286 0.47669685 0.110276945 -0.23842056 0.16808161
19 0.07529439 -0.32627273 -0.13659117 0.23518655 0.9199632 0.06855894 0.11578156 -0.09709155 -0.54740673 -0.5238423 0.3291293 0.015115854 0.09348753 -0.12493777 -0.22494367 -0.33428094 -0.4880675 0.466367 0.28763223 0.17482491 0.5309214 -0.42405784 -0.13137162 0.3090216 0.19050594 0.30014575 -0.010116647 -0.1074494 -0.082541496 -0.49330747 -0.25331783 0.34105167 0.14504327 -0.6628487 0.3498379 -0.5660775 0.26685223 -0.35308814 0.04877403 0.31777668 -0.21361436 0.5090781 -0.15054654 -0.0072593368 -0.81599635 0.13417813 0.5491317 0.5890027 -1.1747911 0.15888733 -0.62539154 0.0025545128 0.04658335 -0.27903152 -0.41328588 0.27742752 0.016272163 0.19038452 -0.024855532 -0.14363006 0.21627337 0.110092714 -0.22271259 -0.047779728
85 0.113843575 -0.42687622 0.0107258735 -1.2425214 0.8503352 0.2447023 -0.5513991 -0.11646026 -0.1220284 -0.39100918 -0.71599275 0.63835 -0.08491191 -0.08955344 -0.36771595 0.12057371 -0.94330305 -0.6197374 -0.063569054 0.39085677 -0.21870516 -0.7352037 0.43571278 -0.09020227 -0.0860566 -0.04130987 0.38983217 0.06715559 -0.16124874 -0.4063105 -1.1861217 -0.3303519 0.8233873 -0.56675035 -0.62382346 0.052835245 0.68009007 -0.30572358 0.4589704 -0.50871336 0.014307668 0.32898933 0.3346451 0.7964587 0.17962989 0.3721695 0.6544844 0.41279987 0.16205128 -0.25372484 -0.4422511 0.5362305 -0.19777471 -0.80683476 -0.51159555 0.3821732 0.3993699 -0.077181816 0.052016973 -0.963837 0.45623374 -0.271675 0.11868867 -0.54132336
168 -0.38018188 -0.07009995 0.35477453 -0.15122361 -0.07017917 -0.27581936 -0.053645294 0.08549315 -0.14892471 0.34065846 0.005655119 0.35249034 0.21029842 -0.03208255 -0.24062857 0.38531244 -0.037945796 -0.6416193 0.81623995 0.1388479 0.20181386 -0.4326263 -0.055779416 0.12652972 0.12426227 0.47612193 -0.29698074 -0.18043923 0.4537865 -1.1166317 0.519993 -0.3140108 0.14284648 0.47158605 -0.81363547 -0.38853854 -0.21870305 -0.45318687 0.6974818 -0.61324996 -0.3700239 0.7553603 -0.21871264 -0.24884844 0.22373594 -0.042465106 0.61983865 0.55310404 -1.0799571 -0.3736524 -0.08904852 -0.24376385 -0.3925572 -0.09946462 -0.13203248 0.049050134 0.1089217 0.08366819 -0.0019084462 -0.21755403 0.36735874 -0.36032948 -0.3437503 0.5297439
10 1.3374997 -1.2810845 0.18941085 -0.20375885 0.19371693 -0.67773455 -0.35102114 -0.8422352 -0.617095 0.2131328 -0.21767892 -0.4119532 0.67467076 0.07571103 -0.090006076 0.40575162 0.45912465 -0.16636434 0.51955986 0.3698027 -1.2266042 -0.71272045 -0.36346835 -0.68010217 0.9066458 0.10727495 0.11921143 -0.17408198 0.347572 -1.0371915 -0.12956257 0.21065019 -0.7215764 0.05127028 -0.04968091 0.49245238 0.5188669 -0.5746196 1.6034924 -1.1616588 -0.79195565 0.532739 -0.029285247 0.052471537 0.2624846 0.8589033 -0.49016106 0.20978244 0.6306048 -0.4360336 -0.8561858 0.8660498 -0.19697484 0.06201342 -0.24897262 1.9095808 -0.12698364 -0.19167665 0.38960698 0.07731996 -0.48501357 -0.28584766 0.57299966 0.09297093
73 1.4603539 -0.8887093 1.4759026 -1.4189007 -0.90915734 0.41984546 0.07302651 1.559974 -0.53467005 -0.9960404 0.9984611 0.058335282 0.40848914 -0.5632202 0.3978076 -0.941932 -0.5937578 -0.62707305 0.028980555 1.0913657 -0.41472724 -1.4792268 -0.68041587 0.51987374 1.0107266 0.27774918 0.52166605 -0.46052444 -0.045985978 -0.12558873 -0.24474482 -0.89549 0.53241867 -0.23978241 0.39074877 0.0399944 -0.9125963 -0.7899697 0.7819112 0.11448917 -0.13543035 2.1876376 0.80027586 -1.3404788 -1.0629405 0.83784074 0.5480352 0.20662239 0.35877788 0.01774314 -2.2086184 -0.36611485 -0.33190617 -1.039995 -0.6646009 1.2293683 -0.81083727 -1.7253443 -0.8552449 -0.010601656 0.41080835 -1.0478388 0.42350098 1.9039994
4 0.38207123 -0.254523 -0.36779878 0.2530359 0.06472205 0.072872914 0.40438914 -0.10279437 -0.44842273 -0.44039312 -0.18197313 0.23909026 -0.28725627 -0.36989075 -0.47991383 -0.30528933 -0.19573753 0.37958708 -0.14774473 0.13449723 -0.42831466 -0.17396641 0.05138724 -0.24483846 -0.09310226 0.29068482 -0.2901922 -0.2783983 -0.010017794 -0.2585983 -0.34929782 0.20156938 0.3276425 -0.13327958 -0.37185898 -0.27997658 -0.076511644 -0.70645225 0.12812105 0.27938187 -0.13299197 0.40676427 -0.0028472259 -0.11152148 0.22264467 0.41819984 0.13742466 0.48509622 -0.0309556 0.25515002 -0.13235824 0.40514678 -0.27616972 -0.30802274 -0.35754248 0.26524383 0.09667344 0.023051903 0.20317712 -0.15829636 0.23254591 0.06418097 0.21281251 0.15349837
28 0.5136309 -0.32592782 -0.2776243 -0.17877537 0.8028124 0.4198101 0.35570428 -0.16394414 0.12666924 0.09362096 0.38851646 0.52598834 -0.057811134 -0.096200004 -0.06519185 -0.3086442 0.5976129 -0.22799183 0.39802718 -0.2433504 -1.1238788 -0.3932114 -0.13245027 -0.030133642 0.5226721 -0.06049976 0.07665308 -0.76580966 0.28649876 0.26338118 -0.13553956 0.24752744 -0.22270346 0.049818024 0.57109815 0.9119902 -0.14817198 0.19791177 0.036193576 -0.7939244 0.46861514 0.47965565 -0.30048794 -0.29026404 0.6579529 0.8500526 0.33495003 0.4248038 -0.007454334 0.36471048 -0.47911918 -0.03459476 0.13043982 -0.32976755 -1.2397124 -0.4690519 0.040732056 0.28065854 -0.32863247 -0.3251155 0.3480474 -0.18678503 -0.54275316 0.22241601
139 -0.193849 -0.22368999 -0.5290736 -0.010516889 0.093647316 -0.07100629 -0.039107975 -0.154583 0.1844029 0.23287977 0.034713995 0.24325761 0.9248269 -0.07670751 -0.13822055 -0.28307343 -0.3879881 -0.59740204 0.9137576 -0.17009996 0.55969316 -0.81861037 -0.34464 -0.024254983 0.05462374 0.50721705 -0.49551395 0.62900925 0.011223345 -1.1579221 -0.41708508 -0.25486705 0.324524 -0.087023176 0.0054052984 -0.3393632 -0.44762674 -0.5894434 0.7774772 -0.40348428 -0.46614277 -0.18665336 0.20302284 -0.27758315 0.1031672 0.31168813 0.042582374 0.50275326 -0.20074974 -0.1756748 -0.28628564 -0.62459576 -0.5410555 -0.27497673 -0.38012156 -0.2054533 0.10023766 -0.003995775 0.11521434 -0.010176827 -0.06727766 -0.2508573 -0.1154635 0.8460672
101 -0.30389133 -0.06345967 -0.6313595 -0.15780877 0.00764231 -0.16051935 -0.034860764 -0.3679454 -0.3800268 -0.32384327 0.6990817 0.29278073 -0.09899704 -0.112818785 -0.76896095 -0.5301759 -0.5475033 -0.1844659 0.5750309 0.4427635 0.06150846 -0.42908946 -0.33836567 -0.11865975 -0.20045276 -0.11067646 -0.046138797 -0.4020532 -0.035484556 -0.1946424 -0.37310317 0.33031225 0.34466323 -0.53772867 -0.12442649 -0.8974332 0.14450718 0.019045759 0.19993012 -0.011759398 -0.45443043 0.48593178 0.041261133 0.46875405 -0.5649531 0.15794449 0.7246957 -0.035810977 -0.40657467 0.14155395 -0.0996846 0.52061385 -0.2806291 -0.024923684 -0.8195598 -0.25492853 -0.24312702 0.17169434 -0.20796674 -0.33360562 0.63053685 -0.04955329 0.22801179 0.44112816
166 0.30976474 -1.4608854 0.64057773 -0.7607863 -0.09231847 0.77194524 -0.0016176593 0.38948345 -1.1730226 0.11695877 1.2033005 -1.5302285 0.89407045 -0.93565375 -0.4554077 -0.96777475 -0.27820197 0.16305463 0.61434585 1.0383399 -0.24929398 0.3318283 -1.7976893 -0.872955 0.30983576 -0.19172153 0.11093288 -1.8273275 1.0740116 -1.4968455 -1.1299789 0.35166508 1.1255307 -0.11872489 0.2950166 -1.5227188 0.06614577 -1.4991248 0.94971573 -0.6181103 -0.95194453 -0.08016434 -0.16547541 0.76977015 0.072325006 0.09891281 0.13292979 0.7942128 -0.1271598 -0.087524444 -0.8004226 0.7726957 0.5149356 -0.956825 -1.6482036 -0.16119596 0.1390291 -0.57957995 -0.96476865 -0.19748911 -0.1599717 -0.49843642 0.7509345 -1.0061474
38 0.3383727 -0.64934516 0.0044847378 -1.092979 0.63549495 0.09223323 -0.111250445 -0.41961437 -0.8251483 -0.77908427 0.16898663 0.38315615 -0.38564208 -0.53823346 -0.2739447 0.45954648 0.46681997 -0.012991272 -0.27027407 0.82924527 -0.2824529 -0.38323012 -0.092744775 -0.92350984 0.5713006 0.5563111 0.31740618 -0.37940487 -0.043405555 -0.60432667 -0.650394 -0.4651909 0.44369513 -0.8981908 0.509787 -0.6395655 -0.09851984 -0.26690745 0.45728287 -0.42552045 0.084170334 -0.16210918 -0.12380021 -0.3239496 0.7508978 0.56404704 0.20718187 -0.088697515 -0.19604328 0.48509985 0.20834737 0.5558391 -0.48154542 -0.34761384 -0.33187163 0.5377028 0.10558212 0.66526514 -0.13223569 0.678588 0.05527868 -0.38965562 -0.048353974 -0.2205316
51 1.037202 -0.5042226 0.81190306 -1.4693989 -1.1152569 1.1538612 -0.52582735 0.29365203 -0.43919435 -1.1349634 0.78355706 1.2763374 0.46735433 -0.37127873 0.17632642 -1.2795233 -0.06943603 -0.47284117 0.60842717 1.3204643 -0.6091572 -0.8229683 -0.72311366 0.13534077 1.4226918 0.0863536 0.1098328 -0.28935894 -0.06355518 -0.53335816 -0.4613329 -0.1954128 0.6431799 0.043523695 -0.2824996 -0.4624912 -0.4296933 -0.595215 0.34429052 0.016351791 -0.1727969 1.6549908 -0.22407593 -0.410923 -0.49249315 0.13682449 0.61480486 -0.604569 0.3478156 -0.12400004 -1.7331321 -0.28106326 -0.37427136 -0.86356527 -1.1657629 1.280683 -0.587895 -1.7160549 0.06297642 -0.49267477 -0.13750623 -0.12858415 0.4977949 2.0606973
52 0.4097192 -0.28579608 -0.40855715 -0.26866746 0.02888361 0.33769524 0.5095937 -0.14172316 -0.8595381 -0.68518126 -0.029607845 0.2857186 -0.288017 0.0046178177 -0.17420113 -0.46282628 -0.028401183 0.46598342 -0.3562249 0.42476332 -0.38247272 -0.22532809 -0.06204625 -0.37845463 -0.31245223 -0.12145507 0.36469093 -0.5278521 -0.11424842 -0.7930859 -0.63610464 0.33332232 0.50421673 0.10096638 -0.4028658 0.015558604 -0.0037249078 -0.7135333 0.55647445 -0.2720452 -0.46886602 0.25737444 0.23237777 -0.24082825 0.49100336 0.6366439 0.24380314 -0.17960896 -0.30741197 0.4207284 -0.1575065 0.08670552 -0.23299737 -0.11810846 -0.49390098 -0.020529414 0.75114316 0.22192514 0.22993894 0.3200573 0.45494047 -0.54554373 0.39896747 0.1222361
29 0.06873028 -0.8106702 -0.32962996 -0.6954898 0.34502012 0.6913388 -0.47719136 -0.113126956 -0.71005756 -0.72906613 0.22437201 0.20303966 0.1342892 -0.27459398 -0.4779682 -0.5063593 0.22469798 -0.41842687 -0.6050519 0.6472842 0.017609995 -0.055221394 -0.15509886 0.36779603 -0.14736168 0.3642725 0.38538805 -0.4065273 -0.02140935 -0.3214763 -0.3259823 -0.4094571 -0.115343556 0.26131684 0.4366782 -0.19416021 -0.18245411 -0.2831054 0.45392233 -0.4409239 -0.22182503 0.27319437 0.11433067 -0.096139476 0.11835545 0.5292226 0.6583824 0.49017718 -0.19309478 0.7148103 -0.16976634 0.71938074 -0.67341286 -0.8745663 -0.009759442 0.20600367 0.17713049 0.04195059 -0.39339146 0.18323015 0.17756125 -0.014963205 0.46777335 0.008292501
11 0.45077932 -0.79932386 -0.8109315 -0.61546606 0.50413203 0.5967746 0.593765 -0.26749188 -0.2591866 0.046669368 0.32455596 0.3795549 -0.081995375 -0.32512262 -0.0058672964 0.003971859 0.2158047 0.13645479 0.20150724 0.12696439 -0.6824237 0.21016127 -0.23282892 -0.56592304 0.08244157 0.4967915 0.6388834 -0.09880299 0.33901685 0.16533373 -0.1169487 0.08482468 0.3316564 -0.123005405 0.37911683 0.69197553 -0.29407966 0.12737165 0.6338764 -0.7475326 0.18453197 0.40090635 -0.6908313 -0.38015836 0.09657949 0.68318105 0.6387539 0.17421076 -0.082237355 -0.6112865 -0.48357192 0.1901829 0.37760738 -0.16481331 0.0974889 -0.35031527 -0.4954013 -0.17386693 0.04020952 -0.23591644 0.4249615 -0.008065711 -0.18813613 0.3005958
12 -0.47974274 -0.11864429 -0.123828314 0.059550695 0.11763983 0.14528304 -0.1155799 0.12982352 0.2726249 -0.20245786 -0.46228066 -0.16382499 0.27638122 -0.50641954 -0.21059981 -0.030841824 0.0950829 -0.6875641 1.2759858 0.74610245 0.21214905 -0.2605863 0.052361105 0.09452024 0.021449469 0.26908067 -0.2299418 -0.36797392 0.37871218 -0.98513347 -0.5232856 -0.13488242 0.096789636 -0.063513085 -0.3423792 0.019136343 -0.18277737 -0.26419127 0.27215633 -0.49475473 -1.1759228 0.54833955 0.42764923 -0.5944933 -0.17388988 0.019379346 0.60970545 0.43962044 -0.030784968 -0.5077436 -0.019666154 -0.35171574 0.1751119 -0.12776065 -0.33068958 0.13518633 0.63047093 -0.13519795 0.37523863 0.38713485 -0.007895343 0.09879618 -0.22180162 0.6156646
24 0.6475416 -0.35835555 0.7906364 -0.54127544 -0.3875351 1.1292415 0.20898585 -0.8901891 -0.5787785 0.29550016 1.0660503 -0.18540989 0.25667167 -0.5433302 0.14701262 -0.9380557 -0.26096335 -0.30973262 0.3480862 0.58906025 -0.36341792 -0.06276574 -1.3000097 -0.47758558 -0.071713366 0.079854734 0.06836528 -1.2894568 0.6052585 -1.3821341 -1.5162078 -0.12734608 1.0719477 -0.26556662 0.9103333 -1.2953184 0.5158246 -1.1180384 0.30555242 -0.21985534 -1.4194916 0.02649482 -0.8304184 0.60636926 0.14089447 -0.5528458 1.0706521 0.27685115 -0.33646354 -0.15404858 -0.9346178 1.0481938 0.20812908 -0.80445504 -1.1064378 0.7732948 0.7413478 -0.0821398 -0.479959 -0.5717404 -0.30388084 0.39602262 0.6299632 0.14455637
165 -0.49824476 -0.31291726 -0.43165073 -0.6189134 0.16505718 -0.09813732 0.14760274 -0.22408909 -0.2132231 -0.54956514 0.056485586 0.05584224 0.007383418 -0.12870942 -0.005941294 -0.4216079 0.1735057 -0.12798421 -0.4690786 0.66245973 -0.60084015 -0.13339706 -0.36069185 -0.3945667 -0.0751072 0.35654232 0.20254536 -0.40423977 -0.5065469 -0.3049483 -0.31958297 0.19421433 -0.06937375 -0.40203694 -0.3659829 -0.3167668 -0.34577927 -0.2730861 0.53828245 -0.109439835 0.020630287 0.29654336 -0.21957833 0.050646897 -0.27899778 0.43031767 0.47123584 0.5127039 -0.12552802 0.29063368 0.11962481 0.30446592 -0.5034399 -0.6763776 -0.30334592 0.21503372 0.5417686 0.32209197 -0.2583876 0.18519297 -0.23905705 0.14666471 0.16735291 0.24698678
75 0.9915051 -0.6793868 1.2510691 -0.603417 -0.61121756 0.7542447 0.068563245 -0.16439052 -0.44242594 -0.8817504 0.4741393 0.42215487 -0.020492032 -0.25878477 0.4397471 -0.28946477 -0.864968 -1.2321856 0.44492975 1.0065205 -0.33780852 -0.83193594 -0.57412016 -0.11421118 0.36423954 0.109804206 -0.37689686 -0.13793726 0.20762447 0.6593326 -0.21126208 -0.19730903 0.5058229 -0.69825894 0.4022303 -0.058853265 -1.1014578 -1.0387526 0.53943044 -0.17354444 -0.5551034 1.7011057 0.28688875 -0.037008755 -0.35386583 0.3257046 0.94889927 -0.22442183 0.3496802 -0.122113846 -1.6965493 0.01711973 -0.21631366 -0.9298639 -0.57618904 0.9739087 0.40029314 -0.97538996 -0.2775074 -0.46456116 0.03991862 -0.7728163 0.77499896 2.3952298
77 0.20626175 0.21670918 0.2762381 0.4046376 0.5695895 -0.32510784 -0.35878932 0.27503175 -0.8033183 -0.8203176 -0.0886923 0.28893995 -0.16463439 -0.43802372 0.17088825 -0.6067716 -0.25013188 -0.028950531 -0.013467407 0.55891734 -0.41927788 -0.260707 0.23170792 -0.29582655 -0.05563578 0.020315887 0.13011956 0.2407692 0.15131576 -0.5619814 -0.70449084 0.7004681 0.4419192 -0.24719104 -0.11049255 -0.12754528 -0.89318883 0.4352771 0.13683915 0.20657715 -0.4481314 -0.3049234 -0.052566838 0.27028438 -0.8207982 0.4783895 0.6232215 0.4429917 -0.82768244 -0.19552784 -0.34412986 0.28338662 -0.14837562 0.35544124 -0.67640173 0.27447322 0.089202955 0.093016595 -0.46598613 -0.1728805 0.06003442 0.109388374 -0.059934616 0.19303635
148 -0.5739455 -0.8052201 -0.17913194 -0.3084893 -0.65872455 -0.053042952 0.43412906 -0.46018916 -0.6940268 -0.45181492 -0.11317407 0.055242054 -0.11231719 0.11402083 -0.49600387 -0.23259471 -0.7001215 -0.23361246 0.12750676 0.560629 -0.40072405 -0.4478918 -0.13222128 0.45241016 0.029148411 -0.23241003 -0.17979616 -0.1300332 -0.04011906 -0.53737265 -0.9167253 -0.25625652 -0.1750871 0.22530341 0.3884474 -0.91483504 -0.41166076 -0.3269492 0.22464485 -0.40021676 0.3116096 0.19367176 0.39598453 0.6277699 -0.2535165 0.25347108 0.96141374 0.34359375 -0.23589855 -0.45122743 -0.44613 0.52414554 0.25424552 0.27459455 -0.74416673 -0.13930322 0.024792839 0.3844563 0.5993237 -0.15801659 -0.03181006 -0.29210278 -0.18676697 0.1661357
8 -0.2980193 -0.4155864 -0.17263934 -0.8015948 -0.05810415 -0.17122166 0.5587046 0.126061 -0.5827272 -0.14070044 0.17806585 -0.10190503 -0.0005231406 -0.12512645 0.24775532 -0.25072393 0.10767136 -0.5065541 0.9683145 0.25846723 -0.09550459 -0.7839286 0.5693355 -0.19144918 -0.18261811 0.22698702 -0.115262814 0.1110573 -0.058119588 0.09944615 -0.018762045 0.099676885 0.12882072 -0.23572694 -0.119867764 -0.20602442 -0.33744177 -0.58991355 0.14001144 0.0066207256 -0.0731493 0.10483282 -0.90025526 -0.49316543 -0.10548646 0.24837717 -0.15429015 0.40770647 -0.29292825 0.15797302 -0.4642808 0.1319604 -0.24092115 0.024643846 -0.18781748 0.36353785 0.5674593 -0.3460349 -0.0015660025 0.05522517 0.08944101 0.26983902 -0.31168562 0.18820332
126 0.3041897 -0.0039349636 -0.14502406 -0.68968004 0.2879235 0.37724513 -0.050855014 -0.43055043 -0.7202461 -0.4484664 0.41577294 -0.41953182 -0.17648531 -0.3577104 -0.27571145 0.1438212 0.81569415 -0.515658 -0.63985294 0.45111158 -0.033247516 -0.37114125 -1.0110801 -0.14169258 -0.59006035 0.05382491 -0.34339964 0.22016656 0.40665406 -0.5187273 -0.030296182 -0.15176469 0.41321048 -0.5351858 -0.17049511 1.0169425 0.004518958 -0.099271625 0.12193677 0.14564365 0.31202236 0.48373947 -0.16632096 0.05499311 -0.0045323092 0.28127176 0.5609489 0.07796168 -0.11003375 0.20413904 -0.28609562 -0.03820825 -0.27552205 -0.2722148 -0.6138525 0.09625856 -0.43042028 0.21978468 0.32919955 0.10530418 -0.44872668 -0.037010547 -0.6032967 0.12754725
0 0.9883264 -0.54004693 -0.35654303 -1.8944248 0.34673244 0.55386263 -0.16942461 -0.3103001 -1.2865983 0.113621205 0.37201717 -0.5202079 0.6657327 -0.473147 0.62231666 -0.33509028 -0.3846878 0.83756864 0.4017407 1.1272053 -0.34345108 -0.4630181 -0.5970746 0.17294376 0.6810501 -0.42675376 0.33802834 -1.4094396 -0.0017025026 -1.392207 -0.50405425 0.5848701 0.5544486 -0.2227569 -0.90552163 0.95490324 -0.42893475 -1.0780243 1.8708302 -0.3115308 -0.77277845 -0.23589797 0.7706603 0.5378757 -0.06446581 0.22244333 -0.2602228 0.045962542 -1.3008902 0.3249732 -0.5333775 0.970528 0.71560353 0.07338264 -1.4185739 -0.2626309 0.64547956 -1.0429864 -0.33295047 1.816001 -0.4440247 -1.1970866 0.71455777 -0.009978132
146 -0.097053505 -0.16995414 0.095357805 -0.9177116 -0.23584369 0.16695713 0.33481497 0.15299144 -0.41908675 -0.40544227 -0.24781688 0.37544817 0.27793828 -0.5809118 -0.5934107 -0.19719 -0.14525169 -0.4618979 -0.1719256 0.015219656 -0.06699856 -0.25200224 0.6289931 -0.42313257 -0.025674328 0.15904865 -0.19436964 0.12133079 -0.44948256 -0.36128724 -0.8702178 -0.0654684 0.3746008 -0.20702352 0.21043973 -0.3350155 0.6052043 0.37314117 0.58364934 -0.64941615 -0.026970971 0.80031544 0.43159312 -0.077236734 -0.081622474 0.11028745 0.6451545 0.27850062 0.21012668 0.10926638 -0.18232802 0.56357116 -0.3947563 -0.32112315 -0.57891625 0.23265651 -0.29299587 0.16649488 -0.39908272 0.2990912 0.7582045 -0.5805764 0.13836718 0.22723015
111 0.54684585 -1.0077386 0.20452595 -0.75490195 0.92172736 -0.16203508 0.29033163 -0.4012082 -0.24380253 0.15085566 0.7722191 0.72851574 0.046827655 -0.65766793 -0.572352 -0.40161142 0.2665664 0.19355674 0.45070836 0.2734016 -0.7626294 -0.08165673 -0.28609356 -0.38975292 -0.25631213 0.08005222 0.14512888 -0.15219451 -0.2536488 0.17747715 -0.059427325 0.33177143 0.46766123 0.33926255 0.45209387 0.6541391 -0.052548014 -0.09691128 0.0565879 -0.6423632 0.26574638 0.56662697 -0.034842968 -0.6183454 0.12201063 0.4652891 0.34252223 0.031635236 -0.097660914 -0.45777598 -0.3180571 0.57595015 -0.34854832 -0.27925926 0.0637234 -0.45374322 0.18506026 0.019633725 0.30480146 -0.12679873 -0.45844245 -0.29427046 -0.30398756 0.10528166
164 0.5250425 -0.40716192 -0.45894855 -0.44293427 -0.063651726 0.08662065 0.057167597 -0.01472856 -0.15806276 -0.44554758 0.08984412 0.12912431 -0.5520013 -0.27003363 -0.27100566 -0.56438047 0.3188507 -0.536806 0.19710386 -0.3553139 0.22055058 -0.2382903 -0.8221479 0.1840286 0.25990516 0.3878178 0.16562422 -0.031036673 -0.26015314 -0.59698826 -0.6478373 0.19716552 -0.005226093 0.5396541 -0.7604406 -0.046716306 0.059664693 -0.40145555 -0.29907167 -0.05642839 -0.485812 -0.07622078 -0.021920167 0.64231735 -0.49835944 0.13363059 0.9089137 0.8541794 -0.009552631 -0.2480188 -0.43345207 -0.33372796 -0.6093836 0.613201 -0.53531986 0.4142944 0.173769 -0.5595408 -0.16279192 0.28337106 0.22867385 -0.19183692 -0.4921195 -0.30482426
90 -0.05764416 0.086024754 -0.67873514 -1.4564025 0.051606983 0.6617875 -0.31236002 0.21154495 -0.61850643 0.20113005 -0.34123173 0.061429452 0.16729225 0.11941497 -0.6389536 0.13827352 -0.37585 -0.68237114 0.044859387 1.2565095 -0.2727402 -0.46861392 0.3031556 -0.5477542 0.9189109 0.04027748 -0.08042017 -0.16749941 -0.41040173 -0.7538764 -1.7185746 0.5198921 0.12477619 0.77893573 0.3548367 0.14642851 -0.030746188 -0.8464215 0.08399058 0.015437426 -0.71767765 0.67355967 0.16940634 -0.17650105 -0.2459702 -0.24622396 0.052479193 0.40541145 -0.8839832 -0.39399245 -0.42223987 0.7461521 -0.8474065 -0.38088667 -1.3123995 0.24125384 -0.6952373 -0.3426666 0.49234486 -0.3345063 0.19464393 0.10062176 0.9029094 -0.7243024
102 0.22326131 -0.6233166 0.6955177 -0.09837252 0.2466086 0.64246726 0.27512878 0.5144257 -0.91431564 -0.031055583 0.9383933 -1.0602419 0.081048824 -0.32678127 -0.3562838 -0.18256523 -0.28591615 -0.31277257 0.7302585 0.47055516 -0.29443446 -0.91082984 -1.7543693 -0.67057633 -0.68838835 0.4234319 0.5093268 -1.1026582 0.725147 -0.74691457 -1.4109629 -0.28207016 0.31740013 0.07287527 0.77593184 -0.99678904 0.6661848 -1.3433079 0.28051898 0.11973561 -0.41791221 -0.08276635 0.009409824 0.40461457 -0.4232675 0.629178 0.71890366 0.38712788 -0.11655123 -0.60872865 -0.047968548 0.9996611 -0.16825072 -0.39568144 -0.85804605 0.39891866 0.50805014 0.15013479 -0.77780706 -0.27167556 0.6016176 -0.29611033 0.6893333 0.08909721
88 0.77378047 0.12254759 0.8294646 -0.8173403 -0.67203885 0.31184027 0.007827659 -0.01352621 -0.3308989 -1.245229 0.5560088 0.11737046 -0.36643034 -0.89054793 -0.1171543 -0.34318927 -0.738134 -0.3454396 0.8287013 0.9560997 -0.31181398 -1.3761826 -0.85609055 -0.20611838 0.7718333 -0.075481236 0.30281827 -0.6636912 -0.34751245 -0.110155806 -0.7472751 -0.8595059 0.33725303 -0.056297675 -0.06318652 -0.29219416 -0.6706656 -0.69090354 0.30467317 -0.735641 -0.2928167 1.6384906 0.30550373 0.054645214 -0.47079578 1.2875242 0.42301843 -0.43144175 0.42914587 -0.26274663 -1.2847216 -0.7984416 -0.44677275 -0.50294936 -0.14480858 0.8936391 -0.1934104 -1.1070716 -0.28927025 -0.26484787 0.08384404 0.14427447 0.12431874 1.5964084
152 -0.08341354 -0.007815009 -0.16742076 -0.51633066 0.12599993 -0.32047614 -0.34914032 -0.22069873 -0.31215993 -0.66942215 0.34264272 -0.091858454 0.12521116 0.04583618 0.06870725 -0.34072563 -0.23216447 -0.066593915 0.1245485 0.006830348 0.06560422 -0.06927961 0.51443213 -0.19519201 0.050928053 -0.13371144 -0.088145606 -0.1412314 0.22116962 -0.32528841 -0.8261386 0.2255809 -0.18442282 -0.073479824 0.068572 -0.1317304 -0.15915117 -0.19839829 0.23058212 0.11788822 -0.29814515 0.37624398 -0.1625205 -0.39075872 -0.24520896 0.6500471 0.8412282 -0.44188964 -0.42379248 -0.17941004 -0.37394297 0.13198283 0.23728669 0.06230449 -0.27259913 0.22700924 0.1513531 -0.10161213 -0.40219814 -0.052862838 -0.12981047 -0.8341161 -0.18061614 0.06070085
97 -0.105211996 -0.4760986 0.037098512 -0.13670692 -0.4041719 0.38417 0.2702855 -0.07096763 -0.52369446 -0.37262285 0.70993364 -0.05568691 0.34403548 -0.3115357 -0.14213608 -0.23955083 -0.12774536 -0.22453727 0.4795678 -0.022683112 -0.3107846 -0.35786557 -0.062079888 0.25634164 -0.21901111 0.08071847 -0.20588496 -0.08228764 -0.5547355 -0.6326284 -1.1423837 0.60124004 -0.18742912 -0.5360297 -0.17091171 -0.49686033 0.024677614 -0.24128239 0.4068867 -0.40947318 -0.6794919 0.7701407 0.19433141 0.6048778 -0.4053924 0.26464233 0.3577833 0.01684807 -0.4182196 -0.09057938 0.16091846 0.418152 -0.08825774 -0.086104535 -0.16070142 0.017859008 -0.2068769 0.22549435 -0.17891714 -0.7127283 0.34478185 -0.18614767 0.056291264 -0.015124411
16 1.3272564 0.4750638 -0.06728187 -1.551241 0.033068303 0.92972666 -0.04632648 -1.3563181 -0.71647197 0.24249895 0.47889888 0.48411298 0.19553988 -0.053941555 1.0634402 -0.34436724 -0.29256538 0.34436578 0.4519679 0.74447113 -0.5959481 -0.73773646 -0.46299383 0.34360367 0.23227245 0.05652521 0.4977348 -1.002231 -0.29880294 -1.209065 -1.0220854 -0.16842169 0.27917683 -0.10004653 -0.24446082 0.955308 0.0768465 -0.797442 1.0716351 0.13061042 -1.0030259 -0.2570125 0.19926737 0.52473754 0.042348027 -0.07160825 0.6726571 -0.4624524 -1.3383071 0.10746625 -0.65437573 1.1961863 0.21798147 -0.045521352 -0.7604518 0.7708546 1.1192558 -0.5905539 -0.030776849 1.1821738 -0.42646825 -0.105666265 0.5269317 1.0023988
60 0.36750537 -0.29181743 0.31058365 0.013036744 0.42034236 0.3597514 0.8870835 -0.3380027 -0.5021531 0.20045882 -0.12060113 0.53192735 0.069450825 -0.08523779 -0.14703365 0.36660817 -0.54667455 -0.7971279 0.32314354 -0.21081819 -0.76623774 -0.20094435 -0.51438403 -0.43945315 1.1767032 0.19548704 0.22127381 -0.08798076 -0.005233969 -0.92882264 1.1609771 0.079687 0.15271744 0.5094285 -0.4381206 0.07305979 0.024754448 -0.53226906 0.20798361 -0.376322 0.4373366 1.3836244 -0.3856596 0.029088523 -0.5586862 0.008169612 1.1928531 0.32532212 -0.8656114 0.36499488 0.47905868 0.25504956 -0.3091894 -0.06156324 -0.22946091 -0.2876826 -0.023010777 -0.07149895 -0.37045753 -0.4869948 0.14249466 -0.19766639 -0.64580774 -0.23411682
137 -0.08043974 -0.4553829 -0.18024825 -0.5646607 0.09839475 0.66671497 -0.21632302 0.41449985 -1.0814468 0.7337073 1.018551 -0.110570334 0.40646952 -0.19995527 0.2613537 -0.8849703 0.1208216 -0.28436425 0.14773493 1.1144135 -0.17985435 -0.4272602 -1.0936006 -0.24994305 0.41802526 -0.3585414 0.15587704 -0.97429776 0.22768632 -1.1016865 -1.5759977 0.14965542 0.87003154 0.17374636 0.48471808 -1.0971636 0.62175894 -1.0429727 0.10726472 -0.27425462 -0.773402 0.29808417 -0.30540296 -0.096353054 -0.13758218 0.2885862 0.5156625 0.36078635 -0.6102385 -0.04007655 -0.008165982 0.6048504 -0.009972698 0.16534357 -1.1431388 0.75537056 -0.4813085 -0.12826313 0.4308097 -0.40072274 0.07660143 0.1496935 1.0114876 -0.5387875
147 0.01936433 0.10868803 -0.15060918 -0.6411779 0.5615872 -0.17972328 0.35146618 -0.100891456 -0.7890064 -0.09136763 0.42350644 0.25788403 -0.0023435722 -0.46992868 -0.12816814 -0.17794113 -0.4071439 0.021506274 -0.15872309 0.96106046 -0.25087813 -0.18926166 -0.25231627 0.12190382 0.25437984 0.76029396 -0.3718155 -0.03763442 -0.13230284 0.005136461 -0.6218862 -0.22318304 -0.18719637 -0.22419454 -0.10598703 -0.48759305 -0.2445129 -0.19460194 0.031606197 0.2299927 -0.49369574 0.061266057 -0.47542503 -0.2168724 0.3562037 0.5923366 0.27241665 0.009269938 -0.14741838 -0.07486708 0.012124113 -0.09367381 0.24930257 -0.68222994 -0.4381657 0.035544317 0.457736 -0.24861026 -0.17019045 -0.23387541 0.36339012 -0.38583368 -0.412188 -0.012925352
87 0.2949971 -0.7076387 0.7388736 -0.5837015 -0.2237337 0.69998693 0.01940387 0.8923161 -0.7326157 -1.1618106 0.47125402 0.044278547 0.10815269 0.12044791 -0.38119286 0.015508224 -0.16045135 -0.7296682 0.72460675 0.9904396 -0.6757553 -1.0546465 -1.015761 -0.09930196 0.46160623 0.41312695 0.28345317 0.13057655 0.33457148 0.046800815 -0.59949183 0.39661348 0.11989898 -0.1673285 -0.18725471 -0.51680464 -0.30979252 -1.1151626 -0.29345495 -0.06654251 0.21067943 1.0639206 0.34836492 -0.51579046 -0.4574563 0.8294528 0.30183756 -0.65363944 0.33247966 -0.63115215 -0.8854812 -0.4460917 -0.33615038 -0.33493787 -0.58777547 0.6587092 0.056750912 -0.7092409 -0.28528202 -0.2630792 0.5066695 -0.63085544 0.6240952 1.5495272
3 0.84690356 -0.07817688 0.02695698 -1.0637331 0.62376976 0.3224866 0.0053511583 0.15893266 -1.0574287 0.055933837 0.33323497 -0.78896236 0.12885252 0.18301727 0.6596523 0.16339698 -0.35281762 0.21629907 0.6880025 0.66254514 -0.38263595 -1.3699818 -1.1214758 0.052040365 -0.2689428 0.19499372 0.9262969 -1.0406067 -0.00833427 -0.63857716 -0.9423605 -0.099686846 -0.13870287 0.18523654 -0.30995104 0.97056097 0.18459225 -1.0302739 1.028816 0.22748196 -0.19220561 -0.28992575 0.8785574 0.3824669 -0.55610925 0.9277488 0.25008345 -0.24700749 -0.98160124 -0.26053783 0.1732982 0.9842712 0.016514264 0.11588887 -0.64478755 0.42163923 0.9019366 -0.4647325 -0.36676538 1.2815113 0.37992218 -0.93447775 0.61277616 0.8751453
69 0.5783844 -0.5257065 -0.76368463 0.10573896 0.6420389 0.620243 0.8536905 -0.54257745 -0.10423385 -0.035989653 -0.10787103 0.5576744 0.8048129 -0.04928284 -0.13828468 -0.39488733 -0.92896247 -0.8300943 0.47617424 -0.7127148 -0.4023343 -0.626405 -0.853843 -0.58231735 1.0365405 0.31695318 -0.07947456 0.77291524 -0.5005909 -1.0206412 0.1346399 0.1412584 0.5118767 -0.1095436 0.5602654 0.17129582 -0.35781065 -0.6748282 0.26941967 -0.20865873 0.35703462 0.44308847 0.11192448 0.02163242 -0.7368412 0.4881861 0.6044265 0.1737178 0.11916559 0.5722411 0.33073765 -0.19933523 -0.4932693 -0.26456997 -0.41286033 -0.5019225 -0.029452445 -0.156609 -0.20781763 -0.22442718 -0.34335062 -0.055470355 -0.43250033 0.0048918547
83 0.46841872 -0.3935714 0.5649407 -0.9146933 -0.1506886 -0.10507436 -0.2599035 0.36657742 -0.36082435 -0.37735316 0.2103752 0.41150656 -0.070757896 -0.111488685 0.6661171 -0.2313108 -0.5413623 -1.0380234 -0.017951798 1.078576 -0.29083654 -1.1582123 -0.70985323 0.11540041 0.5394071 -0.4455534 0.45041484 -0.1414088 0.09875788 0.22628087 -0.84820753 0.3596362 0.8484004 -0.546683 -0.19700645 -0.7923965 -0.4146884 -0.64903957 0.16635665 -0.63846755 -0.36324182 1.578783 0.052110814 -0.5546493 -0.015256395 0.7660112 0.34749728 -0.018900994 0.40698558 0.01076363 -0.83679485 -0.5517692 -0.06432001 -0.23982786 -0.4662847 0.81429005 -0.34236863 -1.0350037 0.5931353 -0.54833865 0.04837538 -0.60743356 0.43593168 0.78590983
15 0.06053227 0.28719497 0.033025227 -0.33839256 0.22896627 -0.10844193 0.7146531 -0.7332265 -0.33064386 -0.43682724 -0.0051039397 0.3231145 0.014740483 -0.33106294 0.13040818 -0.7291581 0.11485473 -0.24672645 -0.01645066 1.0760262 -0.03942406 -0.19630311 -0.34800684 -0.445263 0.45338884 0.19654733 -0.05233697 0.010016718 0.3049472 0.10306066 -0.5843311 -0.04598606 -0.2842586 -0.5463671 -0.38768455 -0.12492282 0.015352854 -0.67569244 0.021357948 0.27422842 -0.035173558 -0.12399095 0.6135891 -0.7511527 0.3564484 0.304708 0.2510793 0.4136641 -0.59363985 -0.06600847 -0.08338011 0.16917676 0.18976316 -0.43118125 -0.027980546 0.0030645432 -0.21074872 -0.18667035 -0.60080653 -0.66783667 0.011775928 -0.6023802 -0.81143373 0.09699051
84 0.4549408 0.44976723 -0.52934253 -0.036979333 -0.018130867 -0.6696184 -0.11621795 0.3833507 -0.19676691 0.39370698 -0.65953773 0.4828102 -0.45627904 -0.15425384 -0.09751295 -0.77718467 1.1576678 -0.32857466 0.47592983 -0.32707733 -0.12079351 -0.77426213 -0.05548736 0.21396744 0.8978563 0.39494848 -0.2128589 -0.3316239 0.6867986 -0.5926174 0.043666705 0.52954626 -0.79455626 -0.46367273 0.7522758 0.5689896 -0.16355315 -0.41127083 -0.21984814 -0.6380911 0.2062702 0.45865545 0.1896246 0.1292494 0.46252045 0.9330964 0.5676352 0.54107517 -0.29667968 0.4011522 -0.04264716 -0.076919064 0.38313365 -0.92694235 -1.0173422 -0.19172268 0.3125071 0.43341362 -0.39880452 -0.7085203 0.07910538 -0.24288376 -0.119323604 0.48871812
68 0.2932175 -0.49678126 -0.3960052 0.21390799 0.706525 0.8722626 0.6549225 -0.17643312 -0.031048343 -0.669946 -0.64958495 0.15125586 0.08707501 -0.4711459 -0.26243213 -0.12313186 -0.44178617 -0.9629493 0.91417325 0.2440727 -0.8098005 -0.039495073 -0.4304107 -0.3794798 1.0395027 0.104143195 0.067112245 -0.3269642 -0.05520684 -0.9270399 0.09453968 0.25066617 0.3359829 -0.0908689 0.2813854 0.5378248 -0.024572382 -0.27544633 -0.28582945 -0.34674224 -0.43930182 1.3239509 0.35767448 -0.30572686 -1.0813298 0.2868063 1.3181173 0.106173225 0.18702309 0.22112809 0.6493129 0.04868033 0.30695203 -0.16457935 -0.26778367 -0.12177769 0.60771996 -0.30066738 0.10234294 0.2183408 -0.26400828 0.36301568 -0.6074836 -0.34778547
100 0.01972191 0.33978325 0.8173007 -0.6219307 -0.7533049 0.7936574 0.22980897 0.20175742 -0.25315294 -0.0706108 0.5472757 0.20903444 0.07153476 -0.2904293 0.012385506 -0.15378214 0.16921762 -0.35401842 0.42172205 0.8866803 -0.3846833 -0.43075868 -0.74043256 -0.2593091 0.8072782 -0.22402361 -0.33277854 0.351992 -0.054806035 0.25266534 -0.40656817 -0.20026207 0.31074244 -0.109637536 0.46267545 -0.5054955 -0.8294367 -0.7074175 0.5029395 0.037680086 -0.49679178 1.4488916 0.18001238 -0.67385226 -0.3884973 1.0540521 0.32032686 -0.1989133 -0.19438481 -0.3490514 -1.1128048 -0.13081095 -0.32837927 -0.2720872 -0.7006349 0.66140664 0.05642881 -0.6968592 0.0873228 0.2240075 0.0804 -0.3474664 0.9006032 0.7044064
46 0.25282043 0.6895649 -0.4676315 0.23790574 0.45614082 0.12873848 0.42271438 0.31887555 -0.55108386 -0.20425871 0.09663816 0.022436185 0.4426379 0.39238957 -0.5717229 -0.54237103 0.19352068 -0.6816714 0.64557314 -0.17340986 -0.5977387 -0.67832536 0.6746336 -0.2700492 0.034470905 -0.63724107 -0.097466305 -0.19160135 0.31014764 -0.47416413 -0.26159796 -0.0071849674 -0.64462966 -0.06338117 0.04997443 0.40288317 -0.35365757 0.268129 -0.34297332 -0.08727528 -0.27456334 0.22995743 -0.20819685 -0.08920784 0.56054544 0.97138363 0.155284 0.77545846 -0.5780731 0.9166368 -0.37152186 0.24001761 0.6390148 -0.53900945 -1.2020406 0.7913275 0.1579219 0.16050534 -0.29408243 -0.39208442 -0.11004733 -0.89475137 -0.96607894 0.43974206
78 0.18872248 0.26068348 -1.4095852 -0.1739661 -0.038099427 0.38087374 0.922092 0.26775512 -1.097077 -0.42872503 0.1219667 -0.29651135 0.38024673 -0.004460275 -0.49866503 -0.3050526 -0.14392453 -0.43812165 0.33376196 0.37560934 -0.19666234 -0.15714906 0.6176933 -0.8826189 -0.2488425 -0.13655052 0.58324045 0.74078375 0.49058574 -0.6002942 -0.21442613 -0.2181263 -0.17698205 -0.29401258 -0.0291797 0.03085943 -0.29419777 0.23304418 0.4348745 -0.13579604 -0.7371013 0.08092564 -0.7239992 0.09907834 0.08518177 0.90125203 0.7016434 0.37256876 -0.7070862 -0.14697568 -0.24091545 0.6426025 1.0099804 -0.38904643 0.32926273 0.7842634 -0.44206825 -0.40663582 0.07818357 -0.38202825 -0.021986708 -0.9237815 -0.6250726 0.59238696
35 -0.1845033 0.3039368 0.38702598 -0.17115982 0.28341937 -0.6736034 -0.11292478 -0.06933862 -0.9241042 -0.44128945 0.03734433 0.2813185 -0.32864374 0.23253147 0.059761424 -0.22161026 -0.106542125 -0.7060031 0.6933418 -0.10904215 -0.46165752 0.41815427 0.56955534 -0.20315026 0.046376366 0.28710142 0.72811437 -0.12090756 0.15512274 -0.8340091 -0.028667608 0.37866634 0.13125521 0.41362473 -0.6976581 -0.49931768 -0.7417785 -0.17032371 0.41734958 0.06998208 -0.26379594 0.9252735 0.051733185 0.3046192 -0.67284685 0.24175516 0.5478099 -0.16380855 -1.230863 0.044133138 -0.50327843 -0.10063115 0.0773006 -0.10206347 -0.39925465 0.58442825 -0.10153042 0.6052824 -0.42983335 -0.3042417 0.12364007 -0.7502526 -0.356743 0.13079001
99 0.47098735 0.033195976 -1.3490981 -0.4968514 -0.42823586 -0.42538506 0.30992675 0.44860795 -0.65970105 0.3442063 -0.77321535 0.26761007 -0.5772094 -0.37488866 -0.10914093 -0.49885073 0.79923385 -0.045665175 0.23507717 0.047983713 0.35476083 -0.079467185 -0.12717356 -0.37600353 0.525124 0.93132645 0.4715096 0.44458765 0.76545113 -0.71616 0.11841237 0.33830506 -0.16301878 -0.69441134 0.56396335 0.3848057 -0.39352283 -0.48843867 0.4313273 -0.56455094 -0.107618265 0.38294518 -0.30963516 0.15178089 0.017854907 0.9019864 1.0443165 0.312578 -0.37455297 -0.6996885 -0.01049439 0.20327508 0.8039301 -0.76850075 0.3986535 -0.1497489 -0.28794473 -0.07488077 -0.009099849 -0.7427455 0.26012596 -0.08795249 0.16749382 0.70035386
57 0.8792037 -0.19456017 -0.54667866 0.054568764 0.4719838 0.73128045 0.73470616 0.19430733 -0.38174975 -0.30307266 -0.50179005 0.34182277 -0.122894816 0.3006728 -0.6303124 -0.38921311 -0.9472908 -1.0433024 -0.021978877 -0.38447362 -0.897631 0.096357115 -0.68743914 -0.43228 0.44814923 0.5162441 -0.67151695 -0.51225924 -0.2116173 -0.7080572 0.18660127 0.60072756 0.23148948 -0.30569512 0.6585922 0.002412644 0.12129386 -0.19976462 0.6192537 -0.72163224 0.44480303 0.76697934 0.2939394 -0.15004751 -0.6270839 0.34861997 1.178274 -0.16350967 -0.937019 -0.002503305 0.2678482 -0.07060945 -0.6148013 0.0802665 -0.44057348 0.2196481 0.5786416 -1.1993896 -0.20649177 -0.30203238 -0.42926845 -0.0073110713 -0.76068014 -0.50671
43 0.28921184 -0.5742398 0.54353297 -0.92608786 -0.5589048 0.40439183 0.31118628 0.49329028 -0.7035751 -0.41157767 0.57426757 0.45827928 0.24811298 -0.07869199 0.4888487 -0.12365768 -0.20912051 -0.34451845 -0.013107986 0.758375 0.36988202 -0.65137315 -0.42226475 -0.8158968 0.8237571 0.27096748 -0.0055522025 -0.88532233 0.24652903 0.13775142 -0.6378546 0.25041154 -0.08547299 0.2271785 0.10825156 -0.20715049 -0.32749406 -0.35558212 -0.10680823 0.04817201 -0.68159443 1.0492239 0.31323633 0.23164487 -0.2875725 0.48328772 0.35361317 0.102495335 0.43335634 -0.17314723 -0.7755608 -0.7779006 -0.8613301 0.065328605 -0.3604245 0.70532435 -0.0858109 -0.6340319 0.28157365 0.031096153 -0.057344407 -0.6598104 0.09463909 1.4346416
21 0.59277743 -0.23993677 -0.356839 -0.7439391 0.4408987 -0.13678254 -0.31431082 -0.7762445 -0.5645092 -0.031867236 -0.42619514 0.15345156 -0.46103427 -0.081471585 0.36006796 0.8185364 -0.77933437 -0.96269995 -0.1428272 0.8594777 0.5556232 -1.2982044 -0.50049394 -0.82235396 -0.30854005 -0.07628009 1.0682865 -1.5313945 -0.23675331 -0.4818946 -1.8542713 0.3862344 0.4969824 -0.04915786 0.72694385 -0.20581017 0.0870758 -0.99272895 0.33487502 -0.81590724 -1.3904535 0.8530585 0.11864119 0.6453013 0.5339452 0.37201646 0.3856531 0.9551195 -0.23546316 0.48940876 -0.535004 1.0325754 -1.0109406 -0.14433458 -0.2942163 0.30429837 -0.031281255 -0.40162864 0.31140515 -0.23135613 -0.04254976 -0.20132583 0.28735965 -0.62992513
86 0.26187205 -0.022693899 -0.14353712 -0.41861603 0.51070756 -0.5214345 0.5130072 0.17684413 -1.079683 -0.2817058 0.6823995 0.18969242 0.48601642 -0.43884507 -1.2388188 -0.85527873 -0.00044862975 -0.38096938 0.68449473 0.44387788 -0.31949738 -0.609415 0.57714665 -0.6633747 -0.6626916 -0.7058405 -0.081147365 0.5713243 -0.29899028 -0.6560316 -0.18474075 0.15251675 0.0099261 0.22066979 0.13629563 0.020585904 -0.13453442 0.015604963 -0.33864936 0.06864172 -0.5650482 0.3534227 -0.030031532 -0.14695463 0.020777876 0.7099863 0.3989845 0.23728177 -0.7260289 0.15426828 -0.10603704 0.9897781 0.1990501 -0.49444768 0.25320512 0.64632475 0.45111182 -0.18256634 0.37820175 -0.31355488 -0.9882685 -1.2231323 -0.764132 0.4095208
157 0.018804459 0.114040375 -0.5450751 -0.114307955 0.48579314 -0.38077694 -0.03443453 -0.31046495 -0.6137963 -0.5553396 0.057823632 0.22644432 0.37643394 0.2268895 0.14141278 -0.8457865 -0.42842215 -0.73694456 0.76079136 -0.43100584 -0.06561084 0.04903885 0.27177504 -0.31641042 -0.033768296 0.30372608 0.5382758 0.6962071 -0.2930344 -0.895689 -1.0298982 0.34182352 0.323487 -0.1477673 0.18373816 -0.43056837 -0.9842388 -0.31589094 0.45739105 0.16906492 -0.35038528 -0.007149332 0.50985926 0.23617385 -0.8265748 0.62857765 -0.06670295 -0.3045279 -0.2607827 0.24889223 -0.6820044 -0.49223724 -0.08596296 -0.21408837 -0.6584405 0.2726385 -0.023744462 0.4623247 -0.31191877 -0.0627461 -0.32397595 -0.6224045 -0.114222266 0.42737958
81 0.58365744 -0.21463035 -0.14731489 -0.7381951 0.009638525 -1.3502015 -0.10992102 0.41179818 -0.65663344 0.38530892 -0.19273761 0.69798976 -0.52097714 -0.7747302 -0.78027576 -1.064254 0.9443499 -0.04511742 0.60049933 0.14023198 0.20716234 -0.53066266 -0.1347552 -0.11953531 0.10843108 0.36101672 -0.22734845 0.31338295 0.008269174 -0.7460606 0.18764436 0.68218523 0.022229066 -0.17819138 0.76436573 0.38564524 -0.17342997 -0.761051 -0.30816826 -0.39471468 0.04504414 0.6130848 0.40342927 -0.09410104 -0.030282648 0.6602278 0.7178243 0.12846941 -0.4362175 -0.37315997 0.11690263 0.61998546 -0.04935441 -0.9192887 0.2848408 -0.34411225 0.59566915 0.16742049 0.29731017 -0.670387 -0.69738525 -0.3986527 -0.0013736163 0.47659528
56 0.3945747 -1.0278621 -0.20822227 -0.11379691 -0.0021360568 0.5209368 0.42162555 -0.51408994 -0.49019653 -0.561241 0.17408128 0.26129538 0.12962306 0.26351693 0.10382585 -0.30629072 -0.9315386 -1.5986372 0.17168036 -0.66277695 -0.858871 -0.6330718 -0.54416955 -0.721194 0.85141075 0.620435 -0.5548149 -0.09521591 -0.21909302 -1.2671974 0.44313067 0.2869574 0.7242163 0.33492514 0.1256661 0.124464475 0.25244474 0.11125552 0.5397009 0.046492796 -0.20767964 1.426133 0.4121026 -0.060180858 -0.3858856 1.0452291 0.6114501 -0.06931692 -0.7258535 -0.28231317 0.43593353 0.23190482 0.13794631 -0.31464854 -0.5471829 -0.749683 0.43157858 -0.48437867 0.115659244 0.20121063 0.12723805 0.64616805 -0.62789404 -0.27465934
20 -0.06473816 -0.63297784 -0.67596 0.48651704 0.81964064 0.34513408 -0.82228214 0.16893362 -0.21744901 -0.2632193 0.24863325 0.23676853 -0.6316031 -0.36714616 -0.56265646 -1.0906249 0.06140554 0.13169919 0.45513028 -0.11542986 -1.1464407 -0.4133726 0.04095786 -0.075503886 0.5602794 0.068997 0.47641772 -0.39939547 -0.5427127 0.01085605 -0.6055255 -0.042643636 0.20333938 -1.1454737 -0.06342862 -0.32813105 -0.5243558 -0.66320455 0.4444333 0.439501 0.27970555 1.328107 -0.9132067 0.68179995 0.58540463 0.15957156 0.7453267 1.1004516 -1.1151283 -0.38138837 0.69918096 -0.68603927 -0.47047493 -0.2748371 -0.92689335 -0.35401425 0.17176719 0.8128579 -0.4246532 -0.17908628 -0.2905177 -0.38920504 -0.4178301 0.8087905
94 0.13639629 -0.008607468 -0.5601043 -0.70583594 0.80899906 0.29920873 0.19014423 -0.11467903 -0.7722415 -0.4939694 0.15102106 -0.17537665 0.08722072 0.20948954 -0.6140441 -0.38330185 0.60025877 -0.73655546 0.20121875 0.44119695 -0.7369907 -0.9569228 0.4140698 -1.0608063 -0.56770825 -0.8373046 -0.8346418 0.14298718 -0.20433198 -1.3773168 -0.35756257 -0.16018224 -0.5975405 -0.04820016 0.10086756 -0.63157034 -0.50329244 0.10526823 0.19787793 0.31681287 -0.5045097 0.20502627 -0.25273094 0.20414485 -0.31255156 0.69502354 0.33783528 0.18618438 -0.5088313 0.73446965 -0.68861496 0.5614826 0.92637193 -0.08494026 0.48787785 0.64735097 -0.022696763 -0.4679517 0.06831745 -0.30106676 0.41037038 -1.0389762 -0.6912388 0.6102328
112 -0.38052016 -0.10512551 -0.020408625 -0.14724433 0.67557377 0.12867151 0.5996083 0.14950988 0.35014772 -0.086033374 0.73610777 0.88316226 0.041252263 0.6723785 -0.91402346 -0.42732275 0.5524624 -0.28275412 0.6300603 -0.41503066 0.020810658 -0.9459169 -0.32249814 -0.3104387 0.20285356 -0.37464193 -0.18707135 -0.4692577 0.73987734 -0.5514455 -0.3477411 0.28906125 -0.013850002 -0.7491113 -0.14540255 1.1152972 -0.88138515 -0.40510365 -0.24376382 -0.2624353 0.7275775 0.874376 -0.89227134 -0.5199698 -0.031029945 0.50322354 -0.45879596 1.9694161 -0.41356042 0.26744407 -0.17223941 0.27978754 0.37821546 0.22487493 -0.38728866 0.83838993 0.42553982 -0.04117331 -0.12810417 -0.086956546 -0.25728753 -0.00045207242 -0.40195498 0.6306224
82 0.38093928 -0.14340445 -0.5203179 -1.0056348 0.4585997 -0.6234825 -0.46533233 0.13617665 -0.4072323 0.35324505 -0.67281306 0.3920034 -0.9822862 -0.16451283 -0.084609725 -0.7151644 1.5128117 -0.38053474 0.17085786 0.14664061 -0.24427819 -0.81705403 -0.25327793 -0.38252398 0.24052806 0.4340337 -0.9962091 -0.100730486 0.23918542 -1.5042765 -0.0012679149 0.42024603 -0.7434611 -0.44443923 0.81822264 -0.2821785 -0.52319163 -0.70471275 0.21391605 -0.14922792 0.06740801 0.50226814 0.19649982 0.29532686 -0.25283936 0.7409992 0.7190341 0.0230099 -0.07332806 0.18166156 -0.42352927 0.15931128 0.5777361 -0.5693391 0.5630555 -0.30470952 0.05112135 -0.090535164 -0.12268361 -0.6571047 0.6994237 -0.20592102 0.0836246 0.5408506
54 1.3124467 -0.012451036 -0.8729125 -0.41725963 0.5378895 0.9191419 0.5829341 -0.27237508 -1.0168805 -0.5860076 -0.026269386 0.097425066 0.7625187 0.27262446 -0.015248452 0.18661083 -0.46388796 -1.024275 0.35971355 -0.48723012 -0.7996522 -0.83764815 -0.65821546 -0.27313888 0.94285536 0.3578816 -0.6671104 -0.404472 -0.37081277 -1.1014509 0.5369247 0.117086224 0.7737661 0.37220922 -0.08034498 -0.5132276 -0.5568546 -0.2053562 0.5667563 -0.391882 0.033760108 1.3934797 0.45075884 -0.16453227 -0.88873416 0.32513052 1.2555864 0.2958673 0.10003214 -0.5431315 0.39422816 0.068263784 -0.31001008 0.17868072 -0.3565591 -0.47128826 1.1078616 -0.11671995 -0.010220734 -0.40973574 -0.13292299 0.20500566 -0.21502507 -0.4964042
118 -0.17081122 -0.4510418 -0.3228191 -0.6101857 0.26877165 0.19344664 0.37339357 0.15050778 -1.4931418 -0.8622465 0.8537504 0.50231504 0.47372 -0.27645212 -0.92231345 -0.014588041 -0.090091676 -0.5307451 0.4440255 -0.24254367 0.045795355 -0.99253434 0.5679883 -0.44858155 -0.35533434 -0.4886037 -0.71652716 -0.060886394 0.97325796 -0.884818 -0.11677329 0.18657097 -0.4102045 -0.2545281 -0.68482995 0.11549407 -1.1134425 -0.12859406 0.5450652 -0.55465835 -0.28154212 0.39740545 -0.35911125 -0.326087 -0.22849624 0.40984195 -0.57890743 0.6375307 -0.027496565 0.40083867 -1.2055532 0.8090331 0.88659203 -0.54412365 0.003388757 0.59918547 0.1727414 -0.8972925 -0.11668751 0.4606717 -0.4591023 -0.8827058 -0.08198263 -0.3655695
163 -0.3921014 -0.32642448 -0.00086780405 -0.2638228 0.99422294 0.53839844 0.057412032 -0.0028096256 -0.37834138 -0.9184639 0.33898693 -0.015661199 -1.0329 0.32080618 -0.043234263 -1.0237414 -0.09616067 0.09559796 0.9082957 -0.3774876 -0.5009577 -0.28506878 0.31489307 0.25040662 0.011871242 0.53739023 -0.13022758 -0.7347339 -0.85294837 -0.5370911 -0.23105495 0.47780982 0.74674845 -1.0464089 -0.2918029 -0.6501961 -0.8281185 -0.2589305 0.17789198 0.5449804 0.026311152 0.6698023 -0.5448284 0.4279002 0.6386611 1.0769728 1.3440201 1.2120091 -0.7479421 -0.5806756 0.6986997 -0.38497317 -0.5037551 -0.64390016 -0.78757465 -0.4218255 -0.8040145 0.5527697 -0.07900636 -0.27500364 -0.29916027 0.006458823 0.28030047 0.57402575
104 -0.2509765 -0.1921286 -0.94534564 0.041349363 0.16146274 -0.0654754 0.15388148 -0.347877 -1.1405935 -0.7390757 0.54501873 0.0082429275 0.5537408 -0.55829656 -0.977919 -0.5230183 -0.05333611 -0.5396287 0.15836166 0.08532737 -1.2541642 -1.3033521 0.38911 -0.074821964 0.83897305 -0.9836117 -0.44672352 0.41799086 0.23591441 0.14627972 -0.56347495 -0.260298 -1.4183602 -0.41692546 0.15483423 -0.41333997 0.32431495 -0.096169285 0.49130392 -0.1829573 -0.70070857 0.4314455 -0.85767245 0.3397537 0.24733798 0.642407 0.32058993 0.5485788 -0.39508384 0.23659326 0.3843325 0.4963638 0.24862216 0.03585563 -0.8191984 0.60733855 0.39598948 0.54126745 -0.040993966 -0.59660786 0.07319001 -1.1062566 -1.0012279 0.36303464
32 0.7169529 -0.2281081 0.031435806 0.045354594 0.28525138 -0.095978044 0.46668938 0.8859814 0.31484863 -0.71174055 -0.72407454 0.93308777 0.39285702 -0.1304887 -0.56816196 -1.0892487 0.037793964 -0.91791415 -0.12967265 0.7889144 -1.655225 -0.5762199 -0.2689893 0.35555628 0.61635846 0.09475957 -0.7686307 0.07039526 0.62147576 0.13233851 -0.07601825 0.49196953 1.2931334 -0.17968906 0.2607822 0.6149089 -0.4409666 0.30127597 -0.14061598 -0.8086392 -1.1618783 -0.097927555 -0.6872436 0.55497545 -0.28612673 1.0970217 0.2896136 0.34130937 -0.5840438 -0.81760275 -0.37321824 0.5810612 -1.0985414 0.6580718 0.5153561 -0.6991999 -0.5411053 0.48105672 -0.8267594 0.033303417 0.594896 -0.120603494 -0.6290893 0.41449064
